<?xml version="1.0"?>
<opencv_storage>
<opencv_ml_svm>
  <format>3</format>
  <svmType>C_SVC</svmType>
  <kernel>
    <type>LINEAR</type></kernel>
  <C>1.0000000000000001e-001</C>
  <term_criteria><iterations>1000</iterations></term_criteria>
  <var_count>324</var_count>
  <class_count>10</class_count>
  <class_labels type_id="opencv-matrix">
    <rows>10</rows>
    <cols>1</cols>
    <dt>i</dt>
    <data>
      0 1 2 3 4 5 6 7 8 9</data></class_labels>
  <sv_total>45</sv_total>
  <support_vectors>
    <_>
      2.05294862e-002 1.39633368e-003 9.60780587e-003 3.59414867e-003
      6.82587363e-003 -4.85547213e-003 -1.78966410e-002 -1.63172316e-002
      6.13870658e-003 9.38329324e-002 7.23179802e-002 5.84548973e-002
      3.63229215e-002 2.55469438e-002 -1.41429128e-002 -3.73338722e-002
      -4.26611155e-002 6.29419461e-002 -1.13942176e-001 3.20680737e-001
      3.10330927e-001 -2.82886345e-002 1.31391350e-003 8.66957847e-003
      -4.35045399e-002 -3.69157828e-002 -2.26738304e-001 1.11556955e-001
      1.87196538e-001 2.55802304e-001 4.12688553e-002 -8.52135047e-002
      2.69358382e-002 -8.07793587e-002 -1.52257621e-001 -2.88986772e-001
      1.07510149e-001 1.15788572e-001 9.87666920e-002 -7.93865882e-003
      -5.04615158e-002 -2.17422042e-002 -4.69028801e-002
      -1.00618415e-002 7.29455948e-002 4.00453240e-001 3.55854064e-001
      -3.92347202e-002 -8.65312293e-002 -8.33170339e-002 1.74146760e-002
      5.14331013e-002 9.45027620e-002 2.47642621e-001 1.59511015e-001
      3.79104078e-001 3.24303247e-002 -1.51027009e-001 -2.41106749e-001
      -8.13592002e-002 -1.80020109e-001 -1.96026221e-001
      -1.03040300e-001 1.64346114e-001 4.64463905e-002 -4.23011750e-001
      -2.95343518e-001 -2.78157115e-001 -3.97200212e-002
      -7.51094287e-003 7.98008218e-002 2.02112138e-001 3.07949692e-001
      1.10972740e-001 -1.12557583e-001 -8.36798921e-002 -2.73309164e-002
      7.74229690e-002 1.03496335e-001 1.53270334e-001 2.42932722e-001
      -1.43137902e-001 -1.50041714e-001 -2.14749157e-001
      -5.79842217e-002 4.86702695e-002 4.13755029e-002 -5.31222075e-002
      6.54060859e-003 -8.68632570e-002 9.85680148e-002 -1.47498399e-001
      -2.02772602e-001 1.72056518e-002 8.79068002e-002 1.00655049e-001
      1.49784833e-001 2.50513792e-001 2.61447221e-001 -2.02590197e-001
      -6.30390882e-001 -1.08846560e-001 2.31805310e-001 -7.12029729e-003
      4.56047542e-002 1.34752974e-001 1.65841937e-001 -5.10280579e-002
      -2.34012753e-001 -7.76332617e-003 1.63574412e-001 4.61759791e-002
      1.06991053e-001 7.08878338e-002 3.52417529e-002 -5.72322831e-002
      -1.88626841e-001 -7.97145739e-002 1.29956931e-001 2.67319828e-001
      2.17342556e-001 1.95598632e-001 6.84936121e-002 2.02337392e-002
      -8.48785415e-002 -1.65647596e-001 -4.15538877e-001
      -2.02380717e-001 9.18570999e-003 2.56355017e-001 6.17092140e-002
      1.68119550e-001 1.17416538e-001 -3.41337145e-004 -2.41710782e-001
      -1.70814633e-001 4.99418890e-003 6.97706491e-002 3.39597940e-001
      4.03942555e-001 2.14484349e-001 2.16379553e-001 2.11112157e-001
      4.51392569e-002 -4.16324772e-002 1.26297027e-001 1.81589797e-002
      5.98592535e-002 3.15851881e-003 1.73658095e-002 -2.71505155e-002
      -8.31155628e-002 -1.60999119e-001 -3.68949063e-002
      -1.86797157e-002 -6.74474938e-003 7.59776160e-002 5.18453540e-003
      3.60335745e-002 3.98379304e-002 2.82366853e-002 2.93316226e-002
      -1.04405969e-001 -3.85704972e-002 -1.40887322e-002 1.51691049e-001
      1.11441270e-001 6.03644699e-002 1.03741117e-001 1.61945939e-001
      5.23189418e-002 -7.22156763e-002 1.10324636e-001 1.01373091e-001
      9.92425904e-002 2.51168553e-002 1.56586040e-002 6.50357048e-004
      5.41374348e-002 -1.86539143e-001 -1.80373117e-001 -1.10678166e-001
      1.92644939e-001 2.97336459e-001 2.11618111e-001 1.09708555e-001
      1.07947022e-001 1.15342528e-001 6.74450472e-002 -5.41075408e-001
      -4.81137276e-001 1.11457050e-001 4.36445117e-001 1.87863603e-001
      -4.38435655e-003 7.93028697e-002 8.30539390e-002 -1.63610160e-001
      -2.48428211e-001 1.25982925e-001 2.80801475e-001 2.37932265e-001
      3.48985866e-002 1.38084069e-002 2.70796549e-002 -5.65167889e-002
      -3.42788100e-001 -4.25050974e-001 1.11726820e-001 5.28856993e-001
      1.61519483e-001 -1.24087989e-001 6.66028820e-004 2.10059434e-002
      -6.84023052e-002 -3.47147942e-001 -4.43660617e-001
      -2.27616608e-001 -1.11475401e-002 2.20948189e-001 -2.71254592e-002
      1.12053230e-001 1.12498209e-001 2.39013266e-002 -2.70389348e-001
      -1.12052299e-001 -1.74855277e-001 -5.28268479e-002 2.05606863e-001
      3.25890869e-001 1.93600997e-001 2.03536913e-001 2.64612705e-001
      8.50432441e-002 -7.84441456e-002 -7.47783408e-002 -2.11390536e-002
      3.20594907e-002 5.03512584e-002 -2.24001706e-002 -1.59491915e-002
      1.37679363e-002 -6.20938726e-002 1.74126580e-001 -1.49910137e-001
      -2.26305857e-001 -2.87558418e-002 7.44838044e-002 4.81522046e-002
      1.01396888e-001 3.04291636e-001 3.27664137e-001 -4.91215736e-002
      -1.66771904e-001 -3.23290706e-001 -2.61675920e-002 2.56286189e-002
      4.68186885e-002 1.13533027e-001 2.81895906e-001 2.14761287e-001
      1.24212608e-001 1.87244579e-001 -1.38970062e-001 -3.91406827e-002
      -2.53713012e-001 -1.14866652e-001 -1.10994861e-001 4.74472083e-002
      -1.38744991e-002 4.17974263e-001 -2.61550508e-002 -3.22597593e-001
      -1.12799302e-001 -1.06977612e-001 8.86358600e-003 7.98208565e-002
      1.99431688e-001 4.09082860e-001 4.84025598e-001 4.65599835e-001
      1.65729418e-001 -2.25749463e-002 -2.51705229e-001 -9.94785130e-002
      -6.73757419e-002 4.90172990e-002 1.96666896e-001 2.15601418e-002
      1.40222222e-001 2.22896054e-001 -5.60686849e-002 -2.79817879e-001
      -1.11792915e-001 -1.70691311e-001 -2.14885175e-001
      -3.21958363e-001 -2.81972170e-001 5.29655695e-001 8.39715183e-001
      -1.56553257e-002 -2.07707778e-001 -6.40254021e-002
      -4.73265015e-002 -1.67420134e-001 -5.55186808e-001 3.86236787e-001
      4.36731786e-001 2.95156181e-001 1.15607549e-002 -2.04567134e-001
      -9.23806131e-002 -5.18151447e-002 -2.42489818e-002 8.46252590e-002
      -1.62815023e-002 1.42674404e-003 -4.17584628e-002 -4.23325673e-002
      -1.15113147e-001 -3.05343401e-002 -1.24829002e-002
      -4.29857634e-002 -7.55717233e-002</_>
    <_>
      -2.84967050e-002 -1.02476895e-001 -1.42370284e-001
      -5.53811193e-002 -3.11891790e-002 -5.26000932e-002
      -5.11101820e-002 -5.96635044e-002 -5.12611493e-002 1.23086341e-001
      1.55821666e-001 4.13696229e-001 2.66454332e-002 -1.01698905e-001
      -8.10058787e-002 -9.56559554e-002 -6.15894981e-002 7.24982992e-002
      -3.15186977e-002 -3.14022005e-001 -4.69977289e-001
      -2.77051508e-001 -2.02725455e-001 -1.85309932e-001
      -1.95673883e-001 -1.72937468e-001 -1.66186318e-001 1.61292419e-001
      5.00530601e-001 3.56481761e-001 1.46371156e-001 -1.31804243e-001
      -3.47496331e-001 -2.75448501e-001 -2.14405045e-001
      -1.06920011e-001 1.20544329e-001 1.62390783e-001 2.03894749e-001
      -2.48164937e-001 -4.18191463e-001 -1.39958903e-001
      -7.27838725e-002 5.23268282e-002 1.73356414e-001 3.16657633e-001
      2.74705738e-001 -8.87338743e-002 -3.79566282e-001 -5.63649118e-001
      -5.71568683e-002 1.70793161e-001 2.69044399e-001 2.73991376e-001
      3.39575976e-001 3.73424172e-001 -1.09672092e-001 -4.13785189e-001
      -1.02535486e+000 -4.43223447e-001 -2.52527893e-001 2.75086444e-002
      2.68239230e-001 2.65870720e-001 5.21997735e-002 -4.50404525e-001
      -7.55033314e-001 -7.55474627e-001 -2.40897417e-001
      -5.78688718e-002 2.07498297e-001 2.84999281e-001 1.96681350e-001
      1.15618199e-001 -2.25129917e-001 -2.43090540e-001 8.02443922e-002
      2.53170431e-001 4.80714768e-001 3.28111917e-001 2.06604704e-001
      -1.83409955e-002 -1.19117439e-001 -2.00161397e-001
      -8.34070370e-002 3.53605151e-001 1.56967267e-001 4.57378849e-002
      5.18404762e-004 -9.10563990e-002 -2.21096814e-001 -2.65553355e-001
      -5.07666588e-001 -3.60648155e-001 -6.04852773e-002 6.15004078e-002
      1.72541682e-002 1.52950898e-001 -1.06452808e-001 -1.81632921e-001
      -3.95144373e-001 -2.34875694e-001 -3.50126103e-002
      -1.89918101e-001 -8.88863578e-002 5.75273782e-002 -1.12572201e-001
      -2.57028937e-001 1.39948642e-002 -6.16841428e-002 -2.79953390e-001
      -2.46440724e-001 -1.79819852e-001 -1.72280356e-001
      -1.31287023e-001 -7.26276413e-002 -5.69101311e-002 8.56156871e-002
      2.61680514e-001 3.55246276e-001 1.54213548e-001 -7.99436644e-002
      -7.79866874e-002 -3.28448415e-002 -1.07018417e-002 1.28802627e-001
      -3.58221494e-002 8.69146213e-002 2.36594543e-001 -7.23366290e-002
      2.09426228e-003 -2.45875537e-001 -2.82564968e-001 -1.83335260e-001
      -5.30797839e-002 -3.03832367e-002 1.97667360e-001 1.40857399e-001
      8.92339721e-002 2.01599747e-001 1.48316445e-002 1.68437921e-002
      -1.03090025e-001 -7.16120303e-002 2.75898755e-001 3.71675611e-001
      1.04681231e-001 -2.01551273e-001 -4.16211158e-001 -2.56524652e-001
      -1.88269064e-001 4.34688702e-002 2.54298449e-001 2.14256048e-001
      1.06374025e-001 -2.10881516e-001 -2.61745423e-001 -3.78900588e-001
      -2.67665029e-001 -1.85623392e-001 2.16751285e-002 1.15989894e-001
      2.55011097e-002 -1.15926005e-001 3.97937894e-002 -2.80987378e-002
      -1.19623929e-001 -3.20957862e-002 -1.53013943e-002 6.20178543e-002
      9.21658874e-002 -3.61519977e-002 -3.26550037e-001 -2.42440477e-001
      4.44218256e-002 -3.12298149e-001 -2.52598763e-001 -2.25180492e-001
      -1.19039491e-001 -7.11059496e-002 -4.54391390e-002
      -1.55596122e-001 -2.81466782e-001 -1.51955947e-001
      -1.25503922e-002 -1.01299316e-001 -1.58083230e-001
      -8.47027972e-002 -9.19012725e-002 -5.91433942e-002
      -1.76195964e-001 -4.32987437e-002 1.38678402e-002 6.80190176e-002
      -1.14571385e-001 -1.81980990e-002 4.01787311e-002 1.03602177e-002
      -8.16995800e-002 -2.49980703e-001 -1.22873813e-001 3.03249359e-002
      -1.60461590e-001 -9.55404118e-002 -1.49263069e-001
      -2.50422537e-001 -2.48152241e-001 -4.13986295e-002 3.75401489e-002
      -3.92710231e-002 -7.10049644e-002 -1.68439344e-001
      -3.29417549e-002 -6.16980437e-003 -9.70567986e-002
      -2.44117752e-001 -2.63325244e-001 -9.22953188e-002 1.49899453e-001
      2.44639367e-002 1.36316732e-001 -2.44981095e-001 -3.25606376e-001
      -2.99895108e-001 -3.04097503e-001 -3.99548650e-001
      -3.22090477e-001 -1.42182931e-001 1.65508226e-001 3.89498621e-001
      2.88004845e-001 5.80287054e-002 1.36273757e-001 -2.62237936e-001
      4.43711504e-002 1.28565114e-002 4.92953956e-002 1.09889045e-001
      3.56075227e-001 7.74303079e-002 2.88137328e-002 1.77072018e-001
      9.09341201e-002 4.58605438e-002 -1.59061193e-001 -2.09040605e-002
      6.78582042e-002 1.85991406e-001 2.59736329e-001 4.02974993e-001
      4.50799584e-001 1.66571960e-001 -5.49339764e-002 -3.61590236e-001
      -1.46406651e-001 -6.11402392e-002 -6.95866570e-002 9.39488038e-002
      1.27625689e-001 1.51384592e-001 8.18645507e-002 1.94277927e-001
      -2.68817339e-002 -2.63381749e-001 -2.16954708e-001
      -6.18652940e-001 -2.14781389e-001 -1.57551289e-001
      -3.31769809e-002 7.90252388e-002 3.66436243e-001 -5.47676124e-002
      -7.61880204e-002 -1.26685292e-001 -1.74928874e-001 1.92530379e-002
      2.64452189e-001 2.38006040e-001 3.04801285e-001 3.10055614e-001
      7.05581903e-002 -9.77220386e-002 -4.56242055e-001 -6.97166622e-001
      -1.75230950e-001 2.44501773e-002 -1.91291142e-002 1.85016468e-001
      1.41150758e-001 2.16562450e-001 2.60666251e-001 2.03152582e-001
      -3.71236712e-001 -3.01433325e-001 -4.08707798e-001
      -3.48729819e-001 -2.24004805e-001 5.35741169e-003 1.38146088e-001
      1.92764983e-001 -3.33214775e-002 -3.09169471e-001 -2.10835248e-001
      -2.96970397e-001 -2.47398451e-001 -3.43113661e-001 2.20922828e-001
      3.80591542e-001 2.35769272e-001 -1.91630691e-001 -4.53094333e-001
      -2.00963363e-001 -2.23562539e-001 -1.85032010e-001
      -9.95452795e-003 -9.54294801e-002 -7.91676790e-002
      -4.04265746e-002 -1.46837225e-002 -1.09874152e-001
      -1.08532898e-001 -1.88590690e-001 -1.44018456e-001
      -1.40066132e-001</_>
    <_>
      -6.48305565e-002 -1.12676352e-001 -2.38934785e-001
      -1.44518211e-001 -1.60626531e-001 -3.77511978e-002
      -3.18236798e-002 -2.52737775e-002 -1.11563116e-001 2.25782976e-001
      2.24544659e-001 3.30180824e-001 1.81385830e-001 -3.43465537e-001
      -1.42162800e-001 -1.36052981e-001 -4.43826020e-002
      -7.09360652e-003 -3.64054777e-002 -6.16765395e-002
      -3.79913837e-001 -3.77618581e-001 -1.91191837e-001
      -1.77113891e-001 -2.27025062e-001 -1.16020367e-001
      -2.84883887e-001 4.62863073e-002 3.57327312e-001 4.92659152e-001
      6.71785325e-002 -1.21803172e-001 -2.67542988e-001 -4.43801105e-001
      -3.43341261e-001 -2.43285820e-001 3.20475250e-001 2.35476628e-001
      2.31823698e-001 -9.85239670e-002 -7.56192565e-001 -1.99867934e-001
      -1.87640056e-001 1.31410118e-002 1.92530051e-001 3.79041165e-001
      4.14406866e-001 2.02745304e-001 -3.09774280e-001 -9.20960665e-001
      -2.25148588e-001 -1.50894046e-001 8.22420642e-002 3.21862549e-001
      1.80139601e-001 2.43248001e-001 4.94435392e-002 -2.54698068e-001
      -7.54171491e-001 -3.87762904e-001 -3.75240207e-001
      -1.53507605e-001 -1.09401442e-001 1.68122441e-001 1.38057038e-001
      -2.11754665e-001 -4.69696701e-001 -9.46051240e-001
      -4.38628912e-001 -6.19291961e-001 -1.64525568e-001
      -5.39312139e-003 2.44063303e-001 2.29050815e-001 4.62016203e-002
      -1.84093505e-001 -2.83188075e-001 6.82620108e-002 2.66456038e-001
      3.63858581e-001 3.42774838e-001 -5.62999435e-002 3.32024298e-003
      -8.57604370e-002 -7.08217174e-002 -2.50598714e-002
      -5.51797152e-002 -2.03227475e-001 -8.26037526e-002
      -5.43873422e-002 1.24489972e-002 -1.01786718e-001 -3.27932358e-001
      -3.24477136e-001 -3.78586709e-001 -2.29307219e-001
      -2.64714491e-002 1.25577495e-001 7.52273854e-003 -1.66881621e-001
      -3.65290463e-001 -1.70061648e-001 -1.04039177e-001
      -2.97767729e-001 -2.00264633e-001 1.74141929e-001 7.31920302e-002
      -8.28480124e-002 6.52944222e-002 1.08131699e-001 -2.19777226e-001
      -2.47902796e-001 -3.68307084e-002 -1.73851028e-001
      -1.92672461e-001 -4.10416424e-002 8.21870379e-003 7.21661095e-003
      1.25501022e-001 7.34756216e-002 -3.82423662e-002 -1.78713687e-002
      -4.61227074e-002 -1.04361571e-001 -1.20532908e-001
      -1.34524494e-001 -3.00062820e-002 1.76204294e-001 8.50749612e-002
      -2.30345093e-002 -6.93690628e-002 -1.36590287e-001
      -2.05482319e-001 -1.06218912e-001 -1.11849397e-001
      -2.73660511e-001 -3.21343690e-002 -1.57872871e-001
      -4.51464060e-004 2.03769878e-002 -6.42133318e-003 -3.91928889e-002
      -1.18861154e-001 -2.53882110e-001 5.12864143e-002 8.38234276e-002
      -5.41496575e-002 -1.91440120e-001 -1.88796282e-001
      -2.72150487e-002 4.63599432e-003 -2.60008704e-002 1.87489502e-002
      1.10249214e-001 1.42559782e-001 -1.33966714e-001 -3.25007975e-001
      -3.85397315e-001 -5.79663366e-002 -1.12527736e-001
      -9.51455068e-003 4.26410791e-003 2.50341445e-002 -1.03130870e-001
      -4.08989847e-001 -5.21108806e-001 -5.82084894e-001
      -7.07537234e-002 3.93733568e-002 3.59079428e-002 4.42343764e-002
      1.30586088e-001 -1.56675410e-002 -3.10522825e-001 -3.16241920e-001
      -4.33139533e-001 -2.11955175e-001 -2.58118182e-001
      -1.49422064e-001 -3.67338210e-002 1.19998783e-001 1.24622062e-002
      -7.78422281e-002 -5.42675853e-002 -8.72639380e-003 7.61157833e-004
      6.37882277e-002 1.01638198e-001 1.29773393e-001 -6.25716448e-002
      -1.36285946e-001 -5.84540330e-002 -9.27153528e-002
      -2.78291386e-002 -6.99158385e-002 7.60741308e-002 1.87645525e-001
      6.62619248e-002 -3.83791551e-002 -4.95986901e-002 -1.60026968e-001
      1.06102407e-001 2.58511323e-002 3.86094823e-002 -3.37902969e-003
      -1.06682166e-001 -4.51988839e-002 -1.03602484e-001
      -1.26260236e-001 -2.42014453e-001 -1.55590415e-001
      -9.25460011e-002 8.34935829e-002 1.36683062e-001 1.62261240e-002
      -1.21574566e-001 -2.75229722e-001 -7.16797039e-002 1.04461953e-001
      2.63180174e-002 4.90335487e-002 -5.50635085e-002 -5.63381054e-002
      -1.63087308e-001 -3.78842175e-001 -3.28280866e-001
      -5.16617358e-001 -3.45087975e-001 -5.89545853e-002
      -1.70639753e-001 -3.18341330e-002 1.72722563e-002 1.37347683e-001
      -1.09674446e-001 -9.67067331e-002 -2.36439556e-002 8.40498731e-002
      7.08118752e-002 1.88508764e-001 1.10697463e-001 2.19982311e-001
      1.51031151e-001 -7.27575645e-002 7.92555586e-002 -2.59417236e-001
      -2.46807471e-001 9.13968906e-002 2.08936676e-001 1.96898654e-001
      1.87754169e-001 4.93239254e-001 2.21784964e-001 9.47681293e-002
      -1.44238591e-001 -3.63006145e-001 -4.15812492e-001
      -5.29982924e-001 -1.69912040e-001 -1.55478165e-001
      -9.18842256e-002 2.25049537e-003 7.75823444e-002 3.40082943e-002
      -1.61817670e-001 -9.34994966e-002 -3.62051666e-001
      -2.47919157e-001 -4.83276904e-001 -5.09617150e-001
      -2.36469135e-001 4.31163430e-001 9.39836428e-002 -7.84682631e-002
      -2.23861616e-002 -3.05843148e-002 -3.45827197e-003
      -8.59687924e-002 9.08403620e-002 2.63404548e-001 1.42628819e-001
      3.23571593e-001 2.09806338e-001 1.54428244e-001 4.85878401e-002
      -6.61705062e-002 -3.06289077e-001 -2.98768342e-001
      -8.67689848e-002 -1.71433583e-001 -3.37442905e-002 1.06332973e-001
      4.52682853e-001 2.86813319e-001 5.61888679e-004 -2.83570707e-001
      -4.16899592e-001 -4.53679979e-001 -1.25897691e-001
      -2.65051007e-001 -3.04223150e-001 -7.07390010e-002 1.97113693e-001
      2.97549665e-002 -8.03243145e-002 -1.20611027e-001 -2.34292641e-001
      -1.03950955e-001 9.94614139e-002 2.65388459e-001 3.80238622e-001
      3.42938125e-001 1.44348722e-002 -6.29884675e-002 -1.32137194e-001
      -1.12878986e-001 -4.84774522e-002 -1.12088181e-001
      -1.46795169e-001 9.25870538e-002 2.25147501e-001 4.48557781e-003
      -3.79491923e-003 -1.71473203e-003 -5.37172034e-002</_>
    <_>
      -3.72102708e-002 1.76573750e-002 9.81773809e-002 5.11542112e-002
      2.79051880e-003 -1.49045493e-002 -6.72010332e-002 -3.74165960e-002
      -6.55511469e-002 -1.24971956e-001 -1.36482850e-001 4.36697592e-004
      6.40382543e-002 1.84776466e-002 -2.23902538e-002 -1.13876134e-001
      -1.04873702e-001 -3.64394300e-002 -5.34970313e-002
      -1.45200968e-001 -1.72456205e-001 2.18314976e-002 -1.26353309e-001
      -4.66886014e-002 -1.30988792e-001 -8.16120580e-002
      -1.70593068e-001 6.82025328e-002 1.45571560e-001 2.43253127e-001
      6.62862137e-002 1.33479565e-001 1.66645683e-002 -1.76192611e-001
      -9.80087891e-002 1.10242702e-001 -1.97240144e-001 -1.81744948e-001
      -3.55828479e-002 9.71931592e-003 -5.46088852e-002 -3.32794040e-002
      -4.90494147e-002 -1.30865062e-002 -9.15402547e-002 5.73157109e-002
      1.63352147e-001 7.15332404e-002 -7.10708797e-002 -2.25480691e-001
      -1.02654442e-001 -4.30289656e-002 -4.94515290e-003
      -1.50590897e-001 7.66111631e-003 1.57090798e-001 1.44443676e-001
      1.10848486e-001 -1.48058400e-001 -1.05648004e-001 -1.21997990e-001
      -1.05271719e-001 -1.77310556e-001 2.67221838e-001 1.39830932e-001
      3.16568501e-002 -1.63160771e-001 -5.42907059e-001 -3.14909190e-001
      -5.36303520e-001 -3.94050658e-001 4.87962477e-002 2.17124730e-001
      1.05273813e-001 -1.03161409e-001 -2.27365762e-001 -2.71684438e-001
      -6.96761683e-002 3.93725559e-002 1.32999048e-001 5.19342236e-002
      1.47025898e-001 -5.63721247e-002 -1.69831291e-001 -1.18289582e-001
      1.87618807e-001 1.04250610e-001 2.37403944e-001 2.68458366e-001
      2.20143020e-001 4.40262854e-002 -2.66009063e-001 -3.40576977e-001
      -2.36634761e-001 -5.06490529e-001 -3.92567813e-001
      -1.45141050e-001 6.32606894e-002 2.32283007e-002 -1.01864643e-001
      -5.75354040e-001 -2.41409987e-001 2.62545068e-002 4.48889136e-002
      1.48775160e-001 4.87564743e-001 4.48253244e-001 6.53291214e-003
      -1.84815034e-001 -5.60019538e-002 -7.84248710e-002 4.59309369e-002
      2.92926431e-002 7.51401335e-002 -1.93788242e-002 -6.20506182e-002
      -1.91354364e-001 -1.36020690e-001 -1.45819768e-001 1.92390263e-001
      1.30418718e-001 1.03508048e-001 7.85972401e-002 -1.53784850e-003
      -9.21883807e-002 -2.01905474e-001 -3.60858977e-001
      -7.11847246e-002 1.83324248e-001 2.83372164e-001 2.06544876e-001
      1.94823489e-001 1.28260821e-001 -3.36237960e-002 -2.16977224e-001
      -3.34066749e-001 -2.20904127e-001 -1.13958806e-001 1.75527275e-001
      2.78977484e-001 1.98569119e-001 1.00648366e-001 -8.22998676e-003
      -1.50581688e-001 -1.12179734e-001 -6.03158250e-002 4.39523458e-002
      7.80458152e-002 -1.30129531e-001 -3.22080776e-002 2.34324895e-002
      -7.79672265e-002 -1.34859115e-001 -1.66302975e-002
      -8.37320089e-002 -8.94688815e-002 -1.22620165e-001
      -4.88267481e-001 -9.91281942e-002 -1.59306884e-001
      -1.44836470e-001 -5.49986102e-002 -8.55904669e-002
      -1.80339292e-001 -1.83932588e-001 -5.39258029e-003
      -8.14305171e-002 6.33225739e-002 1.33517757e-001 3.96573879e-002
      7.95063190e-003 -1.53036162e-001 -1.33471161e-001 -1.59923136e-001
      -8.35187137e-002 -4.25162524e-001 -6.93701059e-002 1.28122745e-002
      3.35673951e-002 -7.03684837e-002 -1.80212669e-002 -2.29894206e-001
      -1.51743531e-001 -6.06464520e-002 -1.61970556e-001
      -3.98742482e-002 -8.84291232e-002 -5.88996187e-002
      -2.04610582e-002 -4.59826797e-001 -4.78358924e-001 9.28379670e-002
      3.76532823e-001 5.33836782e-001 1.78763136e-001 2.35540524e-001
      3.33135799e-002 -3.23603511e-001 -3.11083496e-001 -1.87173009e-001
      4.71343622e-002 4.78391163e-002 -1.20438211e-001 -4.24962230e-002
      -1.46390736e-001 -1.93872720e-001 -2.93316305e-001
      -5.00400662e-001 -2.40514696e-001 2.25252584e-001 3.48168790e-001
      1.06639586e-001 8.00061747e-002 -1.30105570e-001 -3.41976315e-001
      -5.77392042e-001 -2.34221041e-001 -2.22690076e-001
      -9.01346356e-002 2.16546550e-001 2.04465151e-001 1.72069967e-001
      3.14014792e-001 1.38546005e-001 -1.66833941e-002 -2.68779099e-001
      -4.42011476e-001 -4.19234693e-001 -8.92174616e-002 8.66048411e-002
      2.38742664e-001 2.90842146e-001 2.09210306e-001 -1.48954634e-002
      -4.02002595e-002 -1.45411760e-001 -2.47079909e-001 6.93990104e-003
      1.25966266e-001 8.11344162e-002 2.37829521e-001 1.93449408e-001
      8.24659392e-002 -1.81368455e-001 -2.93464601e-001 -3.44881326e-001
      -1.98128656e-001 -3.96517329e-002 2.11272776e-001 3.08767825e-001
      2.60984778e-001 5.14136516e-002 8.49838331e-002 -1.65287316e-001
      -2.61570871e-001 -1.00349396e-001 -1.43909022e-001 2.24201083e-002
      1.19365416e-001 1.20482661e-001 1.77331090e-001 4.29082066e-002
      3.73735204e-002 -1.35401398e-001 -1.14943162e-001 -4.76167202e-001
      -1.88852936e-001 -9.55158249e-002 -3.97098884e-002 1.36609829e-003
      1.93138227e-001 -8.86424556e-002 -1.85766876e-001 -1.60814390e-001
      -2.17108592e-001 7.30749080e-003 9.11495239e-002 1.61183551e-001
      1.77562878e-001 7.33409524e-002 1.95222631e-001 -1.14922248e-001
      -1.26434162e-001 -3.38337809e-001 -1.68761209e-001
      -6.52537942e-002 -4.75366414e-002 -5.38285933e-002
      -6.55995607e-002 6.66260794e-002 3.25841963e-001 7.96356499e-002
      -2.11805910e-001 -2.60236979e-001 -2.54933655e-001
      -3.15220922e-001 -1.88708127e-001 -2.45825112e-001 1.94143485e-002
      4.40369844e-001 2.38818079e-001 -9.43093225e-002 -1.44825071e-001
      -2.32326552e-001 -3.48662466e-001 -4.64406878e-001
      -1.00460082e-001 2.12912664e-001 1.59638539e-001 -1.66742168e-002
      -2.17158318e-001 -1.94687277e-001 -1.30834833e-001
      -1.62360549e-001 -1.62140667e-001 -2.39257663e-001
      -5.18093221e-002 3.02126016e-002 1.70145482e-002 -1.26935050e-001
      -5.52454181e-002 -7.93809071e-002 -1.52853847e-001
      -2.68425375e-001</_>
    <_>
      -6.31021848e-003 9.50820222e-002 1.46365419e-001 3.33197452e-002
      4.89388220e-002 2.39779372e-002 -1.88377220e-002 -1.73264220e-002
      -2.87860986e-002 -3.17914076e-002 8.41573700e-002 3.79655987e-001
      1.22574478e-001 -3.96159925e-002 -2.64234450e-002 -1.01244681e-001
      -5.21566458e-002 -3.19631621e-002 -2.16635883e-001
      -8.25097859e-002 -7.41720200e-002 -1.01447053e-001 1.45366509e-002
      9.08891484e-002 4.44252007e-002 -3.28806341e-002 -2.83121407e-001
      -2.34138191e-001 3.68607156e-002 3.62164080e-001 2.90323406e-001
      2.36399509e-002 -1.28905952e-001 -1.86010733e-001 -2.85383999e-001
      -4.37602073e-001 1.24305487e-001 1.73760116e-001 3.28103423e-001
      1.85175110e-002 -2.46288836e-001 -1.26830906e-001 -1.83483303e-001
      -5.22171706e-002 1.18271902e-001 3.04661274e-001 3.77735257e-001
      1.68913409e-001 -1.90582201e-001 -6.88456714e-001 -2.63983995e-001
      -2.09546283e-001 3.76240760e-002 1.41335145e-001 5.54890595e-002
      2.13101655e-001 9.79675353e-002 -1.90382510e-001 -6.20247960e-001
      -4.28553820e-001 -5.13195217e-001 -3.81837904e-001
      -2.15625674e-001 2.78956234e-001 2.12979823e-001 -2.33515829e-001
      -5.18785477e-001 -8.40287328e-001 -5.22464693e-001
      -4.08406943e-001 -1.47108078e-001 8.84809643e-002 2.39299983e-001
      9.73283648e-002 -1.30543873e-001 -1.78458825e-001 -2.68428147e-001
      3.00988574e-002 1.94425881e-001 3.46631706e-001 2.29293808e-001
      -4.53472361e-002 -4.99344729e-002 -1.09240696e-001
      -3.88933867e-002 8.00247863e-002 4.15799534e-003 1.28481234e-003
      -4.24029678e-002 -6.29085451e-002 5.24287745e-002 -5.88406697e-002
      -4.66332048e-001 -3.00670058e-001 -2.36571103e-001
      -1.87560648e-001 -8.77201781e-002 3.01313605e-002 2.84219906e-002
      -1.41755700e-001 -2.04979151e-001 -1.09379843e-001 2.58995183e-002
      -1.33501306e-001 -2.23088548e-001 2.16473699e-001 1.36192488e-002
      -8.35956782e-002 -1.02114260e-001 -1.01613037e-001
      -8.92619044e-002 -2.64967978e-001 5.24557568e-002 1.16056494e-001
      1.86836243e-001 8.58425498e-002 -4.32528704e-002 -1.63414091e-001
      -1.06532641e-001 1.66877151e-001 8.25854912e-002 -1.06517253e-002
      8.17302689e-002 2.24061221e-001 1.02752484e-001 -1.86266556e-001
      -7.71006569e-002 -1.13968357e-001 -8.92741308e-002
      -2.39761770e-001 -1.66076850e-002 -1.86952986e-002 1.46470323e-001
      1.16919316e-001 1.38713634e-002 8.96960869e-002 6.13596477e-002
      -5.38125373e-002 -1.60882756e-001 -7.63778687e-002
      -3.85971107e-002 9.72206816e-002 1.75785244e-001 1.37417048e-001
      1.05877548e-001 1.70793861e-001 4.32563983e-002 -1.86334118e-001
      -3.78591985e-001 -1.34570166e-001 -2.56150905e-002
      -2.21616216e-002 1.87082794e-002 2.29571000e-001 1.63976133e-001
      -1.85383484e-001 -3.49433154e-001 -3.12220097e-001
      -1.99885084e-003 6.04171446e-003 9.48075727e-002 1.54775083e-001
      1.90092504e-001 2.21887022e-001 -9.65168991e-004 -2.51202404e-001
      -4.95091408e-001 -1.57779783e-001 -1.07437447e-001
      -2.12409105e-002 1.26797780e-001 3.74082141e-002 1.03386492e-001
      8.95027965e-002 6.57274500e-002 -1.12457074e-001 -8.52928609e-002
      -6.77397028e-002 -1.57586396e-001 -3.28519717e-002
      -3.50577086e-002 3.05991294e-003 -1.78900480e-001 -8.09004083e-002
      5.96819408e-002 8.92902985e-002 2.19792947e-002 -2.14548595e-003
      1.40823899e-002 -1.30801424e-001 -7.77844861e-002 -5.10048047e-002
      -1.27684966e-001 1.32698182e-003 -9.34125856e-002 -4.15939353e-002
      5.09149060e-002 -6.42811134e-002 -9.77621973e-002 -1.04303874e-001
      3.07523925e-002 8.50428343e-002 1.27196223e-001 1.67409882e-001
      1.25921860e-001 -1.06432036e-001 -1.14761993e-001 -1.27818331e-001
      -3.92053202e-002 -1.86254993e-001 -2.22794518e-001
      -1.81386303e-002 1.14441156e-001 1.65375710e-001 -2.55861748e-002
      -1.41723573e-001 -1.32939667e-001 -2.25469321e-001
      -1.91969484e-001 -3.41010064e-001 -4.29545939e-001
      -1.10209279e-001 1.56413749e-001 1.02376848e-001 -9.95410159e-002
      2.31226563e-001 -3.27981748e-002 -2.82091737e-001 -5.56473553e-001
      -4.46481824e-001 -8.36358890e-002 1.88497186e-001 2.51695991e-001
      2.42358029e-001 -1.59400940e-001 -7.22495615e-002 -1.63063377e-001
      -1.87401548e-001 -2.38343999e-001 4.25642505e-002 1.72271177e-001
      4.28461246e-002 -1.51826516e-001 3.63145888e-001 6.97576702e-002
      -9.76566076e-002 -2.91378677e-001 -3.14786762e-001 1.61950946e-001
      3.62430394e-001 5.51987529e-001 4.36265200e-001 2.73434430e-001
      3.25908363e-001 6.08309582e-002 -3.19063097e-001 -6.15216434e-001
      -2.58791387e-001 -2.69261658e-001 -1.44106612e-001 1.31439790e-001
      4.76490669e-002 2.79132664e-001 2.92071044e-001 1.95682660e-001
      -2.46475056e-001 -2.67185628e-001 -3.40400279e-001
      -2.61662185e-001 -6.92618117e-002 4.99559343e-001 3.91212791e-001
      2.63412505e-001 -1.77918643e-001 -4.87855822e-001 -1.69878513e-001
      -1.02534029e-003 1.57664046e-001 2.99957484e-001 1.68694630e-001
      3.05001706e-001 4.08554584e-001 2.17656761e-001 -1.65346473e-001
      -1.37531221e-001 -1.88155040e-001 -7.64018595e-002
      -1.07980212e-002 -2.46187925e-001 1.93432719e-002 2.36892328e-001
      2.41623774e-001 3.20965707e-001 -1.68006141e-002 -1.47498205e-001
      -2.76539654e-001 -3.30463558e-001 -1.28106385e-001
      -2.03565121e-001 7.90158566e-003 -5.32545559e-002 1.98500693e-001
      7.45973662e-002 -1.86979324e-002 -1.02568865e-001 -2.16977730e-001
      -2.09179856e-002 -2.40701833e-003 2.76753813e-001 5.49389243e-001
      2.55323142e-001 -6.44661561e-002 -5.93808666e-002 -4.53567989e-002
      -4.24924679e-002 -1.59994978e-002 -7.35890493e-002
      -2.15028375e-002 1.93385690e-001 3.09167564e-001 5.78261400e-003
      -1.39199826e-003 2.97909160e-003 -7.33551243e-003</_>
    <_>
      -2.31157914e-001 -1.22098260e-001 -4.98315245e-002 2.44010966e-002
      4.14858162e-002 4.86673834e-003 -1.08452234e-002 -3.63760404e-002
      -1.42592758e-001 -1.54042020e-001 -1.13192923e-001 1.97447255e-001
      1.37316406e-001 1.18691511e-001 -2.01066546e-002 -2.87924781e-002
      -6.13514753e-003 -5.88358156e-002 -4.67073947e-001
      -4.30212140e-001 -9.70248729e-002 4.58036698e-002 3.18334967e-001
      7.51218796e-002 -2.22985841e-006 -9.28845480e-002 -3.71002913e-001
      -1.46434277e-001 4.51632477e-002 4.46773410e-001 4.38335121e-001
      5.47340631e-001 8.04933086e-002 5.48133701e-002 3.07781883e-002
      -2.78954625e-001 -1.65363386e-001 -1.19058162e-001 2.42745280e-002
      7.38229826e-002 2.40402538e-002 -2.23364308e-002 -6.07450195e-002
      -6.25705868e-002 -1.20930083e-001 7.52516836e-002 2.13077962e-001
      2.19210416e-001 7.13420659e-002 -3.96092888e-003 -4.05233167e-002
      -6.18876629e-002 -9.58601609e-002 -1.10470690e-001
      -1.57079861e-001 3.13723981e-002 7.55366534e-002 8.03058669e-002
      -3.59050594e-002 -8.31162855e-002 -9.71470997e-002
      -1.18585639e-001 -1.62389144e-001 2.74107279e-003 7.46983662e-002
      1.67277567e-002 -3.51720192e-002 -1.52981237e-001 -5.25279306e-002
      -1.51123464e-001 -2.01900855e-001 -1.21892326e-001 1.97210416e-001
      2.17151701e-001 1.22048244e-001 2.42081285e-002 1.95704075e-003
      -4.58856486e-002 -3.51834632e-002 -1.00490451e-001 1.12694325e-002
      1.77796513e-001 7.25088269e-002 2.51604933e-002 5.21878712e-002
      1.36248633e-001 3.64827625e-002 2.85319865e-001 1.96798593e-001
      1.98653430e-001 -1.29579812e-001 3.28782052e-002 -1.25194103e-001
      2.01408844e-002 -2.91886955e-001 -1.81617543e-001 -2.51050413e-001
      -2.37055644e-001 -1.72091991e-001 1.02605365e-001 2.09900867e-002
      9.14348215e-002 2.49180049e-001 1.08892404e-001 7.49673173e-002
      -9.08174813e-002 3.73170525e-002 -8.03078804e-003 -5.15820324e-001
      -5.58708668e-001 -2.28743181e-001 -7.39300475e-002 3.20511639e-001
      1.73557132e-001 1.19658493e-001 -3.85521427e-002 -3.49002749e-001
      -2.54948586e-001 -3.76146793e-001 1.11797117e-001 3.13684732e-001
      4.55673277e-001 2.06345305e-001 3.83770257e-001 1.57952920e-001
      -2.28464827e-001 -2.38987163e-001 -4.89155740e-001
      -1.69487163e-001 1.53900564e-001 5.40230632e-001 3.29190582e-001
      2.94262558e-001 1.24286160e-001 -9.46914256e-002 -9.50301364e-002
      -5.07689655e-001 -4.24007624e-001 -4.44167964e-002 7.55837187e-002
      2.09295273e-001 2.87726909e-001 5.81805408e-001 4.53654885e-001
      1.93990543e-001 4.33503604e-003 -3.92981507e-002 -1.25072207e-002
      -6.00751676e-002 1.81033909e-002 2.76167721e-001 1.73169822e-001
      1.98378503e-001 4.56121676e-002 -1.38566881e-001 -3.41152847e-001
      -3.15324664e-001 -1.25240937e-001 3.99524271e-002 1.34094298e-001
      1.54846758e-001 1.31581062e-002 2.63502777e-001 -3.50391924e-001
      -5.65413654e-001 -4.04434472e-001 -4.35028464e-001
      -1.77650645e-001 1.38823509e-001 3.01563650e-001 4.63421762e-001
      -2.42262438e-001 -2.77079940e-001 -1.82959452e-001
      -2.41935939e-001 -4.56418604e-001 -3.34807515e-001
      -1.84077829e-001 -1.54986247e-001 -2.53299326e-001
      -3.12716275e-001 -2.41067544e-001 -2.15810493e-001
      -3.16628292e-002 -2.68804263e-002 1.25367278e-002 -1.08049929e-001
      -1.02383196e-001 -2.83487231e-001 -7.14132935e-002 6.64410442e-002
      2.03632176e-001 2.74799496e-001 2.32574686e-001 2.34221071e-002
      -1.41489608e-002 -3.96319143e-002 -8.31164718e-002
      -4.51253951e-001 -1.75790593e-001 9.80523415e-003 -8.99411440e-002
      -2.14118585e-001 -1.87848523e-001 -2.77985901e-001
      -3.00617307e-001 -5.49210012e-001 -8.77453461e-002 1.39145300e-001
      1.01902559e-001 9.53584444e-003 -1.87771291e-001 -6.32329658e-002
      -1.24198608e-001 -1.10735871e-001 -1.81496292e-001
      -1.96564540e-001 -6.10637963e-001 -2.55970657e-001
      -7.56067783e-002 1.04311332e-001 2.12045178e-001 3.84837627e-001
      2.84271538e-002 -4.98795398e-002 3.28959286e-001 -7.06262410e-001
      -7.91447461e-001 -8.60862613e-001 -5.58822393e-001
      -1.61750093e-001 7.84907192e-002 3.66086781e-001 5.61803460e-001
      -3.13703083e-002 -2.17533201e-001 -3.59030217e-001
      -2.74103396e-002 1.55325487e-001 8.92784521e-002 9.47924480e-002
      3.13225426e-002 -1.19849844e-002 5.44590354e-001 2.97591984e-001
      -3.59873116e-001 -3.68239701e-001 -4.42809641e-001 1.07716002e-001
      1.85383633e-001 5.04891157e-001 4.88251925e-001 4.57031190e-001
      -5.11256680e-002 -6.47378683e-001 -6.40716076e-001
      -1.02905285e+000 -5.58615983e-001 -5.27049005e-001
      -1.95147380e-001 3.35630417e-001 3.03690024e-002 -9.59414151e-003
      1.30442977e-002 -1.70406654e-001 -6.78380430e-001 -5.11960626e-001
      -5.51546514e-001 -5.29535294e-001 -9.57753211e-002 6.12442493e-001
      5.27593970e-001 1.77333266e-001 -1.63264707e-001 -5.25503576e-001
      -6.21014535e-002 1.50279058e-002 2.93674111e-001 4.78923023e-001
      1.28887966e-001 1.91980660e-001 -1.00207152e-002 4.56409492e-002
      -2.50179291e-001 -1.73912406e-001 -7.78195858e-002
      -1.87902022e-002 -5.78734204e-002 -4.70016338e-002
      -2.08163317e-002 1.43018246e-001 -6.53825104e-002 -3.13706607e-001
      -2.68196702e-001 -3.02829653e-001 -3.65588784e-001
      -2.92656034e-001 -3.54974046e-002 2.40313232e-001 -1.33223757e-001
      -1.19007967e-001 -3.18970293e-001 -7.32857063e-002
      -7.19021931e-002 -7.51087368e-002 -1.20601080e-001 6.49975687e-002
      -7.76833892e-002 -8.91845115e-003 2.06378475e-001 1.65539011e-002
      -5.39707541e-002 -7.45353773e-002 -7.46906400e-002 1.58554185e-002
      -4.14498299e-002 1.17088623e-001 2.32349887e-001 7.34652504e-002
      4.79436666e-002 2.48400983e-003 7.50772934e-003 -3.48821655e-003
      -2.18934356e-003</_>
    <_>
      -4.75226715e-002 -4.15691398e-002 -1.66304074e-002 1.40423561e-003
      -1.05405390e-001 -1.76728573e-002 -2.30268668e-002
      -1.50544392e-002 -3.25312093e-002 -1.97362274e-001
      -1.98524058e-001 1.29736820e-002 -9.06499550e-002 -2.27211669e-001
      -5.87820075e-002 -1.04377121e-001 -6.11314550e-002
      -1.47177339e-001 -5.00561148e-002 8.65129568e-003 -1.17113583e-001
      -1.14238925e-001 -3.11549395e-001 -1.28827527e-001
      -1.86424911e-001 -9.53245237e-002 -1.31670207e-001 2.77573913e-002
      2.86271751e-001 2.51400083e-001 8.17317814e-002 -1.38276353e-001
      -1.64042249e-001 -1.80357069e-001 -1.36531051e-002 2.38325465e-002
      -2.24346012e-001 -2.07540721e-001 5.43039627e-002 -1.18490353e-001
      -2.31221899e-001 -1.19450025e-001 -1.62868366e-001
      -9.88388658e-002 -1.97582453e-001 1.99421436e-001 3.24361622e-001
      1.80720165e-001 -9.35281590e-002 -2.73303032e-001 -5.79645298e-002
      3.02563664e-002 -1.99830215e-002 9.71852317e-002 6.56028539e-002
      2.07077324e-001 -8.13411698e-002 -1.85215324e-001 -4.27363694e-001
      -2.80485332e-001 -2.37075865e-001 -5.80556467e-002
      -3.99740599e-002 2.57376462e-001 7.64678493e-002 -2.68793404e-001
      -4.21315104e-001 -6.47012949e-001 -1.45066679e-001
      -1.05668090e-001 -3.77263837e-002 2.10149989e-001 2.48489395e-001
      1.88616008e-001 -1.53749898e-001 -2.09290996e-001 -3.50395262e-001
      3.68327163e-002 1.90540716e-001 5.58804236e-002 1.62473947e-001
      2.30150923e-001 -1.04190886e-001 -2.68547893e-001 -8.83237794e-002
      2.80235857e-001 2.33555272e-001 3.46022576e-001 2.86758155e-001
      3.16324741e-001 7.12916534e-003 -3.93320471e-001 -6.41123831e-001
      -4.36996281e-001 -4.18408573e-001 2.84729805e-002 1.54334635e-001
      1.92930594e-001 1.38145104e-001 -1.90888584e-001 -7.34745026e-001
      -4.17881310e-001 4.42771502e-002 3.39912921e-001 3.89651328e-001
      5.77978551e-001 4.30817366e-001 6.02125637e-002 3.41240950e-002
      9.27281305e-002 7.01302513e-002 -1.20630346e-001 -2.75143743e-001
      -1.38932630e-001 -1.94758296e-001 -3.18775214e-002
      -1.49402767e-002 8.12715665e-002 4.53019105e-002 2.11447313e-001
      -3.84436511e-002 -3.59027773e-001 -1.44511983e-001
      -1.19194388e-001 4.41712961e-002 8.93835351e-002 7.10182041e-002
      1.88774049e-001 3.78979743e-001 5.08579910e-002 -9.26411822e-002
      -1.04202352e-001 -6.99120611e-002 5.85430004e-002 4.40307148e-002
      6.77578896e-002 1.45933449e-001 2.05925524e-001 -7.10576102e-002
      -2.47810200e-001 -2.01748520e-001 -5.43487668e-002
      -3.94870294e-003 5.48566841e-002 9.08142552e-002 -1.32026733e-003
      -4.57454771e-002 -9.06675905e-002 -1.64387763e-001
      -2.55286433e-002 4.17680256e-002 4.59814370e-002 1.11306392e-001
      1.25883982e-001 -1.00585639e-001 -1.64443895e-001 -8.75409842e-002
      -1.51955977e-001 6.95330650e-002 9.33606029e-002 2.68803742e-002
      1.26852691e-001 -2.26733536e-002 -6.77892119e-002 -3.19314525e-002
      -1.71147995e-002 -1.40689164e-001 -2.71007884e-002 5.36321141e-002
      7.77255222e-002 9.69600771e-003 -1.06739655e-001 -1.91650361e-001
      -1.49031475e-001 6.76001906e-002 -7.42718354e-002 5.14111146e-002
      6.33131266e-002 6.56871647e-002 -3.52534167e-002 1.12542868e-001
      -1.03975840e-001 -4.01124544e-002 2.00348958e-001 3.41313034e-001
      2.47318476e-001 2.53459483e-001 1.65054709e-001 1.54216468e-001
      -5.01843095e-001 -6.14370763e-001 -1.80625096e-002 4.20449883e-001
      7.70978272e-001 2.36068904e-001 2.91919440e-001 1.39007866e-001
      -1.43728420e-001 -3.16288739e-001 -1.85260162e-001 7.03795720e-003
      2.15845957e-001 2.00310037e-001 5.83100282e-002 3.52050997e-002
      -5.53993993e-002 -2.28797317e-001 -6.74587786e-001
      -2.90608913e-001 -1.41269878e-001 1.75374582e-001 2.52839059e-001
      5.42377792e-002 -9.44955721e-002 -2.51016587e-001 -5.76393247e-001
      -3.69713530e-002 5.32619236e-003 2.05068350e-001 -6.02588989e-004
      -4.78790216e-002 -3.06116659e-002 4.44453843e-002 1.35664001e-001
      1.91045497e-002 -1.65440559e-001 -1.72474042e-001 -7.45776147e-002
      -1.30898520e-001 -1.97605982e-001 -1.42809540e-001
      -1.17416464e-001 2.68530995e-002 -1.01372756e-001 4.53395359e-002
      2.37404611e-002 6.22240305e-002 7.09094899e-003 1.15046710e-001
      7.38468841e-002 1.46512836e-001 1.62474707e-001 8.97662193e-002
      2.38294341e-002 -5.15978970e-002 -3.57842222e-002 -3.36014032e-002
      -2.00723652e-002 6.13134913e-002 -3.46157094e-003 2.59102196e-001
      8.38270634e-002 -1.03704043e-001 -2.94750363e-001 -1.87005565e-001
      1.54016381e-002 -1.48817539e-001 -4.68150452e-002 -1.04616834e-002
      1.26527891e-001 -2.11277045e-002 -2.60537714e-002 -1.46945873e-002
      -1.26168013e-001 1.84198879e-002 -1.95260242e-001 -1.39728665e-001
      -6.97010309e-002 1.83756854e-002 1.19931400e-002 1.14961177e-001
      -7.22338036e-002 8.95584188e-003 2.17891764e-002 -5.42317890e-002
      -5.14214335e-004 3.29455808e-002 2.10338771e-001 1.57454982e-001
      1.65593728e-001 1.33822024e-001 2.67839618e-002 3.60209979e-002
      -1.67051166e-001 -1.10392459e-001 8.81277304e-003 8.16683993e-002
      8.23121443e-002 -3.39727290e-002 1.01895127e-002 1.85642183e-001
      1.89910114e-001 4.48574685e-002 -1.35007441e-001 -1.19826920e-001
      -1.90019697e-001 -6.78503886e-002 -3.45149338e-001 2.75213290e-002
      5.64565323e-002 3.03145349e-002 -4.81408313e-002 -5.38481697e-002
      -1.23962231e-001 -2.05873057e-001 -5.40557981e-001 1.03422947e-001
      2.25162417e-001 1.88471138e-001 1.58979610e-001 -6.92192838e-002
      -1.02594867e-001 -3.44533846e-002 -5.37142232e-002
      -2.77629476e-002 -9.89132896e-002 5.69754615e-002 1.03979751e-001
      6.62089419e-003 -3.22312452e-002 -1.22874612e-002 -2.26186868e-002
      -7.70281255e-002 -1.16022609e-001</_>
    <_>
      6.52932972e-002 -6.26051649e-002 -4.59877327e-002 5.51245362e-002
      8.34670663e-002 1.29105030e-002 -1.85918063e-002 -5.95164532e-003
      6.53160810e-002 -1.16164871e-001 -1.84796095e-001 2.25012898e-001
      2.32026920e-001 1.06823713e-001 5.31226676e-003 -8.46546367e-002
      -2.21681334e-002 -3.32183316e-002 -4.73346561e-002
      -2.90540874e-001 -5.06899774e-001 -2.89192647e-001
      -3.60535681e-002 2.22940706e-002 -6.44554123e-002 -1.13394752e-001
      -1.53988525e-001 -2.03088745e-001 2.86424428e-001 2.13312641e-001
      1.67531118e-001 1.05055526e-001 -1.36890516e-001 -2.62053877e-001
      -2.71242827e-001 -5.51037848e-001 -3.66523936e-002 8.75908062e-002
      3.17081481e-001 3.43779917e-003 -4.02346663e-002 -1.68942846e-002
      -1.93429410e-001 -1.36196613e-001 -9.48755145e-002 3.43818396e-001
      2.62607515e-001 -3.99423465e-002 -1.96586221e-001 -1.70294657e-001
      -4.63686977e-003 -3.65380459e-002 4.65142243e-002 2.16227964e-001
      1.04731150e-001 3.11674654e-001 -4.27411087e-002 -1.47224560e-001
      -5.34415781e-001 -3.63488644e-001 -6.25380516e-001
      -6.45418406e-001 -4.42270726e-001 2.23287523e-001 -1.67148650e-001
      -6.13378465e-001 -6.09768212e-001 -6.51061594e-001
      -2.15593219e-001 -3.40619147e-001 -2.47907713e-001
      -6.45426586e-002 2.13056967e-001 -1.35990251e-002 -3.01164478e-001
      -1.51345432e-001 1.24726459e-001 1.32878959e-001 2.80833185e-001
      3.37645978e-001 3.19610059e-001 -7.91495591e-002 -1.89649954e-001
      -2.54390448e-001 -5.55216037e-002 2.91429877e-001 3.66014466e-002
      -9.94026288e-002 -3.67274880e-002 -4.37027290e-002
      -2.64871329e-001 -7.51297116e-001 -6.49711072e-001
      -1.26799852e-001 -1.14802402e-002 -7.86332563e-002
      -1.37640834e-001 3.99925411e-002 -8.32682401e-002 -4.53750938e-001
      -6.17424548e-001 -7.37855062e-002 1.82683542e-001 6.37985542e-002
      -1.73951462e-001 2.12819665e-003 -1.52205527e-001 -3.84303212e-001
      8.86920318e-002 2.10944712e-002 -3.25725108e-001 -3.06415200e-001
      -1.07993707e-001 7.31888600e-003 8.15930665e-002 2.34071724e-002
      2.05269288e-002 -9.62326154e-002 1.25796214e-001 1.02977388e-001
      1.72547713e-001 -5.38405813e-002 -7.15814233e-002 -4.41147462e-002
      -9.67843458e-002 -1.61716729e-001 -8.57843086e-002 5.69030531e-002
      3.82939838e-002 -1.86172858e-001 -1.67140394e-001 -2.24227458e-001
      -2.23709151e-001 -9.65718180e-002 -8.10808241e-002
      -2.29358658e-001 -8.41896087e-002 -1.37286440e-001
      -3.61979380e-002 5.14348922e-003 -3.03434115e-002 -7.18315989e-002
      6.84746541e-003 -1.02626495e-001 -1.14644011e-002 2.95982242e-001
      -3.91906090e-002 -2.26490200e-001 -6.70758486e-001
      -2.88102150e-001 -2.51976460e-001 -2.11530626e-001
      -2.37528041e-001 8.91522020e-002 1.55936822e-001 -4.60062385e-001
      -5.74219227e-001 -6.74279094e-001 -1.23246901e-001
      -1.68128282e-001 4.37534191e-002 -1.10874526e-001 6.10803552e-002
      6.22972138e-002 -3.79717588e-001 -5.31582415e-001 -7.89436698e-001
      -8.87344480e-002 6.05450869e-002 1.03231750e-001 3.40040587e-003
      2.04758823e-001 1.71361625e-001 -2.49472752e-001 -5.98271012e-001
      -6.43258452e-001 -2.97191858e-001 -1.89376935e-001
      -1.29699320e-001 -3.92557308e-002 -4.64011252e-001
      -3.59190255e-001 -9.70177352e-002 -1.00627072e-001 4.60258201e-002
      9.74562988e-002 4.86283517e-003 4.67711426e-002 -2.83723354e-001
      -5.57551622e-001 -2.60811776e-001 2.64665596e-002 5.00254158e-004
      5.38246185e-002 -2.62047172e-001 -2.15114459e-001 -3.37858573e-002
      -3.70516807e-001 -2.54931748e-001 -7.56554380e-002 5.49838319e-003
      -3.75186764e-002 7.52991065e-002 8.63034651e-002 4.47632596e-002
      -1.72576085e-001 -3.21992576e-001 -3.03001732e-001 1.23651631e-001
      2.70691179e-002 -1.37352422e-001 -9.86128598e-002 8.80869031e-002
      7.73719624e-002 -1.46763086e-001 -3.63538593e-001 -2.64558136e-001
      -7.83969536e-002 2.44263490e-003 -3.63220088e-002 -1.68824151e-001
      -3.99342388e-001 -2.24402666e-001 -2.66214550e-001
      -2.77013958e-001 -3.32619935e-001 -6.50909841e-001
      -4.97889698e-001 -2.20553145e-001 -2.23640352e-002 6.39532879e-003
      1.61106408e-001 2.49036118e-001 -3.41495872e-002 -2.45646723e-002
      -2.89362911e-002 2.18242239e-002 7.20551684e-002 9.84436572e-002
      -7.85831958e-002 -2.37926885e-001 -1.25240177e-001
      -8.65535364e-002 -1.92419469e-001 -3.03522766e-001
      -4.51868325e-001 -5.59399091e-002 1.47371083e-001 2.20913038e-001
      2.35690102e-001 4.06204969e-001 4.40064110e-002 2.14468867e-001
      -2.16422111e-001 -8.05409849e-001 -7.61946917e-001
      -7.66006887e-001 -1.11098334e-001 -1.64027959e-001
      -1.07040130e-001 1.54219016e-001 3.91208619e-001 3.23853195e-001
      -6.13436848e-002 -2.87914187e-001 -6.49920106e-001
      -3.98959041e-001 -5.63508451e-001 -5.91546237e-001
      -1.11841403e-001 5.35485864e-001 9.64298565e-003 -3.90012741e-001
      -3.95479441e-001 -3.15746516e-001 -5.00010327e-002
      -5.20447316e-003 8.81607756e-002 3.98122102e-001 5.53658843e-001
      5.53832412e-001 1.63109586e-001 -2.26259809e-002 -2.21962765e-001
      -1.40568689e-001 -3.07162523e-001 -3.69554222e-001 5.05394489e-002
      -6.79562688e-002 2.17124090e-001 1.05508372e-001 8.97634253e-002
      5.13501428e-002 -1.42247379e-001 -3.91610682e-001 -5.85043013e-001
      -5.58486462e-001 -1.80895463e-001 2.75823306e-002 3.68376374e-001
      -3.17696333e-002 1.65253282e-001 -2.78602112e-002 -1.12223491e-001
      -2.19082996e-001 -3.24090481e-001 8.40064213e-002 4.10225153e-001
      2.62381732e-001 2.21125141e-001 7.33099207e-002 -3.54833752e-002
      -1.63020581e-001 -1.71432778e-001 -1.86092868e-001
      -8.49377364e-003 -1.90320581e-001 -2.63960928e-001 8.51366222e-002
      2.30242684e-001 -9.73850954e-003 -2.65532769e-002 7.64561584e-003
      -1.05643403e-002</_>
    <_>
      1.64655000e-002 -1.09518843e-003 -5.49650826e-002 -2.86196359e-003
      2.62138136e-002 8.59047007e-003 9.36903642e-004 1.33764627e-003
      2.91115814e-003 -5.94718792e-002 -2.49433517e-001 -1.02115348e-001
      1.60989657e-001 1.56808794e-001 4.01755460e-002 2.71670595e-002
      2.01289468e-002 1.82600971e-002 1.85963318e-001 1.70160346e-002
      -4.74819601e-001 -1.56473398e-001 -1.81351289e-001 9.79586393e-002
      9.18282103e-003 8.76497757e-003 2.37872154e-002 6.30964488e-002
      3.64760170e-003 6.30528852e-002 2.00082079e-001 2.79590517e-001
      1.31747946e-001 -3.75063298e-003 -6.93912506e-002 9.78110433e-002
      -1.91840231e-001 -1.46012440e-001 2.21024498e-001 1.10334262e-001
      -2.15619057e-002 -1.03046983e-001 -1.41634777e-001
      -4.90593575e-002 -9.62048694e-002 2.40341544e-001 4.91003335e-001
      4.64528918e-001 5.55462390e-003 -3.79599035e-001 -1.84093371e-001
      -1.20167926e-001 3.42828818e-002 1.51037723e-001 -1.41965955e-001
      2.07999781e-001 2.05539897e-001 1.76934615e-001 -3.18687677e-001
      -4.32821423e-001 -4.44148272e-001 -3.27234179e-001
      -2.65300304e-001 3.66463065e-001 3.88514400e-001 1.59419388e-001
      -2.58431315e-001 -7.60102391e-001 -5.03667474e-001
      -6.86040640e-001 -3.38544667e-001 4.76630479e-002 3.73417705e-001
      2.38954931e-001 1.72645524e-002 -1.34905159e-001 -2.75877208e-001
      8.36733431e-002 1.88632384e-001 2.53745347e-001 2.32283801e-001
      -4.07416523e-002 -2.66968399e-001 -3.38581771e-001
      -1.33584797e-001 8.91600773e-002 1.49066016e-001 2.11200461e-001
      1.74666926e-001 8.89082998e-002 1.74907506e-001 -1.30091324e-001
      -5.14566004e-001 -4.97053504e-001 -7.98394740e-001
      -5.32198429e-001 -3.83905858e-001 8.31629988e-003 1.11350589e-001
      -1.86052382e-001 -8.01224947e-001 -5.60431123e-001
      -9.83959958e-002 -1.01088673e-001 6.22011311e-002 3.52343321e-001
      5.24437666e-001 7.75210857e-002 9.89069715e-002 1.31982893e-001
      -1.86131775e-001 -1.91908255e-001 -6.28083646e-002
      -4.29946631e-002 -1.60013710e-003 5.50478660e-002 5.34119643e-002
      1.01284526e-001 -2.75785923e-002 4.82154749e-002 -7.35995993e-002
      -4.50458471e-003 -5.93015179e-002 1.89914014e-002 5.93966665e-003
      5.92439324e-002 9.96226743e-002 2.57286757e-001 6.27997518e-002
      -8.88218507e-002 -2.18028456e-001 -1.65386274e-001
      -1.75655168e-002 1.09930106e-001 1.17794044e-001 1.06300693e-002
      4.88915145e-002 1.49624124e-002 -9.11265984e-002 -9.38270241e-002
      -6.40757978e-002 1.83278807e-002 6.92067072e-002 1.23415984e-001
      -3.05808103e-003 2.00524405e-002 3.98546644e-002 -7.00522512e-002
      -2.78538465e-001 -1.02147408e-001 -7.14652166e-002
      -3.11181918e-002 2.85667013e-002 2.45462105e-001 1.19515806e-001
      -1.21612683e-001 -4.11478788e-001 -4.88882333e-001
      -9.20627639e-002 -1.55585960e-001 1.41208861e-002 1.23199232e-001
      6.72497228e-002 -2.33345851e-002 -2.05433711e-001 -2.95499265e-001
      -2.18681037e-001 9.55590680e-002 7.85113201e-002 9.30773988e-002
      1.35957569e-001 6.45528808e-002 -1.28114924e-001 -2.96020836e-001
      -3.07150483e-001 -3.17343056e-001 4.93628569e-002 1.22967690e-001
      3.88277434e-002 5.02394438e-002 1.17460385e-001 -1.68898776e-001
      -3.50892544e-001 -2.65783459e-001 -2.66954124e-001 9.51276440e-003
      2.15326790e-002 9.79914963e-002 1.41541272e-001 -5.88329434e-001
      -6.03539765e-001 -2.21468210e-001 1.95699111e-001 4.33159053e-001
      1.95573136e-001 2.81225264e-001 2.64095157e-001 -2.02129319e-001
      -3.17180127e-001 -2.61217386e-001 -1.71472058e-001 7.66055584e-002
      1.41922653e-001 1.57933131e-001 1.17846094e-001 -8.17077979e-002
      -3.34621787e-001 -6.64236307e-001 -1.55424014e-001 5.27219847e-002
      1.91153049e-001 2.92763263e-001 1.99775204e-001 2.49778051e-002
      -2.68052131e-001 -7.19494700e-001 -6.15776666e-002 7.31365830e-002
      5.40323406e-002 -1.21885175e-002 -1.13300279e-001 -1.57123789e-001
      -2.30543315e-001 -3.67579311e-002 -1.99852735e-002
      -1.09092191e-001 -2.22848445e-001 -3.07444483e-001
      -1.38227016e-001 -1.50431260e-001 -2.38772612e-002
      -1.65266860e-002 -7.63596520e-002 -1.65369987e-001 6.76733255e-002
      6.36531413e-002 1.21805154e-001 5.63803725e-002 7.64751881e-002
      8.16436931e-002 1.20635301e-001 1.08864896e-001 9.02103931e-002
      4.27994207e-002 -9.25512984e-002 7.46053308e-002 -6.85058394e-003
      6.53939918e-002 8.08888450e-002 4.85122241e-002 2.36738920e-001
      2.60594487e-002 -1.34092912e-001 -1.62588909e-001 -3.26470226e-001
      -3.26530784e-001 -1.92575067e-001 5.24610020e-002 -1.95979420e-002
      -2.51559503e-002 -8.47318023e-002 -6.51108846e-002
      -6.22655675e-002 1.38970008e-002 -6.47326410e-002 -1.32071689e-001
      -5.34857772e-002 -4.07492742e-002 -1.42391950e-001
      -9.66284424e-002 1.00537859e-001 -8.68896991e-002 9.15425792e-002
      -7.24955322e-003 -4.59010154e-002 9.30586085e-003 5.15020192e-002
      8.17812234e-002 9.56353992e-002 1.00771494e-001 2.19383806e-001
      1.55496359e-001 1.61124811e-001 -2.21390948e-002 -2.34243069e-002
      2.29647756e-002 -7.91503396e-003 -1.36126112e-002 -5.49949780e-002
      -1.76536411e-001 2.58528769e-001 4.06689525e-001 4.15091574e-001
      4.20955196e-002 -8.09783116e-002 -2.94856548e-001 -3.05771351e-001
      -5.14104724e-001 -1.41006723e-001 4.68043864e-001 2.11098760e-001
      2.56249130e-001 1.19444921e-005 -1.71160519e-001 -3.79099488e-001
      -7.86562681e-001 1.05547249e-001 3.32765400e-001 3.01737398e-001
      4.63766307e-001 2.50531614e-001 -2.75036357e-002 -6.55254573e-002
      -1.43684253e-001 -1.14283845e-001 -2.61498570e-001
      -9.98951569e-002 1.45100709e-003 1.03010908e-001 1.19762816e-001
      -2.43390799e-002 -5.81964254e-002 -1.69515327e-001
      -3.34602416e-001</_>
    <_>
      -1.59788579e-002 -1.20621435e-001 -1.89949840e-001
      -7.51664490e-002 -4.62081144e-003 -1.31356604e-002 2.73083076e-002
      6.68117078e-003 1.84638184e-002 6.07408285e-002 -5.97909912e-002
      -1.21798739e-001 -5.28265163e-002 -2.13756296e-003 3.13645117e-002
      1.43881202e-001 1.90864906e-001 1.55122414e-001 1.13092557e-001
      -3.55627716e-001 -7.36354053e-001 -3.05568129e-001 3.28241661e-002
      -9.07405540e-002 -1.68370351e-001 -7.11154714e-002 3.49222384e-002
      1.08960137e-001 4.07773644e-001 1.58907086e-001 -1.33243158e-001
      -2.06602290e-001 -1.28787225e-002 -1.78818822e-001
      -1.39504001e-001 -1.69311240e-001 -7.54626021e-002
      -8.61127153e-002 -2.26533026e-001 -1.41310468e-001
      -8.85649547e-002 1.46919414e-002 1.60352558e-001 1.88053265e-001
      1.24129448e-002 -4.30567056e-001 -3.49239230e-001 -3.92152488e-001
      -1.72781035e-001 3.01084757e-001 -4.38822173e-002 -7.15045780e-002
      -2.34270040e-002 -2.71672070e-001 8.47143829e-002 -2.93522805e-001
      -2.28170961e-001 -1.35781243e-001 -3.56455207e-001 1.53807685e-001
      1.36521414e-001 3.63880157e-001 3.16856295e-001 1.27388805e-001
      -3.68344575e-001 -2.05984980e-001 -2.07996875e-001
      -5.94335757e-002 -1.38243183e-001 -3.74097079e-002 7.39380494e-002
      7.53809586e-002 -2.71052867e-001 -1.44509360e-001 -2.09366590e-001
      2.31403275e-003 2.71079749e-001 -7.96410888e-002 -2.05114827e-001
      -1.50318086e-001 -2.62124628e-001 3.06163490e-001 1.68515816e-001
      7.43191987e-002 8.72790515e-002 2.50093102e-001 7.25603402e-002
      3.11311036e-002 9.99108553e-002 1.85337082e-001 -2.28354126e-001
      -5.30921757e-001 -3.05878878e-001 1.37398511e-001 4.18079458e-002
      -7.31233582e-002 -9.17433500e-002 -8.23722333e-002
      -1.80556431e-001 -1.75469480e-002 4.82830480e-002 -2.59817094e-001
      1.43998548e-001 -1.11710168e-001 1.75423369e-001 -4.63591330e-002
      -2.69915372e-001 -2.33922988e-001 4.93209094e-001 1.52830169e-001
      -3.29863250e-001 -2.00936213e-001 -1.91918954e-001
      -2.42957667e-001 -3.52475762e-001 -1.70478955e-001 1.67420149e-001
      9.72132534e-002 1.04031689e-001 2.27074876e-001 1.97116479e-001
      -1.00573041e-001 -1.76483527e-001 -3.54548723e-001
      -2.60018468e-001 1.54435396e-001 4.96782780e-001 4.46498543e-001
      3.65154088e-001 -2.61813819e-001 -3.07490677e-001 -2.43531600e-001
      -5.79314053e-001 -3.94124806e-001 9.05439854e-002 5.86741678e-002
      3.19180697e-001 1.20899931e-001 9.88927782e-002 -1.29134491e-001
      -2.41494566e-001 -3.02794129e-001 -2.51783043e-001
      -1.62356809e-001 2.03711271e-001 8.40847716e-002 3.99459898e-002
      -2.38953512e-002 -2.67760336e-001 -5.99023513e-002 1.09918891e-002
      6.70881271e-002 4.28741783e-001 3.01631421e-001 -1.55856371e-001
      -6.14133418e-001 -5.56490183e-001 -6.83595419e-001
      -3.11998457e-001 -7.70668015e-002 1.96530148e-001 5.34460425e-001
      -1.14984578e-002 -1.84098884e-001 -2.78986484e-001
      -1.39720082e-001 -3.94320905e-001 -1.33887202e-001
      -8.72056112e-002 -3.70541513e-002 2.42079630e-001 -1.24353655e-002
      -4.80718017e-001 -6.11957610e-001 -4.66685742e-001
      -8.24912786e-001 -2.89992094e-001 -2.05951124e-001
      -6.54818043e-002 2.66471624e-001 1.81134254e-001 -1.08840570e-001
      -3.38820666e-001 -1.77756846e-001 -3.72363985e-001
      -3.39005977e-001 -3.54993254e-001 -1.00818440e-001 4.10355106e-002
      1.70476213e-001 2.50389427e-001 -1.37163624e-001 6.41458929e-002
      -1.66855797e-001 -5.28122634e-002 -1.63603544e-001
      -1.15335450e-001 -4.83898148e-002 2.32944459e-001 -1.48125693e-001
      -3.73987556e-001 -1.56807005e-001 -5.23415267e-001
      -3.12202811e-001 -4.34876382e-001 -1.19304545e-001 2.59890825e-001
      -1.17059208e-001 -2.09097758e-001 -4.23118740e-001 8.06691404e-003
      -2.40744203e-001 -2.79894352e-001 -4.59772557e-001
      -1.88829958e-001 -1.92016706e-001 6.49263382e-001 3.92005026e-001
      3.97296429e-001 -5.68150394e-002 -7.97049887e-003 -1.35475039e-001
      -6.06548369e-001 -5.59644282e-001 1.95239652e-002 -1.78392261e-001
      5.50913252e-002 -3.25708836e-002 1.66039616e-002 -8.73275772e-002
      -1.03152744e-001 -1.86696157e-001 -2.06703186e-001
      -1.66351467e-001 -2.84013320e-002 2.15255544e-001 3.03493291e-001
      6.29768893e-002 1.06422685e-001 -5.34668611e-003 2.63325893e-003
      -9.64196846e-002 -1.32723585e-001 -2.86477119e-001 4.93373312e-002
      1.95564732e-001 1.07262947e-001 -1.73067506e-002 -5.88311767e-003
      -4.57966700e-003 -4.90645431e-002 -3.12371880e-001 5.65361679e-002
      -1.49090782e-001 -1.19661428e-001 5.70193715e-002 -1.22512184e-001
      -1.15224361e-001 -9.16937888e-002 -3.54603715e-002 4.07208085e-001
      2.00835019e-001 -5.66130519e-001 -3.27436268e-001 -2.55001128e-001
      -2.73602277e-001 4.50122915e-002 1.31318774e-002 1.00445561e-002
      3.81473988e-001 -2.81640917e-001 -7.62480646e-002 5.07968515e-002
      1.53050825e-001 8.87007266e-002 -3.45543846e-002 -6.34337515e-002
      -3.10718305e-002 -2.22968221e-001 -2.06495538e-001
      -3.08309406e-001 -2.52424210e-001 -2.61485308e-001
      -2.01941818e-001 -3.50530446e-002 7.87483379e-002 4.24597859e-002
      -9.96295586e-002 2.58404970e-001 3.25291246e-001 3.54796827e-001
      1.82283521e-001 -2.19314456e-001 -7.99508020e-002 -3.10925215e-001
      -2.45419472e-001 3.26361269e-001 -1.06360964e-001 -1.10719286e-001
      -3.42571363e-002 -1.61006659e-001 -6.43184006e-001
      -2.44618297e-001 -3.45989496e-001 -1.79624334e-001
      -4.18616980e-002 -1.25708848e-001 -1.68541089e-001
      -3.37591529e-001 -2.73373932e-001 -1.24671124e-001
      -3.93340699e-002 2.88010370e-002 4.62772660e-002 -7.62441680e-002
      3.82502116e-002 7.21250195e-003 -1.16826370e-001 -1.70245126e-001
      -1.14827948e-002 -4.35909107e-002 -1.64937861e-002 1.48667812e-001
      1.29678249e-001</_>
    <_>
      2.72730626e-002 -6.15147576e-002 -1.32699654e-001 -7.00824484e-002
      -8.65573063e-002 -7.53508462e-003 9.38732177e-002 6.78843334e-002
      5.55780791e-002 1.69343024e-003 -4.04067412e-002 -9.00121778e-002
      -4.58370820e-002 -1.71295479e-001 -4.55091484e-002 1.27056375e-001
      1.45354182e-001 7.24506751e-002 4.85097207e-002 -1.60592541e-001
      -3.23081017e-001 -2.38218218e-001 -1.84256867e-001
      -1.17105745e-001 -1.93229523e-002 -9.00029168e-002
      -5.41683733e-002 -2.68647093e-002 5.46877868e-002 1.25865251e-001
      -1.55764678e-002 -2.27216512e-001 -7.43827447e-002
      -7.28047341e-002 -1.25517026e-001 4.75595566e-003 -3.61847207e-002
      -3.23381810e-003 -5.13538942e-002 -2.06006579e-002
      -2.09496379e-001 -3.84391211e-002 1.27395630e-001 1.27682209e-001
      9.43703670e-003 -1.29176944e-001 6.64101820e-003 2.76649790e-003
      -4.78634797e-003 -2.08724633e-001 -1.84029534e-001
      -8.12209025e-002 -3.39472778e-002 -1.39350802e-001
      -1.62671119e-001 -2.31197432e-001 -2.77709126e-001
      -3.69340554e-002 -4.48985815e-001 -8.93597528e-002 9.56539959e-002
      2.15765119e-001 -8.28336701e-002 3.94297242e-002 9.90361944e-002
      -1.19734583e-002 -4.04306222e-003 -2.55474955e-001
      -3.87603104e-001 -3.73881578e-001 -2.96367764e-001
      -1.99019283e-001 7.98547640e-003 6.37218654e-002 -4.57328791e-003
      4.01049480e-002 1.99434254e-003 -1.55144989e-001 -1.46872044e-001
      -1.08915187e-001 -7.27212951e-002 8.46957564e-002 6.83114380e-002
      -1.59371272e-002 -1.42874001e-002 -7.76673341e-003
      -1.45391032e-001 -2.47868761e-001 -6.47821873e-002 7.18625402e-003
      2.75525749e-001 1.57616228e-001 -1.02949895e-001 -7.28251711e-002
      -3.76567245e-001 -3.99370909e-001 -1.45985007e-001
      -1.55759128e-002 1.25633612e-001 1.37944400e-001 8.87763947e-002
      -1.62638113e-001 -2.43879125e-001 -2.49830022e-001
      -1.27399042e-001 -2.23378435e-001 -4.23560627e-002
      -2.69832499e-002 2.46669799e-001 2.04195827e-001 -4.68297265e-002
      -2.17769891e-001 -3.76859635e-001 -2.22412363e-001
      -1.92624524e-001 3.54546644e-002 1.53298661e-001 1.28785461e-001
      -7.66383335e-002 -3.78409624e-002 -6.99478909e-002
      -3.50115180e-001 -1.71283349e-001 -1.31148711e-001 4.26044241e-002
      1.91585585e-001 2.43721947e-001 3.94442022e-001 2.46725976e-001
      -1.18942544e-001 -4.40074563e-001 -3.38780761e-001
      -3.87556076e-001 -1.17493525e-001 5.73936515e-002 2.22814418e-002
      -4.78976816e-002 -8.00282136e-002 -3.22354585e-002
      -3.19489390e-001 -2.92412698e-001 -3.32922727e-001
      -1.11012638e-001 -1.04379822e-002 3.40690538e-002 -1.58090383e-001
      -2.33371720e-001 -4.26982902e-002 -2.47974873e-001
      -1.25726730e-001 -3.54053006e-002 1.20158531e-001 1.69908330e-001
      2.73188561e-001 2.31375694e-001 -1.93018869e-001 -1.93358138e-001
      -3.05432260e-001 -2.66947597e-001 -3.65244240e-001
      -2.56790847e-001 3.27101387e-002 1.36341944e-001 -1.59509659e-001
      -3.56858432e-001 -2.14551017e-001 -4.04288590e-001
      -2.79123694e-001 -3.77536267e-001 -1.41514614e-001 1.10922508e-001
      2.27763087e-001 1.41027588e-002 -2.85286069e-001 -2.43135765e-001
      -2.41701975e-001 -3.01588625e-001 -3.39796275e-001
      -3.62181544e-001 7.13147968e-002 4.04867679e-001 2.35783860e-001
      -1.78911835e-001 -1.33173466e-001 -2.17980489e-001
      -1.94387853e-001 -2.78244138e-001 -9.62918177e-002 1.49242476e-001
      1.98527470e-001 1.11026160e-001 -2.51913369e-001 -2.47812003e-001
      -1.91291958e-001 -4.39344160e-002 -4.35938314e-002 5.49228117e-002
      1.21876441e-001 4.60991226e-002 -1.29763827e-001 -2.48078048e-001
      -8.00977051e-002 3.69653404e-002 -8.39008540e-002 -1.14319667e-001
      -1.07678242e-001 3.94141190e-002 -2.90302150e-002 -2.54113495e-001
      -5.16315103e-001 -1.67225778e-001 8.96454602e-002 -2.24686190e-002
      1.69867977e-001 1.60457939e-001 1.28816977e-001 2.51407474e-001
      3.09058964e-001 3.89784783e-001 -3.13391685e-002 -1.81887835e-001
      -2.01078892e-001 -4.74227428e-001 -2.39894986e-001
      -1.06670214e-002 1.77278593e-002 -3.14508617e-001 -1.28237516e-001
      1.41974697e-002 -3.26672494e-001 -2.37059534e-001 -3.20004851e-001
      -1.01759873e-001 2.06191894e-002 1.96219273e-002 1.67222902e-001
      1.67691126e-001 6.29892945e-002 1.95425265e-002 5.30493306e-003
      -1.09305248e-001 -1.38556272e-001 -1.53498143e-001
      -2.90755071e-002 1.75924510e-001 6.42270818e-002 7.22058564e-002
      -7.26703778e-002 -1.33986045e-002 -8.32485259e-002
      -1.41220361e-001 -2.11261317e-001 1.88924208e-001 -1.02643721e-001
      -1.92366526e-001 -1.48794413e-001 -2.84368783e-001
      -2.44881481e-001 -4.70255762e-001 -2.76865095e-001 1.94703132e-001
      2.38083854e-001 -8.52756761e-003 -1.07060023e-001 -1.08593414e-002
      2.35781744e-001 -8.79755542e-002 -2.21951693e-001 -4.34849650e-001
      7.33696818e-002 -6.02824688e-002 1.41892895e-001 -1.17361441e-001
      4.02256772e-002 -4.47859392e-002 -5.96987344e-002 -1.38312623e-001
      -1.14402093e-001 -1.93820983e-001 -1.78660542e-001
      -1.00419372e-001 -7.04808012e-002 6.95678964e-002 2.39363104e-001
      5.74684255e-002 -1.06585935e-001 -8.32991600e-002 -1.67289585e-001
      -2.14276716e-001 -1.26266226e-001 -1.62713006e-001 1.71521634e-001
      5.28754175e-001 2.26381719e-001 -2.82187201e-002 -2.55223066e-001
      -2.64340878e-001 -1.85722947e-001 -5.90606332e-001
      -6.83965981e-001 3.52340713e-002 4.00690287e-001 1.23399071e-001
      2.13559121e-001 1.28213897e-001 5.97158484e-002 -1.41086385e-001
      -2.34403133e-001 -5.96962571e-002 1.48784429e-001 3.40110213e-001
      1.72842428e-001 8.85694772e-002 8.20835009e-002 -7.28170648e-002
      9.35440883e-002 -7.32337832e-002 -7.53388405e-002 7.61152208e-002
      2.90901661e-001 9.42120627e-002 1.43280044e-001 1.60054266e-001
      1.08840950e-001</_>
    <_>
      -2.37591770e-002 -6.05992274e-003 5.66957667e-002 2.66659241e-002
      1.99110117e-002 1.45374043e-002 3.33877690e-002 3.33332978e-002
      3.15673202e-002 -3.23857695e-001 -2.72029251e-001 -4.13044155e-001
      -8.30122381e-002 1.00198790e-001 -2.80813035e-003 6.61306679e-002
      -1.80133339e-002 -1.83570161e-001 1.92004219e-002 -3.89220089e-001
      -3.37353706e-001 4.84752283e-002 -3.06438208e-001 1.26484074e-002
      4.00893018e-002 1.41859442e-001 5.29758744e-002 2.98775733e-002
      -1.25250638e-001 -2.80158877e-001 5.46239782e-003 1.24262922e-001
      -5.65560535e-002 -6.67087063e-002 -1.18951965e-002 2.79015690e-001
      -3.38589340e-001 -3.61072153e-001 -5.67738652e-001
      -9.00966376e-002 1.41438410e-001 5.23347687e-003 7.71249831e-002
      -8.08992907e-002 -2.67409801e-001 -4.22952831e-001
      -3.28534007e-001 -1.94761515e-001 6.94323480e-002 1.89668909e-001
      -1.07225448e-001 -1.78509697e-001 -2.03230068e-001
      -4.73327607e-001 -3.28642607e-001 -3.22964102e-001 2.52055436e-001
      3.47868145e-001 3.16087693e-001 -9.15753841e-002 -3.68816480e-002
      -1.42042071e-001 -2.87558377e-001 9.50393751e-002 3.33935916e-001
      5.72196841e-001 4.15120006e-001 -2.68473804e-001 -5.17441571e-001
      -8.31917346e-001 -6.50821090e-001 -1.88457385e-001
      -1.80362836e-001 -4.73755151e-002 6.49907440e-002 -1.54944509e-003
      -2.83067912e-001 -2.79485404e-001 -2.68112034e-001
      -2.14011461e-001 -3.28425229e-001 4.06726271e-001 2.12568402e-001
      2.96472549e-001 1.44713536e-001 4.92347836e-001 9.32546556e-002
      2.44823322e-001 2.59662241e-001 4.13996071e-001 -1.18300043e-001
      -2.89750874e-001 -1.69968292e-001 -2.29579881e-001
      -8.84951115e-001 -7.74956286e-001 -3.33478928e-001
      -1.33114934e-001 9.80138555e-002 1.36067480e-001 -1.27560064e-001
      -1.68861374e-001 3.74616571e-002 7.54685327e-002 2.73133457e-001
      4.80620027e-001 3.41902226e-001 2.33118728e-001 -1.04758859e-001
      6.11736886e-002 1.05915733e-001 4.30095941e-002 -1.53911501e-001
      1.10584805e-002 1.57842457e-001 1.28398597e-001 -8.64677578e-002
      -4.58530724e-001 -5.12880027e-001 -1.27051502e-001
      -1.11376360e-001 -2.24128798e-001 -1.71703830e-001
      -1.49968550e-001 -1.82861477e-001 -4.05307829e-001
      -3.80904190e-002 1.75574973e-001 5.64721644e-001 1.51083693e-001
      7.85541758e-002 1.85791217e-002 2.14029208e-001 1.13174267e-001
      5.65635227e-002 -2.48251364e-001 -2.18152612e-001 -1.02665193e-001
      8.56932700e-002 -1.23354979e-001 -1.80992588e-001 -1.13918439e-001
      -7.46807680e-002 -2.69040018e-001 -1.74818322e-001
      -1.66418135e-001 -3.62455565e-003 -9.51227918e-002
      -3.23529154e-001 -3.73794824e-001 -2.08285272e-001
      -6.92770034e-002 4.27348465e-002 2.91359544e-001 -3.08904387e-002
      -1.18929885e-001 -4.80100662e-001 -9.65038598e-001
      -6.04507744e-001 -4.96680796e-001 -1.84216276e-001 3.30798924e-001
      3.93850505e-002 -9.91155133e-002 -2.80983478e-001 -2.60227948e-001
      -5.56053221e-001 -3.40832472e-001 -8.65012854e-002 6.36160672e-002
      7.45148137e-002 1.30065694e-001 -2.23830625e-001 -4.05256897e-001
      -6.41339898e-001 -9.81247306e-001 -3.92578125e-001
      -3.06476261e-002 1.17895147e-002 1.24077946e-001 1.28668230e-002
      5.23918048e-002 -1.73363268e-001 -1.96359158e-001 -5.16105235e-001
      -3.24857622e-001 -3.31231922e-001 -9.49545279e-002 1.28420532e-001
      -1.67227864e-001 -1.05404437e-001 -2.91597936e-002 2.11923257e-001
      4.34742332e-001 2.12581202e-001 2.51198888e-001 1.53820232e-001
      -5.58766201e-002 -2.09724545e-001 -3.71926785e-001
      -3.66914153e-001 -2.67607570e-001 -4.15813386e-001
      -1.19793653e-001 -8.10559955e-004 -1.43558234e-001
      -1.85480922e-001 -4.86884564e-001 -4.45791095e-001
      -1.49874315e-001 2.53340364e-001 3.33637655e-001 1.16807930e-001
      7.42070973e-002 -2.67398834e-001 -4.80774999e-001 2.23778024e-001
      -5.62367029e-002 -6.15071505e-002 3.80144678e-002 -3.10324542e-002
      2.99477950e-002 3.31653088e-001 2.57393748e-001 2.82746315e-001
      -7.82267004e-002 -2.97273993e-001 -3.38475615e-001
      -7.30742514e-002 -3.57375532e-001 -8.04006010e-002 3.84426080e-002
      2.55619697e-002 9.75717381e-002 1.32381776e-002 -1.40768439e-001
      -2.39621788e-001 2.28582341e-002 1.52095139e-001 5.50616719e-002
      1.88245907e-001 5.57981320e-002 6.54522255e-002 -3.81156504e-001
      -2.28773147e-001 -7.13796616e-002 5.18079214e-002 -1.18354075e-001
      -5.33074401e-002 -4.74434579e-003 -9.89668146e-002
      -2.92751700e-001 1.39914406e-002 -9.41320881e-002 1.14039168e-001
      5.49772419e-002 -3.21844280e-001 -3.11835974e-001 -4.19878066e-002
      -1.29523426e-001 1.74580410e-001 -7.29538724e-002 -4.51885670e-001
      -2.36702099e-001 -3.19619358e-001 -3.07857305e-001
      -9.65956300e-002 2.12474182e-001 -5.18030971e-002 8.69191438e-003
      -2.40053192e-001 2.73974892e-002 6.07993379e-002 8.85104574e-003
      -1.67446688e-001 -2.69288570e-001 -1.46925479e-001
      -1.10097945e-001 -2.49219522e-001 -4.52469617e-001
      -1.59799367e-001 -1.45009920e-001 -9.44485962e-002 7.00558946e-002
      -1.37271523e-001 8.30627233e-002 5.47124632e-002 -3.61256897e-001
      -1.79303974e-001 -2.31859073e-001 -2.25762874e-001
      -3.10264587e-001 5.89104705e-002 -1.61830917e-001 -8.30985885e-003
      -1.29364133e-001 4.24900791e-003 -2.17959568e-001 -3.06920230e-001
      8.52113217e-002 3.40796351e-001 2.35619277e-001 9.69753042e-002
      -7.92947710e-002 -1.73403352e-001 -1.73848048e-001
      -3.59226793e-001 -1.11290880e-001 -1.62238091e-001
      -1.99101195e-001 -7.22101852e-002 -2.27365211e-001 6.81986138e-002
      -6.47110026e-003 -2.91608125e-001 -3.68024558e-002 3.80248353e-002
      1.37678385e-001 2.36933917e-001 3.59419435e-001 4.60350327e-002
      3.51030217e-003 -3.81199792e-002 -1.07196733e-001</_>
    <_>
      8.98695085e-003 -2.55176960e-003 3.01415529e-002 -8.01648665e-003
      3.92930117e-003 1.13684600e-002 5.33136129e-002 5.20622097e-002
      3.46667431e-002 -3.49770226e-002 -3.56883593e-002 2.98802350e-002
      1.30669372e-002 -1.49785325e-001 3.15033123e-002 6.79707155e-002
      6.27994612e-002 3.72676440e-002 9.42977984e-003 -4.37802225e-002
      4.19376977e-002 -1.89662967e-002 8.68872702e-002 3.61468643e-002
      1.48151770e-001 1.39215514e-001 -3.62871736e-002 -2.58050323e-001
      3.87480576e-003 -5.37402965e-002 3.97067852e-002 3.05338874e-002
      -2.87449304e-002 -4.85415617e-003 -8.95253718e-002
      -1.82285696e-001 -6.71117753e-002 -3.10967956e-002
      -6.21207384e-003 1.99470222e-002 -1.60331596e-002 2.60834899e-002
      5.89900538e-002 1.68105867e-002 -1.65686924e-002 -2.58841455e-001
      4.65679355e-002 1.27350464e-001 -4.55657504e-002 -4.64018583e-002
      -9.07108709e-002 -2.35354781e-001 -2.55192250e-001
      -3.19831222e-001 -1.41315371e-001 -1.77358046e-001 1.41988769e-001
      9.30083543e-002 6.09454922e-002 2.42187418e-002 1.39412116e-002
      -8.78660604e-002 -9.68284607e-002 -9.24257785e-002 8.28493312e-002
      1.90193072e-001 4.74293977e-002 -1.55267254e-001 -2.18381748e-001
      -3.89092803e-001 -3.50484759e-001 -2.09738761e-001
      -4.68221754e-002 1.43339291e-001 7.99116269e-002 -1.55283725e-002
      1.36304526e-002 -8.79060626e-002 -2.69706488e-001 -2.88875610e-001
      -2.17526078e-001 1.00327320e-001 1.65965274e-001 4.16381992e-002
      -2.77713463e-002 1.50032099e-002 -6.19302616e-002 -1.79642454e-001
      -1.32923350e-001 1.46307424e-002 2.05476239e-001 2.08453834e-001
      -7.87888393e-002 -1.04336739e-001 -2.97198355e-001
      -3.55845779e-001 -1.56890437e-001 -8.07230473e-002 2.03756675e-001
      1.35920659e-001 5.57618700e-002 -1.08706847e-001 -2.97200590e-001
      -3.19825053e-001 -3.01901340e-001 -2.27027148e-001
      -9.59653258e-002 1.56686068e-001 7.99365863e-002 1.47075150e-002
      1.12843504e-002 -9.74950492e-002 -1.85103491e-002 -5.07157966e-002
      1.22916691e-001 1.47948012e-001 1.33309394e-001 -1.12513751e-001
      -1.30259961e-001 3.15183029e-002 -1.17024489e-001 -9.60265025e-002
      -8.01670998e-002 4.57045883e-002 -1.34428283e-002 2.16206238e-002
      9.02092010e-002 5.63296154e-002 -6.30811527e-002 -2.97288299e-001
      -2.72448987e-001 -1.69583723e-001 3.90120852e-003 1.10346764e-001
      1.49102002e-001 2.25107148e-001 1.27037287e-001 -3.65127921e-002
      -2.32056648e-001 -2.25010514e-001 -2.25143701e-001
      -1.29052967e-001 5.07246889e-002 2.24735647e-001 -8.99710953e-002
      -1.04494035e-001 4.91782464e-002 -4.24394198e-002 -8.63167718e-002
      -1.54221565e-001 -1.37570888e-001 -7.46541396e-002
      -4.72715646e-002 9.71803665e-002 1.76905468e-001 2.65837703e-002
      -9.14039686e-002 -9.33870077e-002 -2.19924226e-001
      -3.41957957e-001 -1.92604661e-001 -3.06191631e-002 2.29910269e-001
      2.04082504e-001 5.24342470e-002 -1.60774991e-001 -3.43576252e-001
      -2.29236990e-001 -2.86133260e-001 -9.43918750e-002 1.41322091e-001
      1.20877773e-001 1.75266266e-001 1.59687385e-001 -5.61512671e-002
      -9.77786109e-002 -1.91612035e-001 -1.94290951e-001
      -1.62773147e-001 5.84695861e-002 6.24814555e-002 1.96192399e-001
      -6.27810955e-002 -5.72074763e-002 -1.11890972e-001
      -1.98260859e-001 -2.72236764e-001 -9.02302414e-002
      -8.74192175e-003 4.71173115e-002 -1.72107737e-003 -9.99035463e-002
      -2.22032845e-001 -2.68269300e-001 -1.52748182e-001
      -7.27500618e-002 1.53598070e-001 3.64101008e-002 -2.71650981e-002
      -9.72642228e-002 -3.39178033e-002 5.33623295e-003 8.50131083e-003
      -4.45189998e-002 8.05140566e-003 5.78449704e-002 6.39175028e-002
      7.61895627e-003 -2.34934077e-001 -3.53746742e-001 -1.21435359e-001
      3.70574221e-002 -1.98268555e-002 1.90281525e-001 2.32280761e-001
      1.67854339e-001 2.20341533e-001 7.02872649e-002 -1.07463114e-001
      -3.54446411e-001 -4.13067579e-001 -2.12418273e-001
      -1.58646852e-002 1.30515069e-001 2.06909344e-001 4.85498905e-001
      2.09579766e-001 -1.73712492e-001 -3.93732399e-001 -5.06644070e-001
      -2.54225791e-001 -3.41752730e-002 2.20475942e-001 5.07639229e-001
      -4.39791493e-002 1.16373666e-001 -9.27553177e-002 -1.50232285e-001
      -2.45587707e-001 -7.68402070e-002 -8.58033355e-003 7.53722433e-003
      -4.89253886e-002 1.05915293e-001 3.31064999e-001 -4.39631380e-003
      -1.59241214e-001 -3.48947048e-001 -1.37840346e-001
      -8.01203921e-002 -6.97291195e-002 -1.68958604e-002 3.93209130e-001
      3.06999028e-001 8.12042952e-002 -2.47002527e-001 -4.39277351e-001
      -2.34563276e-001 -4.06990141e-001 -1.43536180e-001 2.68716872e-001
      1.30561829e-001 1.87741295e-001 3.56853545e-001 5.73239923e-002
      6.57959431e-002 -8.19949061e-002 -1.62657142e-001 -1.89541608e-001
      9.17654019e-003 8.07753354e-002 3.59239787e-001 1.09296732e-001
      -1.32323474e-001 -2.80513346e-001 -9.43667814e-002
      -1.21824138e-001 -8.16621855e-002 -6.33545741e-002
      -7.17367083e-002 -2.12757643e-002 1.18183708e-002 1.24700891e-003
      8.02459270e-002 -9.55426227e-003 -7.76621550e-002 -3.26848216e-002
      -8.25240090e-002 -5.79525828e-002 -1.09324485e-001
      -2.65876297e-002 2.03739971e-001 2.07452834e-001 1.00065365e-001
      8.10718089e-002 -1.46560110e-002 -5.43248393e-002 -1.07190479e-003
      -4.77662891e-001 -4.81913716e-001 -5.23161376e-003 3.04089934e-001
      7.48006701e-002 1.88119143e-001 1.98453635e-001 1.29907101e-001
      -7.67635331e-002 -1.69417992e-001 -5.31068146e-002 7.05627054e-002
      1.37800604e-001 4.10771966e-002 1.38711918e-003 3.16402055e-002
      -1.44269678e-003 5.16009331e-002 -6.07159100e-002 -3.00834645e-002
      5.82865328e-002 1.88645780e-001 2.33928692e-002 1.73715968e-002
      4.68317755e-002 9.71418843e-002</_>
    <_>
      -9.57325101e-002 -5.66365123e-002 -6.54941425e-003 5.92986168e-003
      1.45203779e-002 9.32607520e-003 3.68106216e-002 2.09185388e-002
      -5.56148663e-002 -1.06429040e-001 -8.07725489e-002
      -3.42591573e-003 4.03185226e-002 5.30864745e-002 1.81156844e-002
      6.44541532e-002 2.63097491e-002 -9.20215920e-002 -1.20535009e-001
      -2.04169303e-001 1.61047243e-002 1.67078655e-002 3.74316946e-002
      1.92742143e-002 9.09688324e-002 1.08460523e-002 -1.77453518e-001
      -1.60060912e-001 -1.41437203e-001 -2.21675616e-002
      -2.35414337e-002 1.86402619e-001 6.77468777e-002 1.94430634e-001
      1.75098747e-001 -4.31122142e-004 -1.12659991e-001 -9.22053754e-002
      -4.26948480e-002 3.23854387e-002 5.01090437e-002 1.76919736e-002
      7.44198263e-002 -1.95924453e-002 -1.57314494e-001 -3.29836041e-001
      -1.64983515e-002 8.59561041e-002 8.11194554e-002 1.52400881e-001
      2.47902330e-003 -3.84475365e-002 -1.19039178e-001 -3.39950144e-001
      -2.50935972e-001 -3.51368994e-001 -3.53070237e-002 1.16510496e-001
      2.14858904e-001 1.01176046e-001 2.82320291e-001 1.38465106e-001
      1.13291971e-001 -1.69119805e-001 -9.69221443e-002 1.66169599e-001
      2.20523179e-001 2.74484485e-001 4.78817597e-002 -1.15917742e-001
      -1.89251766e-001 -3.72512221e-001 -1.79792210e-001 1.43577233e-001
      1.30595833e-001 7.32173920e-002 1.16126820e-001 -3.19563635e-002
      -9.22469869e-002 -1.55200675e-001 -2.48617828e-001 1.86159939e-001
      1.91705078e-001 1.06073596e-001 4.59406003e-002 9.71934199e-002
      1.67382881e-003 7.66298100e-002 6.92790747e-002 1.49828523e-001
      -5.01382388e-002 1.61140952e-002 1.51325330e-001 1.54348001e-001
      -2.36712769e-001 -2.87206709e-001 -4.17266846e-001
      -4.96837586e-001 -1.85398385e-001 1.09818637e-001 3.63692015e-001
      2.30304763e-001 1.18724562e-001 -6.59654662e-002 -1.66808307e-001
      -3.51179749e-001 -1.99623644e-001 7.46362517e-003 -1.18238311e-002
      -2.66601264e-001 -6.82951659e-002 4.55683982e-003 7.47362673e-002
      1.02961287e-002 8.01824480e-002 3.87186110e-002 -4.11796868e-002
      -6.53595030e-002 -2.64169604e-001 -1.43939942e-001
      -2.25045122e-002 8.14194381e-002 3.50234397e-002 1.08639821e-001
      1.24260589e-001 1.95752487e-001 1.34085923e-001 -1.33270800e-001
      -1.27791613e-001 -1.70194563e-002 1.15831055e-001 4.79307538e-003
      1.21713571e-001 1.78635940e-001 1.60912499e-001 8.87233168e-002
      -1.87392518e-001 -2.95578897e-001 -9.96054411e-002
      -1.22315712e-001 -5.72131127e-002 -5.76888807e-002 1.84270173e-001
      3.95239770e-001 -3.06285154e-002 -1.72128692e-001 -9.34312269e-002
      -5.57586290e-002 -3.17894556e-002 -9.29341931e-003 4.38335277e-002
      9.45975482e-002 1.94135159e-001 -5.05996607e-002 -2.19534934e-001
      -9.74964350e-002 -1.49946824e-001 -2.26619393e-001
      -2.07715750e-001 -2.63679057e-001 -1.47196680e-001
      -9.64092687e-002 1.71981812e-001 -1.81420282e-001 -2.28972688e-001
      -2.14467615e-001 -3.33506912e-001 -1.61009997e-001
      -2.64358819e-001 -2.75099743e-002 2.98199862e-001 7.13137165e-002
      -2.54325867e-002 -1.31335214e-001 -2.98092991e-001
      -4.62979943e-001 -3.44313741e-001 -3.67876500e-001
      -2.06733257e-001 1.42278022e-003 -3.81604992e-002 8.23113993e-002
      -4.21952643e-002 -2.13004127e-001 -4.56024975e-001
      -3.17943871e-001 -2.98586547e-001 -2.13792190e-001
      -7.98162892e-002 3.38794798e-001 2.82295763e-001 7.64515474e-002
      -8.03180262e-002 -2.01824456e-001 -7.90693015e-002
      -5.76404966e-002 4.23569418e-002 2.20669895e-001 5.00530489e-002
      -1.06599256e-001 -3.27866226e-001 -3.46674562e-001
      -3.46513838e-001 -2.13474408e-001 -1.11752301e-001
      -4.99391630e-002 6.37782663e-002 1.70782030e-001 -1.53315172e-001
      -3.80737215e-001 -1.74698338e-001 -9.24435109e-002
      -6.96741268e-002 3.11633702e-002 1.83658332e-001 2.33075127e-001
      7.56053701e-002 -1.33114800e-001 -2.55569756e-001 -1.68116003e-001
      1.32338494e-001 -2.74368171e-002 1.48156941e-001 2.70825803e-001
      1.38744071e-001 2.86606431e-001 -1.99445009e-001 -4.14782166e-001
      -2.93339878e-001 -4.75713313e-001 -2.04363704e-001
      -1.69887781e-001 1.66138127e-001 4.63384151e-001 7.98989460e-002
      -8.67951941e-003 -1.87492043e-001 -1.48076773e-001 3.63227352e-002
      2.96527389e-002 1.25952205e-002 9.22039896e-003 3.10853211e-004
      1.86188698e-001 3.62368166e-001 9.47948322e-002 -5.54532260e-002
      -1.78979635e-001 -8.81559029e-002 -1.52002588e-001
      -1.33186877e-001 1.15776705e-002 4.94417042e-001 2.26898953e-001
      3.02094477e-003 -2.37074152e-001 -5.63151002e-001 -3.70826304e-001
      -6.35776520e-001 -3.14838856e-001 3.56094509e-001 -9.98199135e-002
      1.37178019e-001 7.80931488e-002 -1.78191647e-001 -2.51414627e-001
      -2.43513346e-001 -4.96050358e-001 -4.94756013e-001
      -2.89347678e-001 -3.32164392e-002 3.16610754e-001 1.94115937e-001
      1.75400695e-003 -4.31847088e-002 -7.38246143e-002 -1.19096443e-001
      -1.38126373e-001 -1.83173418e-001 -3.83239299e-001
      -3.04129958e-001 -1.97322592e-001 2.20227782e-002 1.20323502e-001
      -1.37775531e-002 -2.45670918e-002 -7.67236799e-002
      -2.98245549e-001 -2.18790516e-001 -1.86923072e-001
      -2.57239580e-001 -3.30562703e-002 2.10150257e-001 5.95253184e-002
      8.04030672e-002 -9.04894695e-002 -4.67077345e-002 1.80171475e-001
      -4.71948653e-001 -6.62992716e-001 -7.31638446e-002 1.56939134e-001
      1.21489808e-001 2.21492141e-001 2.05933571e-001 4.37159091e-001
      -2.94933915e-001 -3.40394616e-001 -3.64975870e-001
      -1.47351697e-002 1.23419821e-001 5.53425550e-002 5.74680753e-002
      5.43202721e-002 -1.08852468e-001 -2.19326876e-002 -1.32556530e-002
      -6.89389780e-002 1.46208098e-002 8.49148557e-002 1.77027546e-002
      5.72636761e-002 7.97626674e-002 2.93196347e-002</_>
    <_>
      5.71234571e-003 -2.19464898e-002 2.51270905e-002 -1.66255888e-002
      -3.02885585e-002 -2.87929960e-002 4.22078408e-002 2.35960558e-002
      2.28316411e-002 -1.95136562e-001 -1.60060361e-001 -1.54396668e-001
      -5.82502447e-002 -5.49261086e-002 -1.27979442e-001
      -5.12860119e-002 1.72108524e-002 -1.07403383e-001 2.10196331e-001
      -1.28901288e-001 -3.03378999e-001 -4.26380038e-001
      -6.15869224e-001 -3.84258360e-001 5.20503074e-002 5.59400655e-002
      6.03831112e-002 8.49726573e-002 2.87051529e-001 -9.43548158e-002
      -1.52175680e-001 -1.61889270e-001 -3.48104417e-001
      -1.06989942e-001 1.41349316e-001 1.72241822e-001 -2.21795574e-001
      -1.53154090e-001 -1.47442609e-001 -4.28277738e-002
      -9.53383893e-002 -1.53365672e-001 -6.65495172e-002
      -1.03589268e-002 -2.23666415e-001 -8.07322711e-002 8.77323002e-002
      2.00308755e-001 1.70172706e-001 1.22923277e-001 -1.20915413e-001
      -8.87363404e-002 -4.63142619e-002 -1.23964369e-001
      -2.02818476e-002 -6.38207188e-003 -1.78982556e-001
      -2.95087993e-001 -6.25380337e-001 -3.84557813e-001
      -1.08933426e-001 2.32698947e-001 -7.64052942e-002 2.41405338e-001
      -1.74995400e-002 -8.78663957e-002 -1.18673362e-001
      -3.45991969e-001 -2.91087002e-001 -2.04525650e-001 3.28991264e-002
      2.70236105e-001 7.65061677e-002 1.11392073e-001 6.72894940e-002
      1.49054065e-001 6.77915663e-002 -7.67640918e-002 -1.58631615e-002
      1.07653132e-002 3.30868065e-002 2.60783195e-001 -1.29594758e-001
      -1.22975424e-001 1.52502537e-001 4.42803204e-001 1.03610396e-001
      2.27088585e-001 1.80367038e-001 2.49095201e-001 -8.54358673e-002
      -1.60141811e-001 -2.05552205e-001 -1.08858742e-001
      -2.83292145e-001 -2.42226973e-001 -1.90928802e-001 6.56814426e-002
      8.33698735e-002 -1.87747836e-001 -3.08448136e-001 -1.46984175e-001
      1.19509108e-001 4.03164715e-001 2.02328160e-001 2.83650666e-001
      2.60517806e-001 -1.02369592e-001 2.77565867e-001 1.66497305e-001
      -4.04882282e-002 -3.49704862e-001 -7.41349399e-001
      -2.85172164e-001 5.15493788e-002 1.51159704e-001 2.08460152e-001
      1.81358427e-001 5.28826378e-003 1.79014597e-002 -4.21739161e-001
      -7.74666250e-001 -4.78070974e-001 -1.40190572e-001 4.18874025e-002
      1.96718156e-001 4.63402539e-001 5.72916269e-001 4.29042041e-001
      -1.83219820e-001 -5.56623459e-001 -3.21109980e-001
      -6.73571452e-002 9.84132066e-002 4.21475917e-001 1.87223300e-001
      2.62317717e-001 2.17514321e-001 -2.09532008e-001 -7.93864071e-001
      -5.84135294e-001 -3.12179893e-001 -2.07144052e-001 3.81420068e-002
      -4.27953564e-002 -1.34545699e-001 -1.82054609e-001
      -1.08895779e-001 -2.11017773e-001 -7.95019045e-002 3.80636491e-002
      1.34984821e-001 1.42705366e-001 1.99918404e-001 6.91112652e-002
      -1.20112531e-001 -1.74920499e-001 -2.35456198e-001
      -5.43810166e-002 -4.61758412e-002 1.38700813e-001 3.36511552e-001
      -5.30221546e-003 -1.12922251e-001 -1.03336267e-001
      -3.02888341e-002 -2.47493759e-001 -1.60513669e-001
      -1.35948986e-001 -3.48564647e-002 7.82478675e-002 1.07036168e-002
      -8.37404281e-002 -1.80589780e-001 -1.39797464e-001
      -2.80272782e-001 -1.38372079e-001 -2.74651833e-002 8.66087377e-002
      1.58816680e-001 2.15617985e-001 -1.85764637e-002 7.48550743e-002
      8.92644450e-002 -3.28468112e-003 -4.57332432e-002 -8.63061026e-002
      8.59615803e-002 2.75515020e-001 -1.32293656e-001 -2.98028499e-001
      1.45607563e-002 2.61694133e-001 4.93087411e-001 1.47751927e-001
      7.20288083e-002 3.89098823e-002 -1.69500425e-001 -1.34238333e-001
      -1.32974088e-001 -2.15550512e-001 3.64028551e-002 -7.24741742e-002
      1.75283570e-002 2.52259690e-002 4.73543890e-002 4.31424230e-002
      -4.59815979e-001 -3.11215848e-001 -1.55137628e-001 2.89982170e-001
      3.12371910e-001 1.26439348e-001 -4.47537675e-002 -8.35190192e-002
      -3.31901580e-001 3.24098319e-001 1.92974716e-001 3.19556713e-001
      -7.71877468e-002 -5.16954780e-001 -1.81648836e-001
      -1.21759214e-001 1.52237117e-001 2.70325243e-001 2.74470411e-002
      -9.09082666e-002 -6.70339838e-002 -1.31542519e-001
      -6.74918473e-001 -3.73788446e-001 -3.13348144e-001
      -7.38311410e-002 -1.33695275e-001 1.58262044e-001 2.24966481e-001
      2.09084496e-001 5.39521016e-002 5.09028584e-002 5.27093112e-002
      1.09570280e-001 8.02179649e-002 9.50646996e-002 -2.07570121e-001
      1.00268476e-001 1.79111078e-001 1.13067999e-001 -1.26384562e-002
      -1.62869338e-002 -7.04346807e-004 -9.62815061e-002
      -2.81732231e-001 6.86550960e-002 3.31289954e-002 8.66224766e-002
      1.16117463e-001 -1.04148418e-001 -1.96989134e-001 -1.49719507e-001
      -3.98516096e-002 3.02651003e-002 6.28965050e-002 -9.75421593e-002
      -3.15753073e-001 -1.77392110e-001 -1.17242731e-001
      -2.56375492e-001 -6.00038096e-002 -6.08361047e-003 2.17954859e-001
      -2.24122196e-001 3.33450772e-002 5.34766167e-002 1.49032578e-001
      6.00218996e-002 -4.76236641e-002 -7.49291759e-003 -4.94549610e-002
      -1.72809184e-001 -3.29319835e-001 -1.31988034e-001
      -1.07135288e-001 -6.33221716e-002 -7.27691725e-002
      -3.48617211e-002 7.17196763e-002 7.98555370e-003 -2.31451392e-001
      -2.04875156e-001 -9.69771817e-002 -3.50066692e-001
      -9.88436937e-002 7.97131583e-002 -6.67421846e-003 -3.79233621e-002
      4.22348175e-003 1.57356441e-001 -4.10316825e-001 -2.75467038e-001
      -3.69648673e-002 2.57511795e-001 2.50541955e-001 1.59163833e-001
      -5.86153492e-002 -3.71396914e-002 -1.35003760e-001
      -1.83667243e-001 -7.06503019e-002 -9.14326757e-002
      -1.59837939e-002 5.63816051e-004 7.15542883e-002 1.07238762e-001
      3.95777784e-002 -8.70722160e-002 4.38614078e-002 6.11485057e-002
      1.05534710e-001 1.40571907e-001 3.28455776e-001 8.35164115e-002
      9.47901458e-002 4.35182601e-002 5.52779585e-002</_>
    <_>
      5.81990220e-002 -5.66622429e-002 -1.29256085e-001 -5.67200556e-002
      8.99212249e-003 -1.71673263e-003 8.38919058e-002 7.57619068e-002
      8.91297832e-002 -1.31745651e-001 -2.11469591e-001 -2.64922351e-001
      -6.38684910e-003 -1.54803623e-003 1.92719027e-002 3.42991576e-002
      4.33457419e-002 -5.16440580e-003 -2.40235515e-002 -4.93268043e-001
      -7.97382474e-001 -3.36910963e-001 -2.00058103e-001
      -6.83584511e-002 1.11476101e-001 1.40091762e-001 1.00795865e-001
      -1.15280107e-001 3.10107265e-002 1.43519610e-001 1.11705936e-001
      5.22035062e-001 2.21634507e-002 -8.09252411e-002 -1.66213021e-001
      -4.22710389e-001 -1.48621008e-001 -9.74420756e-002
      -1.03300966e-001 1.40154893e-002 -6.02547033e-003 -2.20531616e-002
      -1.41662240e-001 -1.20456025e-001 -1.49629772e-001
      -8.03912729e-002 -8.15885440e-002 -2.53640383e-001 4.20881482e-003
      1.97836012e-001 -6.08936585e-002 -1.90421000e-001 -1.50392219e-001
      -1.58694088e-001 -6.19537346e-002 1.75088763e-001 1.24291040e-001
      1.72103092e-001 2.58227080e-001 -4.37628478e-002 -3.47155094e-001
      -4.23741072e-001 -3.47479433e-001 1.43177271e-001 -4.76219982e-001
      -2.84445375e-001 -2.46037513e-001 -5.72907217e-002
      -2.72332698e-001 -4.51405406e-001 -2.54987061e-001 7.83580914e-002
      -4.23875079e-002 -3.27007063e-002 -1.64614156e-001 5.69861606e-002
      1.92501351e-001 -1.01281375e-001 -2.11879343e-001 -1.40461504e-001
      -7.96499252e-002 1.33233339e-001 1.22588374e-001 1.36583775e-001
      9.33681577e-002 1.67352840e-001 6.65538525e-003 1.78383570e-002
      1.73570439e-002 7.49002695e-002 3.06993220e-002 -4.66315866e-001
      -3.10107678e-001 -1.13967001e-001 -1.13228783e-001
      -4.84866083e-001 -2.52983660e-001 -1.10062368e-001
      -3.60407755e-002 8.33704229e-003 -1.01456113e-001 -8.94398913e-002
      -1.34369746e-001 -3.98056246e-002 -2.19843924e-001
      -5.19417167e-001 -3.75672221e-001 -2.43136197e-001 3.97244751e-001
      1.30051300e-001 -5.11339247e-001 -3.01966220e-001 -3.16047758e-001
      -1.74061939e-001 -3.04183215e-002 1.80907026e-001 3.16285342e-001
      -2.00344965e-001 -3.07416499e-001 -7.43251145e-002
      -1.07843980e-001 -2.11871266e-001 -3.23525131e-001
      -2.91804135e-001 -2.26986900e-001 -4.12252843e-002 3.05023193e-001
      4.12668705e-001 1.44866975e-002 -4.80482519e-001 -5.74279487e-001
      -3.30165565e-001 -2.56234199e-001 2.72740088e-002 1.85069963e-001
      -3.73721048e-002 -6.87978119e-002 -1.62898049e-001
      -2.82988161e-001 -6.22480929e-001 -4.65813279e-001
      -4.26545620e-001 -2.03438625e-001 -1.60203561e-001
      -9.48002934e-002 -1.64552424e-002 -9.65769663e-002
      -6.75170422e-002 -3.02573591e-001 -3.53933632e-001
      -4.80062336e-001 -3.60845804e-001 -1.48370519e-001 2.91691907e-003
      -4.67981473e-002 -4.61427778e-001 -4.59492058e-001
      -6.20104015e-001 -4.34379488e-001 -4.52204198e-001
      -3.09891194e-001 -2.55917102e-001 7.77430832e-002 -2.80518442e-001
      -5.71390688e-001 -5.79885781e-001 -8.63456309e-001
      -4.41765219e-001 -4.37623650e-001 -3.13630551e-001
      -1.90385226e-002 1.35504037e-001 -7.07563311e-002 -4.34267282e-001
      -5.89392304e-001 -7.38176942e-001 -4.95968610e-001
      -4.81282949e-001 -4.98266250e-001 -1.07913665e-001
      -1.05624452e-001 -1.38890058e-001 -2.24395946e-001
      -3.18584830e-001 -2.93128729e-001 -3.38621199e-001
      -1.71993345e-001 -2.71705180e-001 -3.17825735e-001 1.64400220e-001
      2.14966256e-002 -6.33597746e-002 -2.94101804e-001 -3.08338434e-001
      -2.53973275e-001 -2.85293818e-001 -2.56920338e-001
      -3.21578607e-002 -1.55175596e-001 -8.98784399e-002
      -6.75514489e-002 -1.17531382e-001 -4.73006889e-002
      -2.61523515e-001 -1.20574653e-001 -3.06211174e-001
      -3.42544407e-001 -1.29229903e-001 -4.12315458e-001
      -4.81808782e-001 -1.62676156e-001 2.29903162e-002 -2.81623691e-001
      -7.83262998e-002 1.12492172e-002 1.73410386e-001 2.93322474e-001
      2.20114812e-001 3.01836133e-002 -2.74451286e-001 -3.41949970e-001
      -2.86059052e-001 -3.69855702e-001 -2.23850042e-001 1.82523459e-001
      1.54233664e-001 -4.00717080e-001 -3.73894125e-001 -3.56525868e-001
      -4.44278955e-001 -2.50825018e-001 -2.64450745e-003 1.95268393e-001
      2.04226360e-001 1.06252052e-001 2.12560177e-001 1.40752122e-001
      -1.51753880e-003 9.10725258e-003 -5.29373772e-002 -1.46265283e-001
      -1.56026378e-001 -7.94218406e-002 -2.24983200e-001 2.77241878e-002
      -7.46128932e-002 -8.47004205e-002 -1.76866814e-001
      -1.23136736e-001 -2.57004499e-001 -3.06023151e-001
      -2.79296875e-001 2.99658984e-001 -3.33978415e-001 -6.30340815e-001
      -4.58214730e-001 -5.69082022e-001 -3.24940950e-001
      -2.84254849e-001 -1.39752448e-001 4.32993263e-001 7.18896747e-001
      3.44213158e-001 -3.83124471e-001 -3.02127033e-001 -7.24958852e-002
      -2.60348469e-001 -2.73270875e-001 -5.32689571e-001 1.74062639e-001
      -2.36616299e-001 -1.33784279e-001 -3.31740379e-001
      -1.83272913e-001 -7.07419366e-002 -6.31966591e-002
      -1.25049159e-001 -1.60633758e-001 -2.11921826e-001
      -8.36085752e-002 -6.19490370e-002 -3.01671684e-001
      -1.21747060e-002 2.15422615e-001 2.99547389e-002 -1.75391614e-001
      -1.43495902e-001 -8.26436058e-002 -9.77475718e-002 1.21441618e-001
      3.77408415e-002 -1.35463372e-001 4.31509554e-001 6.90029860e-002
      1.07011013e-001 -5.55001855e-001 -2.23931804e-001 -4.77767706e-001
      -8.77658665e-001 -5.49790084e-001 3.05582513e-003 4.38074052e-001
      -3.31367478e-002 2.08786309e-001 2.27460057e-001 -1.32036328e-001
      -1.85868353e-001 -1.58047125e-001 -2.03102827e-001
      -4.42559784e-003 2.59930849e-001 9.33850780e-002 -2.61744577e-002
      -3.90215293e-002 -1.02969974e-001 -7.82388896e-002
      -1.39886811e-001 -8.05425271e-002 4.07704860e-002 2.67825842e-001
      3.29249427e-002 4.58568335e-002 7.37022310e-002 -6.82999659e-003</_>
    <_>
      3.42022651e-003 -4.62111048e-002 -2.11243983e-002 1.53172901e-003
      4.18854654e-002 1.42511157e-002 7.71688148e-002 7.28229433e-002
      4.54924814e-002 -1.67262450e-001 -2.51553595e-001 -2.22310722e-001
      1.04116257e-002 3.03433388e-002 3.70900147e-002 1.45622715e-001
      1.14018224e-001 -2.86262725e-002 3.32152039e-001 -3.71441603e-001
      -8.34408700e-001 -1.70184270e-001 -8.73103291e-002 3.64820585e-002
      2.26825371e-001 2.28192717e-001 3.32077503e-001 -8.50430205e-002
      -3.55795383e-001 -2.85516888e-001 1.60061017e-001 4.15161759e-001
      2.50797365e-002 7.30742812e-002 1.88364219e-002 -9.00438428e-002
      -2.51217157e-001 -1.68071166e-001 -1.08395271e-001 5.26298098e-002
      2.09696218e-002 4.01423797e-002 7.73603246e-002 2.89068068e-003
      -1.48042127e-001 -2.31494710e-001 1.55235650e-002 2.20107481e-001
      1.14414103e-001 2.91751567e-002 -5.52401431e-002 -1.66391522e-001
      -1.40160576e-001 -2.66120285e-001 -3.03895682e-001
      -2.36707345e-001 5.46067581e-002 3.73097718e-001 -1.55839073e-002
      -2.63227463e-001 -3.62547576e-001 -3.33666712e-001
      -1.52762845e-001 2.22759962e-001 3.13979000e-001 3.66394728e-001
      1.09272964e-001 -4.46881324e-001 -4.77996737e-001 -8.03792894e-001
      -5.05154252e-001 -1.45786908e-002 3.85143310e-002 1.81669936e-001
      1.43958181e-001 6.73619136e-002 1.68547034e-002 -1.13057978e-001
      -2.36844927e-001 -2.14368448e-001 -1.38208926e-001 2.37885624e-001
      4.25894484e-002 -6.59474730e-002 2.90215444e-002 2.18965068e-001
      2.80219372e-002 2.27444470e-002 5.98685071e-002 1.46595240e-001
      1.57484904e-001 7.75789693e-002 -5.25178090e-002 -1.93964347e-001
      -4.56205159e-001 -5.31006098e-001 -4.21830356e-001
      -1.81884840e-001 2.62757182e-001 1.03951253e-001 -1.27865627e-001
      -2.55395442e-001 -6.11028075e-003 1.51850984e-001 1.56724006e-002
      2.17934877e-001 3.16885352e-001 5.76605462e-002 2.99035758e-001
      1.42673329e-001 -4.81263697e-001 -2.27132112e-001 -2.83294827e-001
      -6.39367476e-002 7.91693404e-002 1.44331411e-001 2.03477338e-001
      5.93655882e-003 -4.67950135e-001 -3.33476335e-001 -1.86886191e-001
      -1.59808010e-001 -2.19643876e-001 -8.82472545e-002
      -8.43499042e-003 1.35430470e-001 5.05282581e-001 5.64297497e-001
      1.07834883e-001 -2.48818010e-001 -4.30178106e-001 -1.17905296e-001
      1.38834640e-002 1.11020274e-001 3.23111087e-001 1.79111078e-001
      8.07709992e-002 -1.25558406e-001 -2.79098481e-001 -4.72902179e-001
      -3.52196157e-001 -1.98567510e-001 -1.22609362e-002 9.53353941e-002
      -8.16806592e-003 -1.16250917e-001 -1.71869859e-001
      -4.43565398e-002 -2.71743745e-001 -3.00219923e-001
      -2.52660364e-001 -1.17905244e-001 1.04076929e-001 3.27430576e-001
      4.15113047e-002 -1.90707996e-001 -3.06378871e-001 -5.35844326e-001
      -2.75110066e-001 -2.55998433e-001 -1.51910186e-001 3.30386728e-001
      9.72971097e-002 -1.07236058e-001 -2.90133983e-001 -2.28297114e-001
      -4.01919097e-001 -2.57840812e-001 -1.90530762e-001
      -1.73876852e-001 3.82970124e-002 1.04371905e-001 -1.12077907e-001
      -2.83131361e-001 -2.54037529e-001 -3.23178619e-001
      -1.18538216e-001 2.57190634e-002 -1.03168391e-001 1.76005587e-001
      1.58730343e-001 3.12166684e-003 -2.17788577e-001 -1.68967918e-001
      -2.25462541e-001 -1.58167824e-001 -1.52834460e-001 1.68940499e-002
      3.16862792e-001 -4.50611375e-002 -8.73102248e-002 -8.76216665e-002
      1.03217401e-001 3.21871132e-001 1.46863367e-002 5.36708981e-002
      2.03025952e-001 -9.70721245e-003 -8.08314160e-002 -1.25584260e-001
      -2.66381711e-001 -9.72437207e-003 2.97553409e-002 -2.61516161e-002
      8.61927047e-002 1.34359775e-002 5.16755842e-002 -2.29126722e-001
      -2.05790967e-001 -1.05593182e-001 1.52618378e-001 2.55528808e-001
      -6.17258735e-002 2.85327155e-002 9.06459838e-002 -1.23860143e-001
      3.42933774e-001 4.01382089e-001 1.87809646e-001 -1.19616047e-001
      -2.64463186e-001 -1.57263935e-001 -7.08527118e-002
      -5.05827144e-002 8.88293609e-002 -8.60644951e-002 -2.06022523e-002
      -1.46323755e-001 -1.76329315e-001 -5.46242952e-001
      -3.79364789e-001 -2.38161549e-001 -2.54565418e-001
      -1.81245059e-001 1.09504491e-001 1.90733016e-001 2.08455428e-001
      5.16591817e-002 3.05149443e-002 3.11551727e-002 4.45534959e-002
      1.81210041e-002 1.84713565e-002 -8.61981362e-002 1.59924984e-001
      2.38006890e-001 8.46938640e-002 1.71159357e-002 -2.57288385e-002
      -2.03955267e-002 -7.03210160e-002 -2.23750651e-001
      -3.98391895e-002 -1.41029581e-001 7.13155838e-004 -1.81771480e-002
      -1.23257846e-001 -1.28600016e-001 -3.87428552e-002
      -2.39973590e-001 -1.69569656e-001 -1.25260241e-002
      -2.01558337e-001 -8.19100142e-002 -2.31938250e-002 7.24208355e-002
      5.80752008e-002 2.38318697e-001 4.68128137e-002 6.15257919e-002
