<?xml version="1.0"?>
<opencv_storage>
<opencv_ml_boost>
  <format>3</format>
  <is_classifier>1</is_classifier>
  <var_all>326</var_all>
  <var_count>325</var_count>
  <ord_var_count>324</ord_var_count>
  <cat_var_count>2</cat_var_count>
  <training_params>
    <boosting_type>GentleAdaboost</boosting_type>
    <use_surrogates>0</use_surrogates>
    <max_categories>10</max_categories>
    <regression_accuracy>9.9999997764825821e-003</regression_accuracy>
    <max_depth>5</max_depth>
    <min_sample_count>10</min_sample_count>
    <cross_validation_folds>0</cross_validation_folds>
    <priors type_id="opencv-matrix">
      <rows>2</rows>
      <cols>1</cols>
      <dt>d</dt>
      <data>
        -2.6569842580370804e+303 -2.6569842580370804e+303</data></priors>
    <weight_trimming_rate>9.4999999999999996e-001</weight_trimming_rate></training_params>
  <global_var_idx>1</global_var_idx>
  <var_idx>
    0 1 2 3 4 5 6 7 8 9 10 11 12 13 14 15 16 17 18 19 20 21 22 23 24 25
    26 27 28 29 30 31 32 33 34 35 36 37 38 39 40 41 42 43 44 45 46 47 48
    49 50 51 52 53 54 55 56 57 58 59 60 61 62 63 64 65 66 67 68 69 70 71
    72 73 74 75 76 77 78 79 80 81 82 83 84 85 86 87 88 89 90 91 92 93 94
    95 96 97 98 99 100 101 102 103 104 105 106 107 108 109 110 111 112
    113 114 115 116 117 118 119 120 121 122 123 124 125 126 127 128 129
    130 131 132 133 134 135 136 137 138 139 140 141 142 143 144 145 146
    147 148 149 150 151 152 153 154 155 156 157 158 159 160 161 162 163
    164 165 166 167 168 169 170 171 172 173 174 175 176 177 178 179 180
    181 182 183 184 185 186 187 188 189 190 191 192 193 194 195 196 197
    198 199 200 201 202 203 204 205 206 207 208 209 210 211 212 213 214
    215 216 217 218 219 220 221 222 223 224 225 226 227 228 229 230 231
    232 233 234 235 236 237 238 239 240 241 242 243 244 245 246 247 248
    249 250 251 252 253 254 255 256 257 258 259 260 261 262 263 264 265
    266 267 268 269 270 271 272 273 274 275 276 277 278 279 280 281 282
    283 284 285 286 287 288 289 290 291 292 293 294 295 296 297 298 299
    300 301 302 303 304 305 306 307 308 309 310 311 312 313 314 315 316
    317 318 319 320 321 322 323 324</var_idx>
  <var_type>
    0 0 0 0 0 0 0 0 0 0 0 0 0 0 0 0 0 0 0 0 0 0 0 0 0 0 0 0 0 0 0 0 0 0
    0 0 0 0 0 0 0 0 0 0 0 0 0 0 0 0 0 0 0 0 0 0 0 0 0 0 0 0 0 0 0 0 0 0
    0 0 0 0 0 0 0 0 0 0 0 0 0 0 0 0 0 0 0 0 0 0 0 0 0 0 0 0 0 0 0 0 0 0
    0 0 0 0 0 0 0 0 0 0 0 0 0 0 0 0 0 0 0 0 0 0 0 0 0 0 0 0 0 0 0 0 0 0
    0 0 0 0 0 0 0 0 0 0 0 0 0 0 0 0 0 0 0 0 0 0 0 0 0 0 0 0 0 0 0 0 0 0
    0 0 0 0 0 0 0 0 0 0 0 0 0 0 0 0 0 0 0 0 0 0 0 0 0 0 0 0 0 0 0 0 0 0
    0 0 0 0 0 0 0 0 0 0 0 0 0 0 0 0 0 0 0 0 0 0 0 0 0 0 0 0 0 0 0 0 0 0
    0 0 0 0 0 0 0 0 0 0 0 0 0 0 0 0 0 0 0 0 0 0 0 0 0 0 0 0 0 0 0 0 0 0
    0 0 0 0 0 0 0 0 0 0 0 0 0 0 0 0 0 0 0 0 0 0 0 0 0 0 0 0 0 0 0 0 0 0
    0 0 0 0 0 0 0 0 0 0 0 0 0 0 0 0 0 0 1 1</var_type>
  <cat_ofs>
    0 0 0 0 0 0 0 0 0 0 0 0 0 0 0 0 0 0 0 0 0 0 0 0 0 0 0 0 0 0 0 0 0 0
    0 0 0 0 0 0 0 0 0 0 0 0 0 0 0 0 0 0 0 0 0 0 0 0 0 0 0 0 0 0 0 0 0 0
    0 0 0 0 0 0 0 0 0 0 0 0 0 0 0 0 0 0 0 0 0 0 0 0 0 0 0 0 0 0 0 0 0 0
    0 0 0 0 0 0 0 0 0 0 0 0 0 0 0 0 0 0 0 0 0 0 0 0 0 0 0 0 0 0 0 0 0 0
    0 0 0 0 0 0 0 0 0 0 0 0 0 0 0 0 0 0 0 0 0 0 0 0 0 0 0 0 0 0 0 0 0 0
    0 0 0 0 0 0 0 0 0 0 0 0 0 0 0 0 0 0 0 0 0 0 0 0 0 0 0 0 0 0 0 0 0 0
    0 0 0 0 0 0 0 0 0 0 0 0 0 0 0 0 0 0 0 0 0 0 0 0 0 0 0 0 0 0 0 0 0 0
    0 0 0 0 0 0 0 0 0 0 0 0 0 0 0 0 0 0 0 0 0 0 0 0 0 0 0 0 0 0 0 0 0 0
    0 0 0 0 0 0 0 0 0 0 0 0 0 0 0 0 0 0 0 0 0 0 0 0 0 0 0 0 0 0 0 0 0 0
    0 0 0 0 0 0 0 0 0 0 0 0 0 0 0 0 0 0 0 0 0 0 0 0 0 0 0 0 0 0 0 0 0 0
    0 0 0 0 0 0 0 0 0 0 0 0 0 0 0 0 0 0 0 0 0 0 0 0 0 0 0 0 0 0 0 0 0 0
    0 0 0 0 0 0 0 0 0 0 0 0 0 0 0 0 0 0 0 0 0 0 0 0 0 0 0 0 0 0 0 0 0 0
    0 0 0 0 0 0 0 0 0 0 0 0 0 0 0 0 0 0 0 0 0 0 0 0 0 0 0 0 0 0 0 0 0 0
    0 0 0 0 0 0 0 0 0 0 0 0 0 0 0 0 0 0 0 0 0 0 0 0 0 0 0 0 0 0 0 0 0 0
    0 0 0 0 0 0 0 0 0 0 0 0 0 0 0 0 0 0 0 0 0 0 0 0 0 0 0 0 0 0 0 0 0 0
    0 0 0 0 0 0 0 0 0 0 0 0 0 0 0 0 0 0 0 0 0 0 0 0 0 0 0 0 0 0 0 0 0 0
    0 0 0 0 0 0 0 0 0 0 0 0 0 0 0 0 0 0 0 0 0 0 0 0 0 0 0 0 0 0 0 0 0 0
    0 0 0 0 0 0 0 0 0 0 0 0 0 0 0 0 0 0 0 0 0 0 0 0 0 0 0 0 0 0 0 0 0 0
    0 0 0 0 0 0 0 0 0 0 0 0 0 0 0 0 0 0 0 0 0 0 0 0 0 0 0 0 0 0 0 0 0 0
    0 0 0 10</cat_ofs>
  <cat_map>
    0 1 2 3 4 5 6 7 8 9</cat_map>
  <class_labels>
    0 1</class_labels>
  <missing_subst>
    0. 0. 0. 0. 0. 0. 0. 0. 0. 0. 0. 0. 0. 0. 0. 0. 0. 0. 0. 0. 0. 0. 0.
    0. 0. 0. 0. 0. 0. 0. 0. 0. 0. 0. 0. 0. 0. 0. 0. 0. 0. 0. 0. 0. 0. 0.
    0. 0. 0. 0. 0. 0. 0. 0. 0. 0. 0. 0. 0. 0. 0. 0. 0. 0. 0. 0. 0. 0. 0.
    0. 0. 0. 0. 0. 0. 0. 0. 0. 0. 0. 0. 0. 0. 0. 0. 0. 0. 0. 0. 0. 0. 0.
    0. 0. 0. 0. 0. 0. 0. 0. 0. 0. 0. 0. 0. 0. 0. 0. 0. 0. 0. 0. 0. 0. 0.
    0. 0. 0. 0. 0. 0. 0. 0. 0. 0. 0. 0. 0. 0. 0. 0. 0. 0. 0. 0. 0. 0. 0.
    0. 0. 0. 0. 0. 0. 0. 0. 0. 0. 0. 0. 0. 0. 0. 0. 0. 0. 0. 0. 0. 0. 0.
    0. 0. 0. 0. 0. 0. 0. 0. 0. 0. 0. 0. 0. 0. 0. 0. 0. 0. 0. 0. 0. 0. 0.
    0. 0. 0. 0. 0. 0. 0. 0. 0. 0. 0. 0. 0. 0. 0. 0. 0. 0. 0. 0. 0. 0. 0.
    0. 0. 0. 0. 0. 0. 0. 0. 0. 0. 0. 0. 0. 0. 0. 0. 0. 0. 0. 0. 0. 0. 0.
    0. 0. 0. 0. 0. 0. 0. 0. 0. 0. 0. 0. 0. 0. 0. 0. 0. 0. 0. 0. 0. 0. 0.
    0. 0. 0. 0. 0. 0. 0. 0. 0. 0. 0. 0. 0. 0. 0. 0. 0. 0. 0. 0. 0. 0. 0.
    0. 0. 0. 0. 0. 0. 0. 0. 0. 0. 0. 0. 0. 0. 0. 0. 0. 0. 0. 0. 0. 0. 0.
    0. 0. 0. 0. 0. 0. 0. 0. 0. 0. 0. 0. 0. 0. 0. 0. 0. 0. 0. 0. 0. 0. 0.
    0. 0. -1. 0.</missing_subst>
  <ntrees>100</ntrees>
  <trees>
    <_>
      <nodes>
        <_>
          <depth>0</depth>
          <value>5.2631578947856777e-002</value>
          <splits>
            <_><var>324</var>
              <quality>3.2949999440461397e-003</quality>
              <not_in>
                1 7</not_in></_></splits></_>
        <_>
          <depth>1</depth>
          <value>4.0892110966626469e-002</value>
          <splits>
            <_><var>184</var>
              <quality>7.7574484050273895e-002</quality>
              <le>1.8371406942605972e-002</le></_></splits></_>
        <_>
          <depth>2</depth>
          <value>-8.6833722658668833e-001</value>
          <splits>
            <_><var>159</var>
              <quality>6.7749902606010437e-002</quality>
              <le>4.5077823102474213e-002</le></_></splits></_>
        <_>
          <depth>3</depth>
          <value>-9.5463137996190239e-001</value>
          <splits>
            <_><var>110</var>
              <quality>6.8262979388237000e-002</quality>
              <le>1.6485339403152466e-001</le></_></splits></_>
        <_>
          <depth>4</depth>
          <value>-9.7918200512819398e-001</value>
          <splits>
            <_><var>300</var>
              <quality>6.6471323370933533e-002</quality>
              <le>2.9003047943115234e-001</le></_></splits></_>
        <_>
          <depth>5</depth>
          <value>-9.8291404745803124e-001</value></_>
        <_>
          <depth>5</depth>
          <value>-1.4529914529914570e-001</value></_>
        <_>
          <depth>4</depth>
          <value>-6.2470146707609553e-001</value>
          <splits>
            <_><var>317</var>
              <quality>2.3819261696189642e-003</quality>
              <le>8.5900872945785522e-003</le></_></splits></_>
        <_>
          <depth>5</depth>
          <value>-7.4110032362460387e-001</value></_>
        <_>
          <depth>5</depth>
          <value>2.1786492374727515e-003</value></_>
        <_>
          <depth>3</depth>
          <value>-1.0272536687629624e-001</value>
          <splits>
            <_><var>324</var>
              <quality>2.0535218063741922e-003</quality>
              <in>
                0 2 3 4 5 6</in></_></splits></_>
        <_>
          <depth>4</depth>
          <value>-5.2459922609177190e-001</value>
          <splits>
            <_><var>102</var>
              <quality>1.7861395608633757e-003</quality>
              <le>1.8476815521717072e-001</le></_></splits></_>
        <_>
          <depth>5</depth>
          <value>-6.5502371711945528e-001</value></_>
        <_>
          <depth>5</depth>
          <value>2.4207858048162212e-001</value></_>
        <_>
          <depth>4</depth>
          <value>4.5392657427667016e-001</value>
          <splits>
            <_><var>165</var>
              <quality>1.5344027196988463e-003</quality>
              <le>1.4284087810665369e-003</le></_></splits></_>
        <_>
          <depth>5</depth>
          <value>-9.5133819951338183e-001</value></_>
        <_>
          <depth>5</depth>
          <value>6.0994057266341006e-001</value></_>
        <_>
          <depth>2</depth>
          <value>1.4677214540245639e-001</value>
          <splits>
            <_><var>202</var>
              <quality>1.8201902508735657e-002</quality>
              <le>4.4218134135007858e-003</le></_></splits></_>
        <_>
          <depth>3</depth>
          <value>-5.8495460440987457e-001</value>
          <splits>
            <_><var>192</var>
              <quality>2.4600988253951073e-003</quality>
              <le>1.1309362947940826e-001</le></_></splits></_>
        <_>
          <depth>4</depth>
          <value>-7.7644024075667328e-001</value>
          <splits>
            <_><var>324</var>
              <quality>2.6983690913766623e-003</quality>
              <not_in>
                1 7 9</not_in></_></splits></_>
        <_>
          <depth>5</depth>
          <value>-8.8598082404768475e-001</value></_>
        <_>
          <depth>5</depth>
          <value>-2.4337957124842860e-001</value></_>
        <_>
          <depth>4</depth>
          <value>2.6385224274405035e-003</value>
          <splits>
            <_><var>324</var>
              <quality>5.9857452288269997e-004</quality>
              <in>
                2 4 6 8 9</in></_></splits></_>
        <_>
          <depth>5</depth>
          <value>-8.9031078610603387e-001</value></_>
        <_>
          <depth>5</depth>
          <value>5.0670794633643323e-001</value></_>
        <_>
          <depth>3</depth>
          <value>1.5239555986838180e-001</value>
          <splits>
            <_><var>185</var>
              <quality>1.7580576241016388e-002</quality>
              <le>1.2756288051605225e-003</le></_></splits></_>
        <_>
          <depth>4</depth>
          <value>-1.6648226008705047e-001</value>
          <splits>
            <_><var>190</var>
              <quality>1.2524084886536002e-003</quality>
              <le>2.9216808080673218e-001</le></_></splits></_>
        <_>
          <depth>5</depth>
          <value>-9.9009900990095039e-003</value></_>
        <_>
          <depth>5</depth>
          <value>-6.6205837173579374e-001</value></_>
        <_>
          <depth>4</depth>
          <value>1.5787445882953163e-001</value>
          <splits>
            <_><var>40</var>
              <quality>1.7709335312247276e-002</quality>
              <le>3.3441755175590515e-001</le></_></splits></_>
        <_>
          <depth>5</depth>
          <value>1.5976488187286011e-001</value></_>
        <_>
          <depth>5</depth>
          <value>-1.9244391971662803e-001</value></_>
        <_>
          <depth>1</depth>
          <value>9.7345431383379033e-002</value>
          <splits>
            <_><var>184</var>
              <quality>1.1287369579076767e-001</quality>
              <le>4.5268837362527847e-002</le></_></splits></_>
        <_>
          <depth>2</depth>
          <value>7.5134543464382098e-001</value>
          <splits>
            <_><var>159</var>
              <quality>6.9771513342857361e-002</quality>
              <le>7.1472421288490295e-002</le></_></splits></_>
        <_>
          <depth>3</depth>
          <value>7.9322601375744806e-001</value>
          <splits>
            <_><var>110</var>
              <quality>7.0107348263263702e-002</quality>
              <le>2.4390468001365662e-001</le></_></splits></_>
        <_>
          <depth>4</depth>
          <value>8.0275407292477374e-001</value>
          <splits>
            <_><var>317</var>
              <quality>7.0127166807651520e-002</quality>
              <le>2.4600072205066681e-001</le></_></splits></_>
        <_>
          <depth>5</depth>
          <value>8.0380233056503747e-001</value></_>
        <_>
          <depth>5</depth>
          <value>-7.5903614457831292e-001</value></_>
        <_>
          <depth>4</depth>
          <value>2.7993034392686017e-001</value>
          <splits>
            <_><var>185</var>
              <quality>8.0527161480858922e-004</quality>
              <le>9.6912551671266556e-003</le></_></splits></_>
        <_>
          <depth>5</depth>
          <value>5.7777777777777850e-001</value></_>
        <_>
          <depth>5</depth>
          <value>-7.9879275653923909e-001</value></_>
        <_>
          <depth>3</depth>
          <value>-2.0580235720759876e-001</value>
          <splits>
            <_><var>119</var>
              <quality>1.9678426906466484e-003</quality>
              <le>8.0837331712245941e-002</le></_></splits></_>
        <_>
          <depth>4</depth>
          <value>6.5117550574084060e-001</value>
          <splits>
            <_><var>242</var>
              <quality>7.8491924796253443e-004</quality>
              <le>5.4283868521451950e-003</le></_></splits></_>
        <_>
          <depth>5</depth>
          <value>7.7627118644067850e-001</value></_>
        <_>
          <depth>5</depth>
          <value>1.2994350282485942e-001</value></_>
        <_>
          <depth>4</depth>
          <value>-6.3103635377102385e-001</value>
          <splits>
            <_><var>162</var>
              <quality>1.6221731202676892e-003</quality>
              <le>2.8636753559112549e-001</le></_></splits></_>
        <_>
          <depth>5</depth>
          <value>-7.3994557000302363e-001</value></_>
        <_>
          <depth>5</depth>
          <value>3.1926121372031613e-001</value></_>
        <_>
          <depth>2</depth>
          <value>-7.1812296814292731e-001</value>
          <splits>
            <_><var>189</var>
              <quality>5.3661882877349854e-002</quality>
              <le>1.0081109404563904e-001</le></_></splits></_>
        <_>
          <depth>3</depth>
          <value>-8.9444499176675252e-001</value>
          <splits>
            <_><var>83</var>
              <quality>5.1546946167945862e-002</quality>
              <le>3.0128136277198792e-001</le></_></splits></_>
        <_>
          <depth>4</depth>
          <value>-9.1811403697801330e-001</value>
          <splits>
            <_><var>171</var>
              <quality>5.2843809127807617e-002</quality>
              <le>3.1210792064666748e-001</le></_></splits></_>
        <_>
          <depth>5</depth>
          <value>-9.4091450240312702e-001</value></_>
        <_>
          <depth>5</depth>
          <value>6.8702290076333244e-002</value></_>
        <_>
          <depth>4</depth>
          <value>2.4653739612188366e-001</value>
          <splits>
            <_><var>203</var>
              <quality>5.4826500127092004e-004</quality>
              <le>2.0468006841838360e-003</le></_></splits></_>
        <_>
          <depth>5</depth>
          <value>7.3913043478261164e-001</value></_>
        <_>
          <depth>5</depth>
          <value>-5.0877192982456843e-001</value></_>
        <_>
          <depth>3</depth>
          <value>-3.5450165437977216e-001</value>
          <splits>
            <_><var>58</var>
              <quality>1.0845682583749294e-002</quality>
              <le>2.9866826534271240e-001</le></_></splits></_>
        <_>
          <depth>4</depth>
          <value>-6.1713490541202398e-001</value>
          <splits>
            <_><var>175</var>
              <quality>1.3425657525658607e-002</quality>
              <le>4.1993372142314911e-002</le></_></splits></_>
        <_>
          <depth>5</depth>
          <value>4.5605824232967712e-001</value></_>
        <_>
          <depth>5</depth>
          <value>-7.9861935540606532e-001</value></_>
        <_>
          <depth>4</depth>
          <value>5.3337571519387039e-001</value>
          <splits>
            <_><var>324</var>
              <quality>4.0971380658447742e-003</quality>
              <in>
                1</in></_></splits></_>
        <_>
          <depth>5</depth>
          <value>-6.3064295485634314e-001</value></_>
        <_>
          <depth>5</depth>
          <value>7.9915664532249131e-001</value></_></nodes></_>
    <_>
      <nodes>
        <_>
          <depth>0</depth>
          <value>-2.5989997606000117e-004</value>
          <splits>
            <_><var>184</var>
              <quality>7.3882001452147961e-003</quality>
              <le>1.8316801637411118e-002</le></_></splits></_>
        <_>
          <depth>1</depth>
          <value>2.7694646689134050e-001</value>
          <splits>
            <_><var>324</var>
              <quality>8.0573623999953270e-003</quality>
              <not_in>
                1 8 9</not_in></_></splits></_>
        <_>
          <depth>2</depth>
          <value>1.5258762576516588e-001</value>
          <splits>
            <_><var>121</var>
              <quality>2.6864554733037949e-002</quality>
              <le>7.3099344968795776e-002</le></_></splits></_>
        <_>
          <depth>3</depth>
          <value>-9.0290754646733773e-001</value>
          <splits>
            <_><var>324</var>
              <quality>1.3682774268090725e-002</quality>
              <in>
                2 3 5 6 7</in></_></splits></_>
        <_>
          <depth>4</depth>
          <value>-9.8160201654533130e-001</value>
          <splits>
            <_><var>256</var>
              <quality>1.3794092461466789e-002</quality>
              <le>3.2606947422027588e-001</le></_></splits></_>
        <_>
          <depth>5</depth>
          <value>-9.9069630157876587e-001</value></_>
        <_>
          <depth>5</depth>
          <value>2.3780330299449956e-001</value></_>
        <_>
          <depth>4</depth>
          <value>2.1391446584356252e-001</value>
          <splits>
            <_><var>277</var>
              <quality>6.5493851434439421e-004</quality>
              <le>4.6032827231101692e-004</le></_></splits></_>
        <_>
          <depth>5</depth>
          <value>-1.</value></_>
        <_>
          <depth>5</depth>
          <value>7.1722186922626030e-001</value></_>
        <_>
          <depth>3</depth>
          <value>7.1348505841543075e-001</value>
          <splits>
            <_><var>324</var>
              <quality>1.8975682556629181e-002</quality>
              <not_in>
                7</not_in></_></splits></_>
        <_>
          <depth>4</depth>
          <value>-2.2327725277703107e-002</value>
          <splits>
            <_><var>187</var>
              <quality>9.8765804432332516e-004</quality>
              <le>1.1027647182345390e-002</le></_></splits></_>
        <_>
          <depth>5</depth>
          <value>-5.4199264025458727e-001</value></_>
        <_>
          <depth>5</depth>
          <value>2.7397254599966692e-001</value></_>
        <_>
          <depth>4</depth>
          <value>9.2620161000496948e-001</value>
          <splits>
            <_><var>187</var>
              <quality>1.9666390493512154e-002</quality>
              <le>7.2012223303318024e-002</le></_></splits></_>
        <_>
          <depth>5</depth>
          <value>9.5298200250200393e-001</value></_>
        <_>
          <depth>5</depth>
          <value>-2.4535810234242988e-001</value></_>
        <_>
          <depth>2</depth>
          <value>4.0086569841797565e-001</value>
          <splits>
            <_><var>121</var>
              <quality>3.1522005796432495e-002</quality>
              <le>1.4627137780189514e-001</le></_></splits></_>
        <_>
          <depth>3</depth>
          <value>9.2456706787881682e-001</value>
          <splits>
            <_><var>37</var>
              <quality>2.6006581261754036e-002</quality>
              <le>3.3141497522592545e-002</le></_></splits></_>
        <_>
          <depth>4</depth>
          <value>9.4507315840462824e-001</value>
          <splits>
            <_><var>324</var>
              <quality>2.6425942778587341e-002</quality>
              <not_in>
                1</not_in></_></splits></_>
        <_>
          <depth>5</depth>
          <value>4.3750111655688595e-001</value></_>
        <_>
          <depth>5</depth>
          <value>9.8167743606423996e-001</value></_>
        <_>
          <depth>4</depth>
          <value>-5.4225037854342251e-001</value>
          <splits>
            <_><var>270</var>
              <quality>2.2158854699227959e-004</quality>
              <le>1.0427077859640121e-001</le></_></splits></_>
        <_>
          <depth>5</depth>
          <value>3.1960616113662349e-001</value></_>
        <_>
          <depth>5</depth>
          <value>-8.3560805450153430e-001</value></_>
        <_>
          <depth>3</depth>
          <value>-6.6603348323201172e-001</value>
          <splits>
            <_><var>324</var>
              <quality>1.0368758812546730e-002</quality>
              <in>
                1</in></_></splits></_>
        <_>
          <depth>4</depth>
          <value>-9.6643023345345824e-001</value>
          <splits>
            <_><var>126</var>
              <quality>1.0386788286268711e-002</quality>
              <le>1.4423769712448120e-001</le></_></splits></_>
        <_>
          <depth>5</depth>
          <value>-9.8351152248436213e-001</value></_>
        <_>
          <depth>5</depth>
          <value>3.3000971010129154e-001</value></_>
        <_>
          <depth>4</depth>
          <value>2.4992511192172459e-001</value>
          <splits>
            <_><var>175</var>
              <quality>7.9320633085444570e-004</quality>
              <le>1.5250251628458500e-002</le></_></splits></_>
        <_>
          <depth>5</depth>
          <value>-6.7187494728980579e-001</value></_>
        <_>
          <depth>5</depth>
          <value>4.2369118408405032e-001</value></_>
        <_>
          <depth>1</depth>
          <value>-2.7733950749835118e-002</value>
          <splits>
            <_><var>324</var>
              <quality>8.4442868828773499e-003</quality>
              <in>
                1 7</in></_></splits></_>
        <_>
          <depth>2</depth>
          <value>-3.4994194897873687e-001</value>
          <splits>
            <_><var>110</var>
              <quality>1.7794054001569748e-002</quality>
              <le>8.6594410240650177e-002</le></_></splits></_>
        <_>
          <depth>3</depth>
          <value>9.1067172218915943e-002</value>
          <splits>
            <_><var>177</var>
              <quality>3.0455500818789005e-003</quality>
              <le>2.3269525170326233e-001</le></_></splits></_>
        <_>
          <depth>4</depth>
          <value>2.0367473221510538e-001</value>
          <splits>
            <_><var>125</var>
              <quality>2.7954385150223970e-003</quality>
              <le>1.2949490547180176e-001</le></_></splits></_>
        <_>
          <depth>5</depth>
          <value>3.7028034349315875e-001</value></_>
        <_>
          <depth>5</depth>
          <value>-2.1538145576895634e-001</value></_>
        <_>
          <depth>4</depth>
          <value>-7.9009202585126781e-001</value>
          <splits>
            <_><var>299</var>
              <quality>2.3917404469102621e-003</quality>
              <le>1.3978181779384613e-001</le></_></splits></_>
        <_>
          <depth>5</depth>
          <value>-4.5183997641888490e-002</value></_>
        <_>
          <depth>5</depth>
          <value>-9.5241019804322280e-001</value></_>
        <_>
          <depth>3</depth>
          <value>-6.5740777216669377e-001</value>
          <splits>
            <_><var>162</var>
              <quality>2.0930249243974686e-002</quality>
              <le>2.7957218885421753e-001</le></_></splits></_>
        <_>
          <depth>4</depth>
          <value>-7.8515353628361917e-001</value>
          <splits>
            <_><var>193</var>
              <quality>2.2305069491267204e-002</quality>
              <le>1.4478230476379395e-001</le></_></splits></_>
        <_>
          <depth>5</depth>
          <value>-4.9376703464895522e-001</value></_>
        <_>
          <depth>5</depth>
          <value>-9.2416522123980416e-001</value></_>
        <_>
          <depth>4</depth>
          <value>-7.8879053139846150e-003</value>
          <splits>
            <_><var>251</var>
              <quality>1.5358572127297521e-003</quality>
              <le>1.2073147296905518e-001</le></_></splits></_>
        <_>
          <depth>5</depth>
          <value>4.4598032932564169e-001</value></_>
        <_>
          <depth>5</depth>
          <value>-5.1452025453517136e-001</value></_>
        <_>
          <depth>2</depth>
          <value>-4.2779969351275983e-004</value>
          <splits>
            <_><var>184</var>
              <quality>7.8039447544142604e-004</quality>
              <le>4.5268837362527847e-002</le></_></splits></_>
        <_>
          <depth>3</depth>
          <value>-1.4073300588448623e-001</value>
          <splits>
            <_><var>324</var>
              <quality>7.1479980833828449e-003</quality>
              <in>
                2 3 4 5 6</in></_></splits></_>
        <_>
          <depth>4</depth>
          <value>-5.6944265719496490e-001</value>
          <splits>
            <_><var>94</var>
              <quality>6.7748026922345161e-003</quality>
              <le>5.8347139507532120e-002</le></_></splits></_>
        <_>
          <depth>5</depth>
          <value>-7.3563703681932358e-001</value></_>
        <_>
          <depth>5</depth>
          <value>-2.7122928160171084e-001</value></_>
        <_>
          <depth>4</depth>
          <value>2.5422630742114849e-001</value>
          <splits>
            <_><var>110</var>
              <quality>3.7318097893148661e-003</quality>
              <le>8.3819136023521423e-002</le></_></splits></_>
        <_>
          <depth>5</depth>
          <value>-5.0599498669192799e-001</value></_>
        <_>
          <depth>5</depth>
          <value>4.1875118256437177e-001</value></_>
        <_>
          <depth>3</depth>
          <value>6.4068837639480137e-003</value>
          <splits>
            <_><var>324</var>
              <quality>7.5198267586529255e-004</quality>
              <in>
                5 8 9</in></_></splits></_>
        <_>
          <depth>4</depth>
          <value>-3.3886292881090685e-002</value>
          <splits>
            <_><var>61</var>
              <quality>3.5915728658437729e-002</quality>
              <le>3.2556232064962387e-002</le></_></splits></_>
        <_>
          <depth>5</depth>
          <value>-5.9232682520543334e-001</value></_>
        <_>
          <depth>5</depth>
          <value>1.9194813889481788e-001</value></_>
        <_>
          <depth>4</depth>
          <value>2.9442509157311614e-002</value>
          <splits>
            <_><var>61</var>
              <quality>1.8693290650844574e-002</quality>
              <le>1.1036325991153717e-001</le></_></splits></_>
        <_>
          <depth>5</depth>
          <value>1.4905993117529134e-001</value></_>
        <_>
          <depth>5</depth>
          <value>-2.7988697840701848e-001</value></_></nodes></_>
    <_>
      <nodes>
        <_>
          <depth>0</depth>
          <value>1.7106985735540526e-002</value>
          <splits>
            <_><var>324</var>
              <quality>7.6900348067283630e-003</quality>
              <not_in>
                1 7</not_in></_></splits></_>
        <_>
          <depth>1</depth>
          <value>-7.5183479599560902e-003</value>
          <splits>
            <_><var>166</var>
              <quality>4.3757874518632889e-003</quality>
              <le>3.4946401137858629e-004</le></_></splits></_>
        <_>
          <depth>2</depth>
          <value>-6.0912920634276257e-001</value>
          <splits>
            <_><var>324</var>
              <quality>8.0964509397745132e-003</quality>
              <in>
                3 4 5 6 8 9</in></_></splits></_>
        <_>
          <depth>3</depth>
          <value>-9.2327110838996274e-001</value>
          <splits>
            <_><var>159</var>
              <quality>7.9464800655841827e-003</quality>
              <le>1.0547510534524918e-001</le></_></splits></_>
        <_>
          <depth>4</depth>
          <value>-9.7507729615776362e-001</value>
          <splits>
            <_><var>175</var>
              <quality>7.9240640625357628e-003</quality>
              <le>2.8746169805526733e-001</le></_></splits></_>
        <_>
          <depth>5</depth>
          <value>-9.8491718016810170e-001</value></_>
        <_>
          <depth>5</depth>
          <value>-4.7649659469825589e-001</value></_>
        <_>
          <depth>4</depth>
          <value>-3.0206604019678446e-001</value>
          <splits>
            <_><var>217</var>
              <quality>2.5144079700112343e-004</quality>
              <le>9.1240249574184418e-002</le></_></splits></_>
        <_>
          <depth>5</depth>
          <value>-9.1176442085457354e-001</value></_>
        <_>
          <depth>5</depth>
          <value>1.4468213808722519e-001</value></_>
        <_>
          <depth>3</depth>
          <value>3.9532615705432733e-001</value>
          <splits>
            <_><var>316</var>
              <quality>1.2149497633799911e-003</quality>
              <le>6.1880901921540499e-004</le></_></splits></_>
        <_>
          <depth>4</depth>
          <value>-7.0104146612016394e-001</value>
          <splits>
            <_><var>27</var>
              <quality>4.5909217442385852e-004</quality>
              <le>2.6357603073120117e-001</le></_></splits></_>
        <_>
          <depth>5</depth>
          <value>5.8070880009190684e-001</value></_>
        <_>
          <depth>5</depth>
          <value>-1.</value></_>
        <_>
          <depth>4</depth>
          <value>6.4722372199904721e-001</value>
          <splits>
            <_><var>206</var>
              <quality>1.0921952780336142e-003</quality>
              <le>2.4529460072517395e-001</le></_></splits></_>
        <_>
          <depth>5</depth>
          <value>6.8315274321468078e-001</value></_>
        <_>
          <depth>5</depth>
          <value>-1.</value></_>
        <_>
          <depth>2</depth>
          <value>6.2522377455647706e-004</value>
          <splits>
            <_><var>61</var>
              <quality>2.4299519136548042e-003</quality>
              <le>1.1040010303258896e-001</le></_></splits></_>
        <_>
          <depth>3</depth>
          <value>-3.9100277118261778e-002</value>
          <splits>
            <_><var>324</var>
              <quality>8.4937708452343941e-003</quality>
              <in>
                3 4 8 9</in></_></splits></_>
        <_>
          <depth>4</depth>
          <value>-1.6991603823336440e-001</value>
          <splits>
            <_><var>207</var>
              <quality>3.7751976400613785e-002</quality>
              <le>5.9183489531278610e-002</le></_></splits></_>
        <_>
          <depth>5</depth>
          <value>-5.0729404790608335e-001</value></_>
        <_>
          <depth>5</depth>
          <value>1.9616978815396360e-001</value></_>
        <_>
          <depth>4</depth>
          <value>6.5917450284275231e-002</value>
          <splits>
            <_><var>207</var>
              <quality>3.3676870167255402e-002</quality>
              <le>1.5936940908432007e-001</le></_></splits></_>
        <_>
          <depth>5</depth>
          <value>1.9494140998071099e-001</value></_>
        <_>
          <depth>5</depth>
          <value>-7.4617986910496847e-001</value></_>
        <_>
          <depth>3</depth>
          <value>7.0829426438791657e-002</value>
          <splits>
            <_><var>324</var>
              <quality>2.6179157197475433e-002</quality>
              <in>
                0 2 6</in></_></splits></_>
        <_>
          <depth>4</depth>
          <value>-4.5277253385509170e-001</value>
          <splits>
            <_><var>292</var>
              <quality>3.2487399876117706e-002</quality>
              <le>1.6407871246337891e-001</le></_></splits></_>
        <_>
          <depth>5</depth>
          <value>-8.1775216112262772e-001</value></_>
        <_>
          <depth>5</depth>
          <value>2.6029806300933067e-001</value></_>
        <_>
          <depth>4</depth>
          <value>2.2006463309086818e-001</value>
          <splits>
            <_><var>324</var>
              <quality>1.4995700679719448e-002</quality>
              <not_in>
                3 4 8</not_in></_></splits></_>
        <_>
          <depth>5</depth>
          <value>8.2016499260900017e-002</value></_>
        <_>
          <depth>5</depth>
          <value>3.1264665359905242e-001</value></_>
        <_>
          <depth>1</depth>
          <value>3.3334571306929739e-001</value>
          <splits>
            <_><var>184</var>
              <quality>8.9592179283499718e-003</quality>
              <le>4.5791514217853546e-002</le></_></splits></_>
        <_>
          <depth>2</depth>
          <value>2.3157924055266649e-001</value>
          <splits>
            <_><var>110</var>
              <quality>2.8719722758978605e-003</quality>
              <le>1.6924154758453369e-001</le></_></splits></_>
        <_>
          <depth>3</depth>
          <value>2.6753647610524489e-001</value>
          <splits>
            <_><var>192</var>
              <quality>3.0930603388696909e-003</quality>
              <le>1.3078966736793518e-001</le></_></splits></_>
        <_>
          <depth>4</depth>
          <value>2.8543976539979921e-001</value>
          <splits>
            <_><var>324</var>
              <quality>3.3101346343755722e-003</quality>
              <not_in>
                1</not_in></_></splits></_>
        <_>
          <depth>5</depth>
          <value>2.0820891993641413e-001</value></_>
        <_>
          <depth>5</depth>
          <value>3.6323297615038314e-001</value></_>
        <_>
          <depth>4</depth>
          <value>-7.1647032486432088e-002</value>
          <splits>
            <_><var>172</var>
              <quality>1.4897396613378078e-004</quality>
              <le>2.8519695997238159e-001</le></_></splits></_>
        <_>
          <depth>5</depth>
          <value>-6.6275907984471327e-001</value></_>
        <_>
          <depth>5</depth>
          <value>4.5858821012901875e-002</value></_>
        <_>
          <depth>3</depth>
          <value>-6.5714500626177133e-002</value>
          <splits>
            <_><var>49</var>
              <quality>5.7844928232952952e-004</quality>
              <le>4.0241450071334839e-002</le></_></splits></_>
        <_>
          <depth>4</depth>
          <value>-2.9977717389899294e-001</value>
          <splits>
            <_><var>175</var>
              <quality>8.4468477871268988e-004</quality>
              <le>2.8116963803768158e-002</le></_></splits></_>
        <_>
          <depth>5</depth>
          <value>5.2858979280960568e-002</value></_>
        <_>
          <depth>5</depth>
          <value>-7.7744114505005735e-001</value></_>
        <_>
          <depth>4</depth>
          <value>4.2878686107338437e-001</value>
          <splits>
            <_><var>324</var>
              <quality>1.0024127550423145e-003</quality>
              <in>
                1</in></_></splits></_>
        <_>
          <depth>5</depth>
          <value>-8.4323083738193827e-001</value></_>
        <_>
          <depth>5</depth>
          <value>7.9337998152160794e-001</value></_>
        <_>
          <depth>2</depth>
          <value>5.2186688477756171e-001</value>
          <splits>
            <_><var>291</var>
              <quality>7.1386969648301601e-003</quality>
              <le>1.1240969598293304e-001</le></_></splits></_>
        <_>
          <depth>3</depth>
          <value>3.3801243071868242e-001</value>
          <splits>
            <_><var>68</var>
              <quality>1.9139959476888180e-003</quality>
              <le>2.3587596416473389e-001</le></_></splits></_>
        <_>
          <depth>4</depth>
          <value>4.3814035283932617e-001</value>
          <splits>
            <_><var>69</var>
              <quality>2.0574778318405151e-003</quality>
              <le>2.9177603125572205e-001</le></_></splits></_>
        <_>
          <depth>5</depth>
          <value>4.8979750641770597e-001</value></_>
        <_>
          <depth>5</depth>
          <value>-3.5795143903622562e-001</value></_>
        <_>
          <depth>4</depth>
          <value>-4.3942223391571089e-001</value>
          <splits>
            <_><var>14</var>
              <quality>5.2371720084920526e-004</quality>
              <le>4.6207332052290440e-003</le></_></splits></_>
        <_>
          <depth>5</depth>
          <value>-9.1600786228380626e-001</value></_>
        <_>
          <depth>5</depth>
          <value>1.2203826744427457e-001</value></_>
        <_>
          <depth>3</depth>
          <value>6.5141947940236333e-001</value>
          <splits>
            <_><var>118</var>
              <quality>6.4434548839926720e-003</quality>
              <le>3.0731445550918579e-001</le></_></splits></_>
        <_>
          <depth>4</depth>
          <value>7.0338619812514835e-001</value>
          <splits>
            <_><var>317</var>
              <quality>6.8568517453968525e-003</quality>
              <le>2.3052650690078735e-001</le></_></splits></_>
        <_>
          <depth>5</depth>
          <value>7.3206267355257271e-001</value></_>
        <_>
          <depth>5</depth>
          <value>-4.1099331490863061e-001</value></_>
        <_>
          <depth>4</depth>
          <value>4.8349739185405777e-002</value>
          <splits>
            <_><var>158</var>
              <quality>4.4120853999629617e-004</quality>
              <le>5.8550760149955750e-002</le></_></splits></_>
        <_>
          <depth>5</depth>
          <value>4.2128770998668807e-001</value></_>
        <_>
          <depth>5</depth>
          <value>-1.</value></_></nodes></_>
    <_>
      <nodes>
        <_>
          <depth>0</depth>
          <value>-3.9358719596626034e-002</value>
          <splits>
            <_><var>324</var>
              <quality>4.9611092545092106e-003</quality>
              <not_in>
                3</not_in></_></splits></_>
        <_>
          <depth>1</depth>
          <value>-6.3383892682946821e-002</value>
          <splits>
            <_><var>22</var>
              <quality>1.4600508846342564e-002</quality>
              <le>2.8104859590530396e-001</le></_></splits></_>
        <_>
          <depth>2</depth>
          <value>-1.7079058640470234e-003</value>
          <splits>
            <_><var>324</var>
              <quality>9.4983074814081192e-003</quality>
              <in>
                2 7 8</in></_></splits></_>
        <_>
          <depth>3</depth>
          <value>-1.9519864329942796e-001</value>
          <splits>
            <_><var>92</var>
              <quality>4.1428491473197937e-002</quality>
              <le>2.4130281805992126e-001</le></_></splits></_>
        <_>
          <depth>4</depth>
          <value>-6.0234012202995035e-001</value>
          <splits>
            <_><var>33</var>
              <quality>4.1700474917888641e-002</quality>
              <le>4.2873486876487732e-002</le></_></splits></_>
        <_>
          <depth>5</depth>
          <value>-7.9249508774578581e-001</value></_>
        <_>
          <depth>5</depth>
          <value>-2.5297029481128347e-001</value></_>
        <_>
          <depth>4</depth>
          <value>2.6950110111471492e-001</value>
          <splits>
            <_><var>28</var>
              <quality>1.8421979621052742e-002</quality>
              <le>4.9356281757354736e-001</le></_></splits></_>
        <_>
          <depth>5</depth>
          <value>4.3537549295275435e-001</value></_>
        <_>
          <depth>5</depth>
          <value>-5.9745452641950536e-001</value></_>
        <_>
          <depth>3</depth>
          <value>7.4080041824371390e-002</value>
          <splits>
            <_><var>55</var>
              <quality>1.8947120755910873e-002</quality>
              <le>2.5009551644325256e-001</le></_></splits></_>
        <_>
          <depth>4</depth>
          <value>-2.4052024875094652e-001</value>
          <splits>
            <_><var>65</var>
              <quality>2.1543433889746666e-002</quality>
              <le>2.0459038019180298e-001</le></_></splits></_>
        <_>
          <depth>5</depth>
          <value>7.5363143808284488e-002</value></_>
        <_>
          <depth>5</depth>
          <value>-6.1569974372746405e-001</value></_>
        <_>
          <depth>4</depth>
          <value>1.8606359926487631e-001</value>
          <splits>
            <_><var>61</var>
              <quality>1.5218028798699379e-002</quality>
              <le>3.2556232064962387e-002</le></_></splits></_>
        <_>
          <depth>5</depth>
          <value>2.8517324836654462e-001</value></_>
        <_>
          <depth>5</depth>
          <value>8.7935183673203188e-002</value></_>
        <_>
          <depth>2</depth>
          <value>-2.8390525400959277e-001</value>
          <splits>
            <_><var>324</var>
              <quality>4.9161124974489212e-002</quality>
              <not_in>
                2 3 7</not_in></_></splits></_>
        <_>
          <depth>3</depth>
          <value>-5.5682417159112241e-001</value>
          <splits>
            <_><var>36</var>
              <quality>5.1948275417089462e-002</quality>
              <le>1.3312411308288574e-001</le></_></splits></_>
        <_>
          <depth>4</depth>
          <value>-7.6086358713188895e-001</value>
          <splits>
            <_><var>34</var>
              <quality>5.6637834757566452e-002</quality>
              <le>2.8157442808151245e-001</le></_></splits></_>
        <_>
          <depth>5</depth>
          <value>-8.6884429324423640e-001</value></_>
        <_>
          <depth>5</depth>
          <value>-2.0633551453668092e-001</value></_>
        <_>
          <depth>4</depth>
          <value>-1.2202072925076088e-001</value>
          <splits>
            <_><var>324</var>
              <quality>8.3606094121932983e-003</quality>
              <in>
                1 6 8</in></_></splits></_>
        <_>
          <depth>5</depth>
          <value>-7.7960076176819426e-001</value></_>
        <_>
          <depth>5</depth>
          <value>1.6091420147293670e-001</value></_>
        <_>
          <depth>3</depth>
          <value>4.1530314150589503e-001</value>
          <splits>
            <_><var>268</var>
              <quality>1.6302086412906647e-002</quality>
              <le>1.8129676580429077e-001</le></_></splits></_>
        <_>
          <depth>4</depth>
          <value>6.4469984762502297e-001</value>
          <splits>
            <_><var>276</var>
              <quality>1.7232380807399750e-002</quality>
              <le>1.4642298221588135e-001</le></_></splits></_>
        <_>
          <depth>5</depth>
          <value>7.0179533053381771e-001</value></_>
        <_>
          <depth>5</depth>
          <value>-1.1992583079023188e-001</value></_>
        <_>
          <depth>4</depth>
          <value>-2.3041850998333302e-001</value>
          <splits>
            <_><var>299</var>
              <quality>6.1436179094016552e-003</quality>
              <le>2.4424079060554504e-001</le></_></splits></_>
        <_>
          <depth>5</depth>
          <value>5.6328886243511556e-001</value></_>
        <_>
          <depth>5</depth>
          <value>-7.4424808319220070e-001</value></_>
        <_>
          <depth>1</depth>
          <value>1.1101423264533510e-001</value>
          <splits>
            <_><var>31</var>
              <quality>5.7118479162454605e-002</quality>
              <le>2.4475060403347015e-001</le></_></splits></_>
        <_>
          <depth>2</depth>
          <value>-7.8431522218477168e-001</value>
          <splits>
            <_><var>40</var>
              <quality>3.0916651710867882e-002</quality>
              <le>5.1443658769130707e-002</le></_></splits></_>
        <_>
          <depth>3</depth>
          <value>-8.5598893486674432e-001</value>
          <splits>
            <_><var>32</var>
              <quality>3.2949928194284439e-002</quality>
              <le>1.2811554968357086e-001</le></_></splits></_>
        <_>
          <depth>4</depth>
          <value>-9.1604034529422407e-001</value>
          <splits>
            <_><var>24</var>
              <quality>3.3511266112327576e-002</quality>
              <le>2.3068980872631073e-001</le></_></splits></_>
        <_>
          <depth>5</depth>
          <value>-9.3064640381465968e-001</value></_>
        <_>
          <depth>5</depth>
          <value>6.8040182926644183e-002</value></_>
        <_>
          <depth>4</depth>
          <value>-3.2443953597887043e-002</value>
          <splits>
            <_><var>9</var>
              <quality>1.0591491591185331e-003</quality>
              <le>5.4143164306879044e-002</le></_></splits></_>
        <_>
          <depth>5</depth>
          <value>5.4575859529747550e-001</value></_>
        <_>
          <depth>5</depth>
          <value>-6.7044035580071082e-001</value></_>
        <_>
          <depth>3</depth>
          <value>1.2264568280307635e-001</value>
          <splits>
            <_><var>299</var>
              <quality>1.2495106784626842e-003</quality>
              <le>2.5089168548583984e-001</le></_></splits></_>
        <_>
          <depth>4</depth>
          <value>-8.3888997411508004e-001</value>
          <splits>
            <_><var>165</var>
              <quality>7.6303374953567982e-004</quality>
              <le>2.8467077016830444e-001</le></_></splits></_>
        <_>
          <depth>5</depth>
          <value>-9.4702304209318833e-001</value></_>
        <_>
          <depth>5</depth>
          <value>2.1194294645764356e-001</value></_>
        <_>
          <depth>4</depth>
          <value>4.9734921749494454e-001</value>
          <splits>
            <_><var>233</var>
              <quality>1.3174006016924977e-003</quality>
              <le>1.1111383885145187e-001</le></_></splits></_>
        <_>
          <depth>5</depth>
          <value>-7.7269547997144850e-001</value></_>
        <_>
          <depth>5</depth>
          <value>7.3559364061796673e-001</value></_>
        <_>
          <depth>2</depth>
          <value>5.7908080104322679e-001</value>
          <splits>
            <_><var>299</var>
              <quality>5.2301686257123947e-002</quality>
              <le>2.3542603850364685e-001</le></_></splits></_>
        <_>
          <depth>3</depth>
          <value>-6.8588163338566310e-001</value>
          <splits>
            <_><var>172</var>
              <quality>7.1908812969923019e-003</quality>
              <le>5.2469126880168915e-002</le></_></splits></_>
        <_>
          <depth>4</depth>
          <value>2.6978710849514149e-002</value>
          <splits>
            <_><var>211</var>
              <quality>9.9733495153486729e-004</quality>
              <le>2.5775063037872314e-001</le></_></splits></_>
        <_>
          <depth>5</depth>
          <value>-8.7756503809177366e-001</value></_>
        <_>
          <depth>5</depth>
          <value>5.2802459516066691e-001</value></_>
        <_>
          <depth>4</depth>
          <value>-8.3936299478843934e-001</value>
          <splits>
            <_><var>85</var>
              <quality>7.4218092486262321e-003</quality>
              <le>3.0360686779022217e-001</le></_></splits></_>
        <_>
          <depth>5</depth>
          <value>-8.7745281305950040e-001</value></_>
        <_>
          <depth>5</depth>
          <value>-2.4111860783872618e-001</value></_>
        <_>
          <depth>3</depth>
          <value>7.8951709940669568e-001</value>
          <splits>
            <_><var>225</var>
              <quality>5.3234487771987915e-002</quality>
              <le>7.9745866358280182e-002</le></_></splits></_>
        <_>
          <depth>4</depth>
          <value>-4.4604291276948244e-001</value>
          <splits>
            <_><var>226</var>
              <quality>1.8660724163055420e-003</quality>
              <le>8.1647500395774841e-002</le></_></splits></_>
        <_>
          <depth>5</depth>
          <value>-7.6953091774496762e-001</value></_>
        <_>
          <depth>5</depth>
          <value>3.1771582678571292e-001</value></_>
        <_>
          <depth>4</depth>
          <value>8.6298442138292042e-001</value>
          <splits>
            <_><var>268</var>
              <quality>5.6521460413932800e-002</quality>
              <le>2.4987993761897087e-002</le></_></splits></_>
        <_>
          <depth>5</depth>
          <value>-3.9753555288344106e-001</value></_>
        <_>
          <depth>5</depth>
          <value>9.0942925088821913e-001</value></_></nodes></_>
    <_>
      <nodes>
        <_>
          <depth>0</depth>
          <value>-2.4807040615388094e-002</value>
          <splits>
            <_><var>324</var>
              <quality>4.8327636905014515e-003</quality>
              <not_in>
                3 8</not_in></_></splits></_>
        <_>
          <depth>1</depth>
          <value>-5.7834731866282789e-002</value>
          <splits>
            <_><var>207</var>
              <quality>1.0012404993176460e-002</quality>
              <le>2.5294438004493713e-001</le></_></splits></_>
        <_>
          <depth>2</depth>
          <value>-1.0985803019088602e-001</value>
          <splits>
            <_><var>324</var>
              <quality>2.6217650622129440e-002</quality>
              <in>
                4 7 9</in></_></splits></_>
        <_>
          <depth>3</depth>
          <value>-3.7776590790956072e-001</value>
          <splits>
            <_><var>193</var>
              <quality>7.8800499439239502e-002</quality>
              <le>2.1593961119651794e-001</le></_></splits></_>
        <_>
          <depth>4</depth>
          <value>2.2110001696320711e-001</value>
          <splits>
            <_><var>195</var>
              <quality>1.5901032835245132e-002</quality>
              <le>1.0887813568115234e-001</le></_></splits></_>
        <_>
          <depth>5</depth>
          <value>3.7933803351400786e-001</value></_>
        <_>
          <depth>5</depth>
          <value>-7.0256294452865031e-001</value></_>
        <_>
          <depth>4</depth>
          <value>-8.5655786609987383e-001</value>
          <splits>
            <_><var>244</var>
              <quality>7.7821448445320129e-002</quality>
              <le>3.0364078283309937e-001</le></_></splits></_>
        <_>
          <depth>5</depth>
          <value>-8.9051713621878592e-001</value></_>
        <_>
          <depth>5</depth>
          <value>1.1610026700923915e-002</value></_>
        <_>
          <depth>3</depth>
          <value>8.7072933415372547e-003</value>
          <splits>
            <_><var>244</var>
              <quality>1.7979850992560387e-002</quality>
              <le>1.1786901205778122e-001</le></_></splits></_>
        <_>
          <depth>4</depth>
          <value>1.2687188926252616e-001</value>
          <splits>
            <_><var>225</var>
              <quality>1.0928312316536903e-002</quality>
              <le>2.0049485564231873e-001</le></_></splits></_>
        <_>
          <depth>5</depth>
          <value>2.3807134573302735e-001</value></_>
        <_>
          <depth>5</depth>
          <value>-4.1854410872301809e-002</value></_>
        <_>
          <depth>4</depth>
          <value>-3.5763221409498269e-001</value>
          <splits>
            <_><var>62</var>
              <quality>2.1413462236523628e-002</quality>
              <le>5.8419913053512573e-002</le></_></splits></_>
        <_>
          <depth>5</depth>
          <value>2.6926637279303636e-002</value></_>
        <_>
          <depth>5</depth>
          <value>-5.7569570044100371e-001</value></_>
        <_>
          <depth>2</depth>
          <value>1.2979413075136964e-001</value>
          <splits>
            <_><var>324</var>
              <quality>3.6248914897441864e-002</quality>
              <in>
                0 1 2 5 6</in></_></splits></_>
        <_>
          <depth>3</depth>
          <value>-5.2767169665231139e-001</value>
          <splits>
            <_><var>270</var>
              <quality>3.0902152881026268e-002</quality>
              <le>5.3052350878715515e-002</le></_></splits></_>
        <_>
          <depth>4</depth>
          <value>4.6044784080316314e-001</value>
          <splits>
            <_><var>174</var>
              <quality>5.9684929437935352e-003</quality>
              <le>4.3397329747676849e-002</le></_></splits></_>
        <_>
          <depth>5</depth>
          <value>7.4212544287041371e-001</value></_>
        <_>
          <depth>5</depth>
          <value>-4.6476030901549786e-001</value></_>
        <_>
          <depth>4</depth>
          <value>-8.3854119669899174e-001</value>
          <splits>
            <_><var>9</var>
              <quality>3.1237257644534111e-002</quality>
              <le>3.3739739592419937e-005</le></_></splits></_>
        <_>
          <depth>5</depth>
          <value>2.7823496336145981e-001</value></_>
        <_>
          <depth>5</depth>
          <value>-9.0574256370728179e-001</value></_>
        <_>
          <depth>3</depth>
          <value>4.3662711595462822e-001</value>
          <splits>
            <_><var>36</var>
              <quality>2.9646538197994232e-002</quality>
              <le>4.2532440274953842e-003</le></_></splits></_>
        <_>
          <depth>4</depth>
          <value>-7.6744097078284612e-001</value>
          <splits>
            <_><var>157</var>
              <quality>3.7555398885160685e-003</quality>
              <le>2.6839531958103180e-002</le></_></splits></_>
        <_>
          <depth>5</depth>
          <value>-9.6950424158244597e-001</value></_>
        <_>
          <depth>5</depth>
          <value>-1.8728293582437924e-001</value></_>
        <_>
          <depth>4</depth>
          <value>4.9605257282388227e-001</value>
          <splits>
            <_><var>89</var>
              <quality>2.8461562469601631e-002</quality>
              <le>8.3405211567878723e-002</le></_></splits></_>
        <_>
          <depth>5</depth>
          <value>5.1523075073279212e-001</value></_>
        <_>
          <depth>5</depth>
          <value>-4.4619269120221106e-001</value></_>
        <_>
          <depth>1</depth>
          <value>1.1051969518829215e-001</value>
          <splits>
            <_><var>193</var>
              <quality>2.6677586138248444e-002</quality>
              <le>1.2131933867931366e-001</le></_></splits></_>
        <_>
          <depth>2</depth>
          <value>-5.9032588113246698e-001</value>
          <splits>
            <_><var>195</var>
              <quality>2.3895058780908585e-002</quality>
              <le>1.3142263889312744e-001</le></_></splits></_>
        <_>
          <depth>3</depth>
          <value>-8.1886552613027208e-001</value>
          <splits>
            <_><var>177</var>
              <quality>2.3576637730002403e-002</quality>
              <le>2.2066566348075867e-001</le></_></splits></_>
        <_>
          <depth>4</depth>
          <value>-8.9043017709570293e-001</value>
          <splits>
            <_><var>192</var>
              <quality>2.4666862562298775e-002</quality>
              <le>1.7175395786762238e-001</le></_></splits></_>
        <_>
          <depth>5</depth>
          <value>-9.3051709784470493e-001</value></_>
        <_>
          <depth>5</depth>
          <value>5.4248231939574267e-002</value></_>
        <_>
          <depth>4</depth>
          <value>-1.0706298668812045e-001</value>
          <splits>
            <_><var>112</var>
              <quality>6.8900396581739187e-004</quality>
              <le>2.3598177731037140e-001</le></_></splits></_>
        <_>
          <depth>5</depth>
          <value>-6.1254458938645950e-001</value></_>
        <_>
          <depth>5</depth>
          <value>3.2685024436632049e-001</value></_>
        <_>
          <depth>3</depth>
          <value>5.5034794617436544e-001</value>
          <splits>
            <_><var>324</var>
              <quality>3.5437508486211300e-003</quality>
              <in>
                3</in></_></splits></_>
        <_>
          <depth>4</depth>
          <value>-5.0492927134012489e-001</value>
          <splits>
            <_><var>13</var>
              <quality>7.5940927490592003e-004</quality>
              <le>1.9768589735031128e-001</le></_></splits></_>
        <_>
          <depth>5</depth>
          <value>-8.9540575827769131e-001</value></_>
        <_>
          <depth>5</depth>
          <value>5.2687677564905588e-001</value></_>
        <_>
          <depth>4</depth>
          <value>7.7623849517795462e-001</value>
          <splits>
            <_><var>295</var>
              <quality>3.7617518100887537e-003</quality>
              <le>7.3012948036193848e-002</le></_></splits></_>
        <_>
          <depth>5</depth>
          <value>-2.7087840227667292e-001</value></_>
        <_>
          <depth>5</depth>
          <value>8.6696280576965690e-001</value></_>
        <_>
          <depth>2</depth>
          <value>2.9724582887367867e-001</value>
          <splits>
            <_><var>164</var>
              <quality>2.7727864682674408e-002</quality>
              <le>1.3226997852325439e-001</le></_></splits></_>
        <_>
          <depth>3</depth>
          <value>-3.4781503884860093e-001</value>
          <splits>
            <_><var>233</var>
              <quality>6.4631924033164978e-003</quality>
              <le>1.5998539328575134e-001</le></_></splits></_>
        <_>
          <depth>4</depth>
          <value>-7.9042786264216625e-001</value>
          <splits>
            <_><var>282</var>
              <quality>7.0077790878713131e-003</quality>
              <le>3.2706536352634430e-002</le></_></splits></_>
        <_>
          <depth>5</depth>
          <value>-9.0871449532189796e-001</value></_>
        <_>
          <depth>5</depth>
          <value>-1.4277825614536166e-001</value></_>
        <_>
          <depth>4</depth>
          <value>-1.0916622659448899e-001</value>
          <splits>
            <_><var>258</var>
              <quality>3.0355872586369514e-003</quality>
              <le>9.9748015403747559e-002</le></_></splits></_>
        <_>
          <depth>5</depth>
          <value>-6.5754276008121015e-001</value></_>
        <_>
          <depth>5</depth>
          <value>1.6782916194030109e-001</value></_>
        <_>
          <depth>3</depth>
          <value>4.5223969171212297e-001</value>
          <splits>
            <_><var>310</var>
              <quality>3.1384944915771484e-002</quality>
              <le>8.9731723070144653e-002</le></_></splits></_>
        <_>
          <depth>4</depth>
          <value>5.2974594782005635e-001</value>
          <splits>
            <_><var>222</var>
              <quality>3.5005122423171997e-002</quality>
              <le>1.4766999520361423e-002</le></_></splits></_>
        <_>
          <depth>5</depth>
          <value>-2.6385433977626060e-001</value></_>
        <_>
          <depth>5</depth>
          <value>5.8500001624775322e-001</value></_>
        <_>
          <depth>4</depth>
          <value>-3.2029289039603648e-001</value>
          <splits>
            <_><var>172</var>
              <quality>4.0792659856379032e-003</quality>
              <le>2.3163813352584839e-001</le></_></splits></_>
        <_>
          <depth>5</depth>
          <value>1.8796223329703596e-001</value></_>
        <_>
          <depth>5</depth>
          <value>-8.5999470732480277e-001</value></_></nodes></_>
    <_>
      <nodes>
        <_>
          <depth>0</depth>
          <value>-5.3021449839750601e-002</value>
          <splits>
            <_><var>55</var>
              <quality>6.0736648738384247e-003</quality>
              <le>2.4973754584789276e-001</le></_></splits></_>
        <_>
          <depth>1</depth>
          <value>2.3386689254289921e-002</value>
          <splits>
            <_><var>324</var>
              <quality>1.7771322280168533e-002</quality>
              <in>
                0 6 7 9</in></_></splits></_>
        <_>
          <depth>2</depth>
          <value>-3.1358147044840479e-001</value>
          <splits>
            <_><var>249</var>
              <quality>2.1916192024946213e-002</quality>
              <le>1.9700093567371368e-001</le></_></splits></_>
        <_>
          <depth>3</depth>
          <value>-5.0904688891474248e-001</value>
          <splits>
            <_><var>87</var>
              <quality>2.5384940207004547e-002</quality>
              <le>2.7816902846097946e-002</le></_></splits></_>
        <_>
          <depth>4</depth>
          <value>-2.7957661529231320e-001</value>
          <splits>
            <_><var>230</var>
              <quality>6.5326048061251640e-003</quality>
              <le>6.4520984888076782e-002</le></_></splits></_>
        <_>
          <depth>5</depth>
          <value>-6.3011568305796173e-001</value></_>
        <_>
          <depth>5</depth>
          <value>-6.5214003355046818e-002</value></_>
        <_>
          <depth>4</depth>
          <value>-7.7609950359365432e-001</value>
          <splits>
            <_><var>278</var>
              <quality>2.3978000506758690e-002</quality>
              <le>2.7903509140014648e-001</le></_></splits></_>
        <_>
          <depth>5</depth>
          <value>-8.3534318377829608e-001</value></_>
        <_>
          <depth>5</depth>
          <value>1.1073284781205341e-001</value></_>
        <_>
          <depth>3</depth>
          <value>2.1818189049994444e-001</value>
          <splits>
            <_><var>294</var>
              <quality>3.7702934350818396e-003</quality>
              <le>1.5486052632331848e-001</le></_></splits></_>
        <_>
          <depth>4</depth>
          <value>3.1313831852689672e-001</value>
          <splits>
            <_><var>82</var>
              <quality>3.7558069452643394e-003</quality>
              <le>1.0379200102761388e-003</le></_></splits></_>
        <_>
          <depth>5</depth>
          <value>4.4854512458404094e-001</value></_>
        <_>
          <depth>5</depth>
          <value>-2.0059777016218246e-002</value></_>
        <_>
          <depth>4</depth>
          <value>-6.4391626829358362e-001</value>
          <splits>
            <_><var>96</var>
              <quality>1.8069491488859057e-003</quality>
              <le>3.7385180592536926e-001</le></_></splits></_>
        <_>
          <depth>5</depth>
          <value>-8.9062814117845046e-001</value></_>
        <_>
          <depth>5</depth>
          <value>2.1027884965134058e-001</value></_>
        <_>
          <depth>2</depth>
          <value>1.6775853056336182e-001</value>
          <splits>
            <_><var>324</var>
              <quality>1.2800932861864567e-002</quality>
              <not_in>
                2</not_in></_></splits></_>
        <_>
          <depth>3</depth>
          <value>8.2629520163263304e-002</value>
          <splits>
            <_><var>251</var>
              <quality>9.5024490728974342e-003</quality>
              <le>1.2356799840927124e-001</le></_></splits></_>
        <_>
          <depth>4</depth>
          <value>3.1695188436762645e-001</value>
          <splits>
            <_><var>324</var>
              <quality>1.3237118721008301e-002</quality>
              <not_in>
                1 5</not_in></_></splits></_>
        <_>
          <depth>5</depth>
          <value>7.7068838647029569e-002</value></_>
        <_>
          <depth>5</depth>
          <value>5.5637010825777300e-001</value></_>
        <_>
          <depth>4</depth>
          <value>-1.0029592786102137e-001</value>
          <splits>
            <_><var>324</var>
              <quality>8.7182950228452682e-003</quality>
              <in>
                1 5</in></_></splits></_>
        <_>
          <depth>5</depth>
          <value>-5.9593678262132344e-001</value></_>
        <_>
          <depth>5</depth>
          <value>4.3198966182906647e-002</value></_>
        <_>
          <depth>3</depth>
          <value>4.3177962452254010e-001</value>
          <splits>
            <_><var>319</var>
              <quality>2.4802273139357567e-002</quality>
              <le>3.9301604032516479e-002</le></_></splits></_>
        <_>
          <depth>4</depth>
          <value>-1.7831514113319771e-001</value>
          <splits>
            <_><var>47</var>
              <quality>5.3189056925475597e-003</quality>
              <le>1.7136183381080627e-001</le></_></splits></_>
        <_>
          <depth>5</depth>
          <value>-5.5563863864311525e-001</value></_>
        <_>
          <depth>5</depth>
          <value>3.6033302399875677e-001</value></_>
        <_>
          <depth>4</depth>
          <value>7.8552210371895925e-001</value>
          <splits>
            <_><var>172</var>
              <quality>2.8702737763524055e-002</quality>
              <le>4.6410582959651947e-002</le></_></splits></_>
        <_>
          <depth>5</depth>
          <value>-3.7623847524196191e-001</value></_>
        <_>
          <depth>5</depth>
          <value>8.8741334769070268e-001</value></_>
        <_>
          <depth>1</depth>
          <value>-9.9901738510837751e-002</value>
          <splits>
            <_><var>324</var>
              <quality>1.6795324161648750e-002</quality>
              <in>
                2 3 7</in></_></splits></_>
        <_>
          <depth>2</depth>
          <value>-4.0668407528948980e-001</value>
          <splits>
            <_><var>58</var>
              <quality>3.2867271453142166e-002</quality>
              <le>1.5366834402084351e-001</le></_></splits></_>
        <_>
          <depth>3</depth>
          <value>-7.4208225952800988e-001</value>
          <splits>
            <_><var>319</var>
              <quality>3.5025462508201599e-002</quality>
              <le>1.7684909701347351e-001</le></_></splits></_>
        <_>
          <depth>4</depth>
          <value>-7.8963893374834271e-001</value>
          <splits>
            <_><var>193</var>
              <quality>3.6788463592529297e-002</quality>
              <le>2.6078348979353905e-002</le></_></splits></_>
        <_>
          <depth>5</depth>
          <value>5.2430487340104567e-002</value></_>
        <_>
          <depth>5</depth>
          <value>-8.2938307835700564e-001</value></_>
        <_>
          <depth>4</depth>
          <value>1.9794628165491060e-001</value>
          <splits>
            <_><var>277</var>
              <quality>9.0269820066168904e-004</quality>
              <le>2.8954260051250458e-002</le></_></splits></_>
        <_>
          <depth>5</depth>
          <value>4.7838228505041230e-001</value></_>
        <_>
          <depth>5</depth>
          <value>-7.9862534442547006e-001</value></_>
        <_>
          <depth>3</depth>
          <value>1.1127547777002382e-001</value>
          <splits>
            <_><var>51</var>
              <quality>6.0533480718731880e-003</quality>
              <le>4.9127869307994843e-002</le></_></splits></_>
        <_>
          <depth>4</depth>
          <value>3.5541351243856123e-001</value>
          <splits>
            <_><var>132</var>
              <quality>5.3881043568253517e-003</quality>
              <le>2.1581485867500305e-002</le></_></splits></_>
        <_>
          <depth>5</depth>
          <value>-3.9283223178813864e-001</value></_>
        <_>
          <depth>5</depth>
          <value>4.5252492781803239e-001</value></_>
        <_>
          <depth>4</depth>
          <value>-4.8890522339834797e-001</value>
          <splits>
            <_><var>28</var>
              <quality>4.0935394354164600e-003</quality>
              <le>2.9479140043258667e-001</le></_></splits></_>
        <_>
          <depth>5</depth>
          <value>3.2252417154141821e-001</value></_>
        <_>
          <depth>5</depth>
          <value>-6.5233583714970889e-001</value></_>
        <_>
          <depth>2</depth>
          <value>-3.9448515868381544e-002</value>
          <splits>
            <_><var>40</var>
              <quality>5.7378886267542839e-003</quality>
              <le>7.7604100108146667e-002</le></_></splits></_>
        <_>
          <depth>3</depth>
          <value>-2.0178956141926972e-002</value>
          <splits>
            <_><var>324</var>
              <quality>2.4006296880543232e-003</quality>
              <in>
                1 4 5 8</in></_></splits></_>
        <_>
          <depth>4</depth>
          <value>-9.1654271844803306e-002</value>
          <splits>
            <_><var>231</var>
              <quality>3.2098960131406784e-002</quality>
              <le>1.0144506394863129e-001</le></_></splits></_>
        <_>
          <depth>5</depth>
          <value>2.8499921689155527e-001</value></_>
        <_>
          <depth>5</depth>
          <value>-4.4621288162331568e-001</value></_>
        <_>
          <depth>4</depth>
          <value>4.4919653931571032e-002</value>
          <splits>
            <_><var>49</var>
              <quality>2.1756047382950783e-002</quality>
              <le>4.0652178227901459e-002</le></_></splits></_>
        <_>
          <depth>5</depth>
          <value>1.8271802554444252e-001</value></_>
        <_>
          <depth>5</depth>
          <value>-5.7633099557605927e-001</value></_>
        <_>
          <depth>3</depth>
          <value>-5.6410357868904026e-001</value>
          <splits>
            <_><var>233</var>
              <quality>7.1488441899418831e-003</quality>
              <le>2.3576596379280090e-001</le></_></splits></_>
        <_>
          <depth>4</depth>
          <value>-1.7239943071103928e-001</value>
          <splits>
            <_><var>324</var>
              <quality>2.5115567259490490e-003</quality>
              <in>
                0 1 6 8 9</in></_></splits></_>
        <_>
          <depth>5</depth>
          <value>-7.1930391773355096e-001</value></_>
        <_>
          <depth>5</depth>
          <value>4.7605516663755248e-001</value></_>
        <_>
          <depth>4</depth>
          <value>-7.9913264162184017e-001</value>
          <splits>
            <_><var>112</var>
              <quality>7.7587566338479519e-003</quality>
              <le>1.9743505120277405e-001</le></_></splits></_>
        <_>
          <depth>5</depth>
          <value>-2.9710667114340283e-001</value></_>
        <_>
          <depth>5</depth>
          <value>-9.4621464460036353e-001</value></_></nodes></_>
    <_>
      <nodes>
        <_>
          <depth>0</depth>
          <value>-2.1631888307103237e-002</value>
          <splits>
            <_><var>49</var>
              <quality>5.4854373447597027e-003</quality>
              <le>4.0256835520267487e-002</le></_></splits></_>
        <_>
          <depth>1</depth>
          <value>-7.3659335176792670e-002</value>
          <splits>
            <_><var>324</var>
              <quality>1.6337003558874130e-002</quality>
              <in>
                3 4 5 7</in></_></splits></_>
        <_>
          <depth>2</depth>
          <value>-2.8301877144866611e-001</value>
          <splits>
            <_><var>67</var>
              <quality>3.3047381788492203e-002</quality>
              <le>1.3446173071861267e-001</le></_></splits></_>
        <_>
          <depth>3</depth>
          <value>-5.9194233338373980e-001</value>
          <splits>
            <_><var>72</var>
              <quality>4.0940321981906891e-002</quality>
              <le>3.1253337860107422e-002</le></_></splits></_>
        <_>
          <depth>4</depth>
          <value>-1.1419985019951114e-001</value>
          <splits>
            <_><var>90</var>
              <quality>3.3501249272376299e-003</quality>
              <le>3.0699282884597778e-001</le></_></splits></_>
        <_>
          <depth>5</depth>
          <value>2.3285346249441369e-001</value></_>
        <_>
          <depth>5</depth>
          <value>-4.5780005748554031e-001</value></_>
        <_>
          <depth>4</depth>
          <value>-7.6737630147609992e-001</value>
          <splits>
            <_><var>263</var>
              <quality>4.5071825385093689e-002</quality>
              <le>1.6499899327754974e-002</le></_></splits></_>
        <_>
          <depth>5</depth>
          <value>3.3653572001274135e-001</value></_>
        <_>
          <depth>5</depth>
          <value>-8.2598418080951830e-001</value></_>
        <_>
          <depth>3</depth>
          <value>-9.4436618478208247e-003</value>
          <splits>
            <_><var>108</var>
              <quality>1.1273957788944244e-002</quality>
              <le>2.1197954192757607e-002</le></_></splits></_>
        <_>
          <depth>4</depth>
          <value>-3.5743710054937761e-001</value>
          <splits>
            <_><var>267</var>
              <quality>1.2541885487735271e-002</quality>
              <le>8.1755779683589935e-002</le></_></splits></_>
        <_>
          <depth>5</depth>
          <value>-6.5807570087388534e-001</value></_>
        <_>
          <depth>5</depth>
          <value>5.7906631416758565e-002</value></_>
        <_>
          <depth>4</depth>
          <value>2.9458288828564000e-001</value>
          <splits>
            <_><var>69</var>
              <quality>7.8370356932282448e-003</quality>
              <le>6.0385055840015411e-002</le></_></splits></_>
        <_>
          <depth>5</depth>
          <value>-2.6713261625870122e-001</value></_>
        <_>
          <depth>5</depth>
          <value>3.8561943130498449e-001</value></_>
        <_>
          <depth>2</depth>
          <value>2.4466362916285740e-002</value>
          <splits>
            <_><var>222</var>
              <quality>8.3375209942460060e-003</quality>
              <le>1.3472139835357666e-001</le></_></splits></_>
        <_>
          <depth>3</depth>
          <value>-1.3693394584077925e-001</value>
          <splits>
            <_><var>324</var>
              <quality>4.0161974728107452e-002</quality>
              <in>
                0 2 9</in></_></splits></_>
        <_>
          <depth>4</depth>
          <value>-6.0937810033518447e-001</value>
          <splits>
            <_><var>120</var>
              <quality>4.1975636035203934e-002</quality>
              <le>1.4139027893543243e-001</le></_></splits></_>
        <_>
          <depth>5</depth>
          <value>-8.3806211020305144e-001</value></_>
        <_>
          <depth>5</depth>
          <value>-9.9316688634457681e-002</value></_>
        <_>
          <depth>4</depth>
          <value>2.9587379048179946e-001</value>
          <splits>
            <_><var>67</var>
              <quality>1.9046222791075706e-002</quality>
              <le>1.9098678231239319e-001</le></_></splits></_>
        <_>
          <depth>5</depth>
          <value>4.5154869090099414e-001</value></_>
        <_>
          <depth>5</depth>
          <value>-4.4478958706974392e-001</value></_>
        <_>
          <depth>3</depth>
          <value>1.4135857607152599e-001</value>
          <splits>
            <_><var>324</var>
              <quality>3.0751926824450493e-002</quality>
              <in>
                1 6</in></_></splits></_>
        <_>
          <depth>4</depth>
          <value>-4.4067685917956467e-001</value>
          <splits>
            <_><var>216</var>
              <quality>3.0618311837315559e-002</quality>
              <le>1.6335284709930420e-001</le></_></splits></_>
        <_>
          <depth>5</depth>
          <value>-8.5975010733583368e-001</value></_>
        <_>
          <depth>5</depth>
          <value>3.4982021895398158e-001</value></_>
        <_>
          <depth>4</depth>
          <value>3.1971270405160834e-001</value>
          <splits>
            <_><var>251</var>
              <quality>3.2861638814210892e-002</quality>
              <le>8.1278458237648010e-002</le></_></splits></_>
        <_>
          <depth>5</depth>
          <value>-2.7824933389717466e-001</value></_>
        <_>
          <depth>5</depth>
          <value>4.3778507721480830e-001</value></_>
        <_>
          <depth>1</depth>
          <value>8.0355116170780019e-002</value>
          <splits>
            <_><var>324</var>
              <quality>5.0962243229150772e-002</quality>
              <in>
                0 1 6 8</in></_></splits></_>
        <_>
          <depth>2</depth>
          <value>-6.0586385352028671e-001</value>
          <splits>
            <_><var>153</var>
              <quality>3.5748951137065887e-002</quality>
              <le>1.6520561277866364e-001</le></_></splits></_>
        <_>
          <depth>3</depth>
          <value>-7.4359060620307516e-001</value>
          <splits>
            <_><var>59</var>
              <quality>3.8096886128187180e-002</quality>
              <le>7.2527094744145870e-003</le></_></splits></_>
        <_>
          <depth>4</depth>
          <value>-2.4917226976522860e-001</value>
          <splits>
            <_><var>291</var>
              <quality>2.2444166243076324e-003</quality>
              <le>2.9111373424530029e-001</le></_></splits></_>
        <_>
          <depth>5</depth>
          <value>-6.8121685300135726e-001</value></_>
        <_>
          <depth>5</depth>
          <value>2.2385833171112907e-001</value></_>
        <_>
          <depth>4</depth>
          <value>-8.1769978224452555e-001</value>
          <splits>
            <_><var>98</var>
              <quality>3.9389468729496002e-002</quality>
              <le>2.7876204252243042e-001</le></_></splits></_>
        <_>
          <depth>5</depth>
          <value>-8.7777359248549103e-001</value></_>
        <_>
          <depth>5</depth>
          <value>-2.7989530522051798e-001</value></_>
        <_>
          <depth>3</depth>
          <value>3.7786438628584128e-002</value>
          <splits>
            <_><var>256</var>
              <quality>1.6956337494775653e-003</quality>
              <le>3.1391358375549316e-001</le></_></splits></_>
        <_>
          <depth>4</depth>
          <value>1.6126143076317753e-001</value>
          <splits>
            <_><var>208</var>
              <quality>1.6376191051676869e-003</quality>
              <le>2.7016952633857727e-001</le></_></splits></_>
        <_>
          <depth>5</depth>
          <value>3.0033116218625755e-001</value></_>
        <_>
          <depth>5</depth>
          <value>-6.1051014945140747e-001</value></_>
        <_>
          <depth>4</depth>
          <value>-9.4383251494131337e-001</value>
          <splits>
            <_><var>213</var>
              <quality>1.4472643379122019e-003</quality>
              <le>1.9013525545597076e-001</le></_></splits></_>
        <_>
          <depth>5</depth>
          <value>-9.8059302982348751e-001</value></_>
        <_>
          <depth>5</depth>
          <value>3.0680660652198571e-001</value></_>
        <_>
          <depth>2</depth>
          <value>3.0235716569784843e-001</value>
          <splits>
            <_><var>324</var>
              <quality>2.6309225708246231e-002</quality>
              <not_in>
                3 5</not_in></_></splits></_>
        <_>
          <depth>3</depth>
          <value>1.9470971514278734e-001</value>
          <splits>
            <_><var>270</var>
              <quality>1.5077502466738224e-002</quality>
              <le>6.3634231686592102e-002</le></_></splits></_>
        <_>
          <depth>4</depth>
          <value>-3.7121761905559852e-001</value>
          <splits>
            <_><var>299</var>
              <quality>9.6895024180412292e-003</quality>
              <le>2.5137889385223389e-001</le></_></splits></_>
        <_>
          <depth>5</depth>
          <value>1.1205201097274106e-001</value></_>
        <_>
          <depth>5</depth>
          <value>-8.9373068306772308e-001</value></_>
        <_>
          <depth>4</depth>
          <value>3.1213057498622621e-001</value>
          <splits>
            <_><var>22</var>
              <quality>1.4382268302142620e-002</quality>
              <le>2.6852843165397644e-001</le></_></splits></_>
        <_>
          <depth>5</depth>
          <value>3.9563608877541478e-001</value></_>
        <_>
          <depth>5</depth>
          <value>3.9321449625474847e-002</value></_>
        <_>
          <depth>3</depth>
          <value>4.6103922781038098e-001</value>
          <splits>
            <_><var>193</var>
              <quality>3.2285328954458237e-002</quality>
              <le>2.4418789148330688e-001</le></_></splits></_>
        <_>
          <depth>4</depth>
          <value>-2.6822250744479725e-001</value>
          <splits>
            <_><var>253</var>
              <quality>5.5120796896517277e-003</quality>
              <le>1.2571460008621216e-001</le></_></splits></_>
        <_>
          <depth>5</depth>
          <value>3.1943686574030428e-001</value></_>
        <_>
          <depth>5</depth>
          <value>-6.7704287795188745e-001</value></_>
        <_>
          <depth>4</depth>
          <value>6.2128609583583350e-001</value>
          <splits>
            <_><var>320</var>
              <quality>3.6400534212589264e-002</quality>
              <le>7.7736154198646545e-003</le></_></splits></_>
        <_>
          <depth>5</depth>
          <value>6.7579330315340369e-001</value></_>
        <_>
          <depth>5</depth>
          <value>-6.0835334776025329e-001</value></_></nodes></_>
    <_>
      <nodes>
        <_>
          <depth>0</depth>
          <value>-5.2344640645247340e-002</value>
          <splits>
            <_><var>238</var>
              <quality>4.5214570127427578e-003</quality>
              <le>8.1150844693183899e-002</le></_></splits></_>
        <_>
          <depth>1</depth>
          <value>-8.6467658500805233e-002</value>
          <splits>
            <_><var>324</var>
              <quality>2.3075271397829056e-002</quality>
              <in>
                5</in></_></splits></_>
        <_>
          <depth>2</depth>
          <value>-6.1542314157630684e-001</value>
          <splits>
            <_><var>163</var>
              <quality>3.1104004010558128e-002</quality>
              <le>7.0496812462806702e-002</le></_></splits></_>
        <_>
          <depth>3</depth>
          <value>-7.9064209078579334e-002</value>
          <splits>
            <_><var>220</var>
              <quality>6.9997943937778473e-003</quality>
              <le>2.6077282428741455e-001</le></_></splits></_>
        <_>
          <depth>4</depth>
          <value>-6.3926746922751088e-001</value>
          <splits>
            <_><var>257</var>
              <quality>5.8644013479351997e-003</quality>
              <le>2.7221399545669556e-001</le></_></splits></_>
        <_>
          <depth>5</depth>
          <value>-7.9602495855499411e-001</value></_>
        <_>
          <depth>5</depth>
          <value>3.5888726810165611e-001</value></_>
        <_>
          <depth>4</depth>
          <value>5.4364248978790242e-001</value>
          <splits>
            <_><var>258</var>
              <quality>4.3341396376490593e-003</quality>
              <le>2.5099176168441772e-001</le></_></splits></_>
        <_>
          <depth>5</depth>
          <value>-1.5731555986690740e-001</value></_>
        <_>
          <depth>5</depth>
          <value>7.8433918261300029e-001</value></_>
        <_>
          <depth>3</depth>
          <value>-8.7926753867207663e-001</value>
          <splits>
            <_><var>256</var>
              <quality>3.2725002616643906e-002</quality>
              <le>3.0720466375350952e-001</le></_></splits></_>
        <_>
          <depth>4</depth>
          <value>-9.2102593524760046e-001</value>
          <splits>
            <_><var>219</var>
              <quality>3.3292055130004883e-002</quality>
              <le>2.9214543104171753e-001</le></_></splits></_>
        <_>
          <depth>5</depth>
          <value>-9.4294041411339957e-001</value></_>
        <_>
          <depth>5</depth>
          <value>-2.0083083774592278e-001</value></_>
        <_>
          <depth>4</depth>
          <value>1.6307117588374120e-001</value>
          <splits>
            <_><var>309</var>
              <quality>8.3668949082493782e-004</quality>
              <le>2.8223724802955985e-004</le></_></splits></_>
        <_>
          <depth>5</depth>
          <value>6.5307297672709530e-001</value></_>
        <_>
          <depth>5</depth>
          <value>-8.8887731934156866e-001</value></_>
        <_>
          <depth>2</depth>
          <value>-2.8205576258881863e-002</value>
          <splits>
            <_><var>324</var>
              <quality>5.8962679468095303e-003</quality>
              <in>
                0 1 4 7 8</in></_></splits></_>
        <_>
          <depth>3</depth>
          <value>-1.2784108311544976e-001</value>
          <splits>
            <_><var>278</var>
              <quality>1.7398143187165260e-002</quality>
              <le>2.6437145471572876e-001</le></_></splits></_>
        <_>
          <depth>4</depth>
          <value>-2.1686333655566489e-001</value>
          <splits>
            <_><var>197</var>
              <quality>2.3714341223239899e-002</quality>
              <le>8.4747731685638428e-002</le></_></splits></_>
        <_>
          <depth>5</depth>
          <value>-4.4412984494595004e-001</value></_>
        <_>
          <depth>5</depth>
          <value>2.1953662543567645e-002</value></_>
        <_>
          <depth>4</depth>
          <value>4.0367983558353099e-001</value>
          <splits>
            <_><var>324</var>
              <quality>1.8271399661898613e-002</quality>
              <not_in>
                0</not_in></_></splits></_>
        <_>
          <depth>5</depth>
          <value>-2.8435005066643426e-001</value></_>
        <_>
          <depth>5</depth>
          <value>8.4417123691035700e-001</value></_>
        <_>
          <depth>3</depth>
          <value>7.2836983551536158e-002</value>
          <splits>
            <_><var>278</var>
              <quality>1.5261152759194374e-002</quality>
              <le>2.6437145471572876e-001</le></_></splits></_>
        <_>
          <depth>4</depth>
          <value>1.6311945474117961e-001</value>
          <splits>
            <_><var>135</var>
              <quality>1.6483977437019348e-002</quality>
              <le>3.1235557794570923e-001</le></_></splits></_>
        <_>
          <depth>5</depth>
          <value>2.2800540952832676e-001</value></_>
        <_>
          <depth>5</depth>
          <value>-5.1920781252461701e-001</value></_>
        <_>
          <depth>4</depth>
          <value>-4.9565164742237866e-001</value>
          <splits>
            <_><var>67</var>
              <quality>1.5975082293152809e-002</quality>
              <le>2.0869177579879761e-001</le></_></splits></_>
        <_>
          <depth>5</depth>
          <value>-8.3089956767133566e-001</value></_>
        <_>
          <depth>5</depth>
          <value>6.1771388944710952e-002</value></_>
        <_>
          <depth>1</depth>
          <value>6.8373617218530809e-003</value>
          <splits>
            <_><var>324</var>
              <quality>3.0362265184521675e-002</quality>
              <in>
                1 2 3 6 9</in></_></splits></_>
        <_>
          <depth>2</depth>
          <value>-3.6379538688177526e-001</value>
          <splits>
            <_><var>123</var>
              <quality>2.4287778884172440e-002</quality>
              <le>1.7720164731144905e-002</le></_></splits></_>
        <_>
          <depth>3</depth>
          <value>-1.6998960424763906e-001</value>
          <splits>
            <_><var>87</var>
              <quality>7.8063192777335644e-003</quality>
              <le>1.4379411935806274e-001</le></_></splits></_>
        <_>
          <depth>4</depth>
          <value>2.2887031038548366e-003</value>
          <splits>
            <_><var>273</var>
              <quality>3.1424886547029018e-003</quality>
              <le>2.3453208804130554e-001</le></_></splits></_>
        <_>
          <depth>5</depth>
          <value>6.9643971514739750e-002</value></_>
        <_>
          <depth>5</depth>
          <value>-8.6236564427427209e-001</value></_>
        <_>
          <depth>4</depth>
          <value>-6.0309854618554559e-001</value>
          <splits>
            <_><var>227</var>
              <quality>9.9366297945380211e-003</quality>
              <le>2.7513509988784790e-001</le></_></splits></_>
        <_>
          <depth>5</depth>
          <value>-8.3622533415093359e-001</value></_>
        <_>
          <depth>5</depth>
          <value>-1.7725075668492962e-001</value></_>
        <_>
          <depth>3</depth>
          <value>-6.0891007310839229e-001</value>
          <splits>
            <_><var>85</var>
              <quality>2.6611436158418655e-002</quality>
              <le>2.0296722650527954e-001</le></_></splits></_>
        <_>
          <depth>4</depth>
          <value>-7.3853981382104195e-001</value>
          <splits>
            <_><var>22</var>
              <quality>2.7531012892723083e-002</quality>
              <le>3.0585946515202522e-003</le></_></splits></_>
        <_>
          <depth>5</depth>
          <value>-1.5719454695112925e-001</value></_>
        <_>
          <depth>5</depth>
          <value>-7.7123654229594374e-001</value></_>
        <_>
          <depth>4</depth>
          <value>-2.6362396833254247e-002</value>
          <splits>
            <_><var>226</var>
              <quality>2.2401704918593168e-003</quality>
              <le>9.5627143979072571e-002</le></_></splits></_>
        <_>
          <depth>5</depth>
          <value>-7.5269006056598420e-001</value></_>
        <_>
          <depth>5</depth>
          <value>2.5685056943946677e-001</value></_>
        <_>
          <depth>2</depth>
          <value>2.4250074052554926e-001</value>
          <splits>
            <_><var>324</var>
              <quality>1.7429934814572334e-002</quality>
              <not_in>
                5</not_in></_></splits></_>
        <_>
          <depth>3</depth>
          <value>1.4576862319329509e-001</value>
          <splits>
            <_><var>271</var>
              <quality>2.3134063929319382e-002</quality>
              <le>3.0351428315043449e-002</le></_></splits></_>
        <_>
          <depth>4</depth>
          <value>-7.1429036763969433e-001</value>
          <splits>
            <_><var>233</var>
              <quality>1.4160394668579102e-002</quality>
              <le>2.3702046275138855e-001</le></_></splits></_>
        <_>
          <depth>5</depth>
          <value>-8.1680526962651245e-001</value></_>
        <_>
          <depth>5</depth>
          <value>3.5111837681878677e-001</value></_>
        <_>
          <depth>4</depth>
          <value>2.9865749349890847e-001</value>
          <splits>
            <_><var>309</var>
              <quality>1.5598324127495289e-002</quality>
              <le>6.3311604208138306e-006</le></_></splits></_>
        <_>
          <depth>5</depth>
          <value>6.3856503057738684e-002</value></_>
        <_>
          <depth>5</depth>
          <value>4.3536377770552459e-001</value></_>
        <_>
          <depth>3</depth>
          <value>4.8296717671321776e-001</value>
          <splits>
            <_><var>271</var>
              <quality>3.4889049828052521e-002</quality>
              <le>1.2736779451370239e-001</le></_></splits></_>
        <_>
          <depth>4</depth>
          <value>7.5771093384264765e-001</value>
          <splits>
            <_><var>139</var>
              <quality>3.4455291926860809e-002</quality>
              <le>2.5097709894180298e-001</le></_></splits></_>
        <_>
          <depth>5</depth>
          <value>-2.1069160252650371e-001</value></_>
        <_>
          <depth>5</depth>
          <value>8.7870709405261893e-001</value></_>
        <_>
          <depth>4</depth>
          <value>-7.5229120261609761e-001</value>
          <splits>
            <_><var>263</var>
              <quality>9.2997550964355469e-003</quality>
              <le>1.3459947705268860e-001</le></_></splits></_>
        <_>
          <depth>5</depth>
          <value>5.3971336630123712e-001</value></_>
        <_>
          <depth>5</depth>
          <value>-9.6355995692577312e-001</value></_></nodes></_>
    <_>
      <nodes>
        <_>
          <depth>0</depth>
          <value>-2.6875481181191197e-002</value>
          <splits>
            <_><var>58</var>
              <quality>4.1874996386468410e-003</quality>
              <le>1.6705231368541718e-001</le></_></splits></_>
        <_>
          <depth>1</depth>
          <value>2.3305295590019422e-002</value>
          <splits>
            <_><var>324</var>
              <quality>1.0722422972321510e-002</quality>
              <in>
                2 3 7</in></_></splits></_>
        <_>
          <depth>2</depth>
          <value>-3.0783593625359718e-001</value>
          <splits>
            <_><var>225</var>
              <quality>1.4629918150603771e-002</quality>
              <le>2.6751446723937988e-001</le></_></splits></_>
        <_>
          <depth>3</depth>
          <value>-6.2483496947000527e-001</value>
          <splits>
            <_><var>202</var>
              <quality>1.7092177644371986e-002</quality>
              <le>1.0996791534125805e-002</le></_></splits></_>
        <_>
          <depth>4</depth>
          <value>2.8111261529508436e-001</value>
          <splits>
            <_><var>22</var>
              <quality>1.1325557716190815e-003</quality>
              <le>1.3367809355258942e-002</le></_></splits></_>
        <_>
          <depth>5</depth>
          <value>-9.6581113907212768e-001</value></_>
        <_>
          <depth>5</depth>
          <value>5.3677618591418241e-001</value></_>
        <_>
          <depth>4</depth>
          <value>-6.9969577724600351e-001</value>
          <splits>
            <_><var>25</var>
              <quality>1.9287046045064926e-002</quality>
              <le>9.6322610974311829e-002</le></_></splits></_>
        <_>
          <depth>5</depth>
          <value>-8.0295487120621911e-001</value></_>
        <_>
          <depth>5</depth>
          <value>-1.9499033049475194e-002</value></_>
        <_>
          <depth>3</depth>
          <value>-3.9138170517032889e-002</value>
          <splits>
            <_><var>215</var>
              <quality>4.8938980326056480e-003</quality>
              <le>4.3720692396163940e-002</le></_></splits></_>
        <_>
          <depth>4</depth>
          <value>2.6197441031095464e-001</value>
          <splits>
            <_><var>133</var>
              <quality>3.6703760270029306e-003</quality>
              <le>6.8886041641235352e-002</le></_></splits></_>
        <_>
          <depth>5</depth>
          <value>-1.4692069949044553e-001</value></_>
        <_>
          <depth>5</depth>
          <value>4.6674197046318688e-001</value></_>
        <_>
          <depth>4</depth>
          <value>-4.0339116840027878e-001</value>
          <splits>
            <_><var>172</var>
              <quality>5.4904664866626263e-003</quality>
              <le>2.7438268065452576e-001</le></_></splits></_>
        <_>
          <depth>5</depth>
          <value>-6.3592247883506414e-001</value></_>
        <_>
          <depth>5</depth>
          <value>8.2471800986893315e-002</value></_>
        <_>
          <depth>2</depth>
          <value>7.9036972491538196e-002</value>
          <splits>
            <_><var>324</var>
              <quality>7.4920770712196827e-003</quality>
              <not_in>
                4 6 8</not_in></_></splits></_>
        <_>
          <depth>3</depth>
          <value>-2.0052076752105453e-002</value>
          <splits>
            <_><var>265</var>
              <quality>2.5665173307061195e-002</quality>
              <le>1.1901529133319855e-001</le></_></splits></_>
        <_>
          <depth>4</depth>
          <value>2.0905372603832081e-001</value>
          <splits>
            <_><var>205</var>
              <quality>1.5944600105285645e-002</quality>
              <le>6.3921831548213959e-002</le></_></splits></_>
        <_>
          <depth>5</depth>
          <value>3.6490360851965103e-001</value></_>
        <_>
          <depth>5</depth>
          <value>-1.5681972976090239e-001</value></_>
        <_>
          <depth>4</depth>
          <value>-4.9601666338130979e-001</value>
          <splits>
            <_><var>130</var>
              <quality>2.7935037389397621e-002</quality>
              <le>1.6748231649398804e-001</le></_></splits></_>
        <_>
          <depth>5</depth>
          <value>-8.5896305624338065e-001</value></_>
        <_>
          <depth>5</depth>
          <value>-1.6378364499855466e-001</value></_>
        <_>
          <depth>3</depth>
          <value>1.7250746217229562e-001</value>
          <splits>
            <_><var>176</var>
              <quality>3.2863572239875793e-002</quality>
              <le>6.0859043151140213e-003</le></_></splits></_>
        <_>
          <depth>4</depth>
          <value>-5.5857225305087999e-001</value>
          <splits>
            <_><var>274</var>
              <quality>1.7394354566931725e-002</quality>
              <le>6.8276941776275635e-002</le></_></splits></_>
        <_>
          <depth>5</depth>
          <value>-7.2240883799988576e-001</value></_>
        <_>
          <depth>5</depth>
          <value>1.9243553458424115e-001</value></_>
        <_>
          <depth>4</depth>
          <value>3.1262939134607831e-001</value>
          <splits>
            <_><var>130</var>
              <quality>3.3197086304426193e-002</quality>
              <le>2.5860542058944702e-001</le></_></splits></_>
        <_>
          <depth>5</depth>
          <value>4.9052028624824306e-001</value></_>
        <_>
          <depth>5</depth>
          <value>-3.2518107245192454e-002</value></_>
        <_>
          <depth>1</depth>
          <value>-1.0032190723877397e-001</value>
          <splits>
            <_><var>324</var>
              <quality>2.0198887214064598e-002</quality>
              <in>
                0 6</in></_></splits></_>
        <_>
          <depth>2</depth>
          <value>-7.7374633577489627e-001</value>
          <splits>
            <_><var>79</var>
              <quality>2.2587867453694344e-002</quality>
              <le>2.5073492527008057e-001</le></_></splits></_>
        <_>
          <depth>3</depth>
          <value>-8.6627167408789096e-001</value>
          <splits>
            <_><var>280</var>
              <quality>2.3579305037856102e-002</quality>
              <le>2.6659190654754639e-001</le></_></splits></_>
        <_>
          <depth>4</depth>
